{"learner":{"attributes":{"scikit_learn":"{\"_estimator_type\": \"classifier\"}"},"feature_names":[],"feature_types":[],"gradient_booster":{"model":{"gbtree_model_param":{"num_parallel_tree":"1","num_trees":"170"},"iteration_indptr":[0,1,2,3,4,5,6,7,8,9,10,11,12,13,14,15,16,17,18,19,20,21,22,23,24,25,26,27,28,29,30,31,32,33,34,35,36,37,38,39,40,41,42,43,44,45,46,47,48,49,50,51,52,53,54,55,56,57,58,59,60,61,62,63,64,65,66,67,68,69,70,71,72,73,74,75,76,77,78,79,80,81,82,83,84,85,86,87,88,89,90,91,92,93,94,95,96,97,98,99,100,101,102,103,104,105,106,107,108,109,110,111,112,113,114,115,116,117,118,119,120,121,122,123,124,125,126,127,128,129,130,131,132,133,134,135,136,137,138,139,140,141,142,143,144,145,146,147,148,149,150,151,152,153,154,155,156,157,158,159,160,161,162,163,164,165,166,167,168,169,170],"tree_info":[0,0,0,0,0,0,0,0,0,0,0,0,0,0,0,0,0,0,0,0,0,0,0,0,0,0,0,0,0,0,0,0,0,0,0,0,0,0,0,0,0,0,0,0,0,0,0,0,0,0,0,0,0,0,0,0,0,0,0,0,0,0,0,0,0,0,0,0,0,0,0,0,0,0,0,0,0,0,0,0,0,0,0,0,0,0,0,0,0,0,0,0,0,0,0,0,0,0,0,0,0,0,0,0,0,0,0,0,0,0,0,0,0,0,0,0,0,0,0,0,0,0,0,0,0,0,0,0,0,0,0,0,0,0,0,0,0,0,0,0,0,0,0,0,0,0,0,0,0,0,0,0,0,0,0,0,0,0,0,0,0,0,0,0,0,0,0,0,0,0],"trees":[{"base_weights":[7.508767E-4,4.6919522E-1,-1.4747415E0,7.547061E-2,-1.3819835E-1,-9.395743E-2,-2.008396E-1],"categories":[],"categories_nodes":[],"categories_segments":[],"categories_sizes":[],"default_left":[0,0,0,0,0,0,0],"id":0,"left_children":[1,3,5,-1,-1,-1,-1],"loss_changes":[5.774711E1,3.362092E1,5.561203E0,0E0,0E0,0E0,0E0],"parents":[2147483647,0,0,1,1,2,2],"right_children":[2,4,6,-1,-1,-1,-1],"split_conditions":[1E0,1E0,1E0,7.547061E-2,-1.3819835E-1,-9.395743E-2,-2.008396E-1],"split_indices":[511,81,136,0,0,0,0],"split_type":[0,0,0,0,0,0,0],"sum_hessian":[8.334774E1,6.3314606E1,2.0033136E1,5.4905636E1,8.408971E0,1.014023E1,9.892907E0],"tree_param":{"num_deleted":"0","num_feature":"1024","num_nodes":"7","size_leaf_vector":"1"}},{"base_weights":[7.596771E-4,4.254006E-1,-1.3158336E0,6.899759E-2,-1.3928945E-1,-9.497486E-2,-2.0230737E-1],"categories":[],"categories_nodes":[],"categories_segments":[],"categories_sizes":[],"default_left":[0,0,0,0,0,0,0],"id":1,"left_children":[1,3,5,-1,-1,-1,-1],"loss_changes":[4.6576153E1,3.0399925E1,5.0680847E0,0E0,0E0,0E0,0E0],"parents":[2147483647,0,0,1,1,2,2],"right_children":[2,4,6,-1,-1,-1,-1],"split_conditions":[1E0,1E0,1E0,6.899759E-2,-1.3928945E-1,-9.497486E-2,-2.0230737E-1],"split_indices":[511,360,66,0,0,0,0],"split_type":[0,0,0,0,0,0,0],"sum_hessian":[8.310854E1,6.2891747E1,2.0216793E1,5.4957134E1,7.934613E0,1.3475718E1,6.741075E0],"tree_param":{"num_deleted":"0","num_feature":"1024","num_nodes":"7","size_leaf_vector":"1"}},{"base_weights":[5.1879825E-4,3.9125928E-1,-1.1330385E0,6.1198324E-2,-1.0280515E-1,-3.324261E-2,-1.657566E-1],"categories":[],"categories_nodes":[],"categories_segments":[],"categories_sizes":[],"default_left":[0,0,0,0,0,0,0],"id":2,"left_children":[1,3,5,-1,-1,-1,-1],"loss_changes":[3.6657196E1,1.9343819E1,8.8540535E0,0E0,0E0,0E0,0E0],"parents":[2147483647,0,0,1,1,2,2],"right_children":[2,4,6,-1,-1,-1,-1],"split_conditions":[1E0,1E0,1E0,6.1198324E-2,-1.0280515E-1,-3.324261E-2,-1.657566E-1],"split_indices":[361,609,314,0,0,0,0],"split_type":[0,0,0,0,0,0,0],"sum_hessian":[8.2561226E1,6.1446068E1,2.1115152E1,5.3225582E1,8.220489E0,8.422637E0,1.2692516E1],"tree_param":{"num_deleted":"0","num_feature":"1024","num_nodes":"7","size_leaf_vector":"1"}},{"base_weights":[2.1643401E-4,3.5615528E-1,-1.0939658E0,6.311145E-2,-1.4376806E-1,-7.739373E-2,-1.7239952E-1],"categories":[],"categories_nodes":[],"categories_segments":[],"categories_sizes":[],"default_left":[0,0,0,0,0,0,0],"id":3,"left_children":[1,3,5,-1,-1,-1,-1],"loss_changes":[3.193053E1,3.0603184E1,3.9241028E0,0E0,0E0,0E0,0E0],"parents":[2147483647,0,0,1,1,2,2],"right_children":[2,4,6,-1,-1,-1,-1],"split_conditions":[1E0,1E0,1E0,6.311145E-2,-1.4376806E-1,-7.739373E-2,-1.7239952E-1],"split_indices":[511,674,66,0,0,0,0],"split_type":[0,0,0,0,0,0,0],"sum_hessian":[8.1786224E1,6.1762314E1,2.0023909E1,5.3609818E1,8.152496E0,1.3426602E1,6.5973067E0],"tree_param":{"num_deleted":"0","num_feature":"1024","num_nodes":"7","size_leaf_vector":"1"}},{"base_weights":[-2.4877334E-4,3.24804E-1,-1.0010225E0,5.7604183E-2,-1.3098197E-1,-5.434797E-2,-1.472257E-1],"categories":[],"categories_nodes":[],"categories_segments":[],"categories_sizes":[],"default_left":[0,0,0,0,0,0,0],"id":4,"left_children":[1,3,5,-1,-1,-1,-1],"loss_changes":[2.6321508E1,2.5158102E1,4.197159E0,0E0,0E0,0E0,0E0],"parents":[2147483647,0,0,1,1,2,2],"right_children":[2,4,6,-1,-1,-1,-1],"split_conditions":[1E0,1E0,1E0,5.7604183E-2,-1.3098197E-1,-5.434797E-2,-1.472257E-1],"split_indices":[511,674,136,0,0,0,0],"split_type":[0,0,0,0,0,0,0],"sum_hessian":[8.0713554E1,6.0976006E1,1.973755E1,5.2908806E1,8.0672E0,1.0123509E1,9.614042E0],"tree_param":{"num_deleted":"0","num_feature":"1024","num_nodes":"7","size_leaf_vector":"1"}},{"base_weights":[-7.153151E-4,-4.4940472E-1,5.5896246E-1,-4.537163E-3,-1.3053001E-1,1.21765554E-1,-5.539402E-2],"categories":[],"categories_nodes":[],"categories_segments":[],"categories_sizes":[],"default_left":[0,0,0,0,0,0,0],"id":5,"left_children":[1,3,5,-1,-1,-1,-1],"loss_changes":[2.0011288E1,1.52890005E1,2.606062E1,0E0,0E0,0E0,0E0],"parents":[2147483647,0,0,1,1,2,2],"right_children":[2,4,6,-1,-1,-1,-1],"split_conditions":[1E0,1E0,1E0,-4.537163E-3,-1.3053001E-1,1.21765554E-1,-5.539402E-2],"split_indices":[656,896,157,0,0,0,0],"split_type":[0,0,0,0,0,0,0],"sum_hessian":[7.948764E1,4.4129257E1,3.5358383E1,3.0049448E1,1.4079809E1,2.220595E1,1.3152435E1],"tree_param":{"num_deleted":"0","num_feature":"1024","num_nodes":"7","size_leaf_vector":"1"}},{"base_weights":[-3.4573762E-4,-2.4461457E-1,1.0510026E0,3.515577E-2,-7.331857E-2,1.5228684E-1,6.546564E-2],"categories":[],"categories_nodes":[],"categories_segments":[],"categories_sizes":[],"default_left":[0,0,0,0,0,0,0],"id":6,"left_children":[1,3,5,-1,-1,-1,-1],"loss_changes":[2.0253054E1,1.8665716E1,2.6810474E0,0E0,0E0,0E0,0E0],"parents":[2147483647,0,0,1,1,2,2],"right_children":[2,4,6,-1,-1,-1,-1],"split_conditions":[1E0,1E0,1E0,3.515577E-2,-7.331857E-2,1.5228684E-1,6.546564E-2],"split_indices":[73,378,893,0,0,0,0],"split_type":[0,0,0,0,0,0,0],"sum_hessian":[7.866335E1,6.3894848E1,1.4768508E1,2.879103E1,3.5103817E1,6.612199E0,8.156309E0],"tree_param":{"num_deleted":"0","num_feature":"1024","num_nodes":"7","size_leaf_vector":"1"}},{"base_weights":[1.9997948E-4,2.1782392E-1,-1.0162838E0,4.442466E-2,-1.3764301E-1,-6.320502E-2,-1.4913546E-1],"categories":[],"categories_nodes":[],"categories_segments":[],"categories_sizes":[],"default_left":[0,0,0,0,0,0,0],"id":7,"left_children":[1,3,5,-1,-1,-1,-1],"loss_changes":[1.7212048E1,2.3195093E1,2.410306E0,0E0,0E0,0E0,0E0],"parents":[2147483647,0,0,1,1,2,2],"right_children":[2,4,6,-1,-1,-1,-1],"split_conditions":[1E0,1E0,1E0,4.442466E-2,-1.3764301E-1,-6.320502E-2,-1.4913546E-1],"split_indices":[609,194,66,0,0,0,0],"split_type":[0,0,0,0,0,0,0],"sum_hessian":[7.760815E1,6.398735E1,1.3620793E1,5.609293E1,7.8944197E0,7.6591644E0,5.9616284E0],"tree_param":{"num_deleted":"0","num_feature":"1024","num_nodes":"7","size_leaf_vector":"1"}},{"base_weights":[-4.7159632E-4,-2.1892151E-1,9.598539E-1,2.9072076E-2,-6.3865736E-2,1.3378721E-1,3.1038895E-2],"categories":[],"categories_nodes":[],"categories_segments":[],"categories_sizes":[],"default_left":[0,0,0,0,0,0,0],"id":8,"left_children":[1,3,5,-1,-1,-1,-1],"loss_changes":[1.6103243E1,1.3395937E1,3.450945E0,0E0,0E0,0E0,0E0],"parents":[2147483647,0,0,1,1,2,2],"right_children":[2,4,6,-1,-1,-1,-1],"split_conditions":[1E0,1E0,1E0,2.9072076E-2,-6.3865736E-2,1.3378721E-1,3.1038895E-2],"split_indices":[73,378,1,0,0,0,0],"split_type":[0,0,0,0,0,0,0],"sum_hessian":[7.656126E1,6.243587E1,1.4125388E1,2.8211847E1,3.4224022E1,8.861559E0,5.263829E0],"tree_param":{"num_deleted":"0","num_feature":"1024","num_nodes":"7","size_leaf_vector":"1"}},{"base_weights":[4.6053316E-5,-1.9917478E-1,8.98485E-1,-3.6987737E-3,-1.4042132E-1,1.2735413E-1,2.8220167E-2],"categories":[],"categories_nodes":[],"categories_segments":[],"categories_sizes":[],"default_left":[0,0,0,0,0,0,0],"id":9,"left_children":[1,3,5,-1,-1,-1,-1],"loss_changes":[1.3539971E1,1.2096117E1,3.137559E0,0E0,0E0,0E0,0E0],"parents":[2147483647,0,0,1,1,2,2],"right_children":[2,4,6,-1,-1,-1,-1],"split_conditions":[1E0,1E0,1E0,-3.6987737E-3,-1.4042132E-1,1.2735413E-1,2.8220167E-2],"split_indices":[73,194,1,0,0,0,0],"split_type":[0,0,0,0,0,0,0],"sum_hessian":[7.5447495E1,6.1817783E1,1.362971E1,5.4575493E1,7.242287E0,8.406845E0,5.2228656E0],"tree_param":{"num_deleted":"0","num_feature":"1024","num_nodes":"7","size_leaf_vector":"1"}},{"base_weights":[2.9089476E-4,1.904855E-1,-9.0168464E-1,5.6207847E-2,-4.035897E-2,-5.1940143E-2,-1.3988882E-1],"categories":[],"categories_nodes":[],"categories_segments":[],"categories_sizes":[],"default_left":[0,0,0,0,0,0,0],"id":10,"left_children":[1,3,5,-1,-1,-1,-1],"loss_changes":[1.2861651E1,1.3691042E1,2.4089394E0,0E0,0E0,0E0,0E0],"parents":[2147483647,0,0,1,1,2,2],"right_children":[2,4,6,-1,-1,-1,-1],"split_conditions":[1E0,1E0,1E0,5.6207847E-2,-4.035897E-2,-5.1940143E-2,-1.3988882E-1],"split_indices":[609,428,921,0,0,0,0],"split_type":[0,0,0,0,0,0,0],"sum_hessian":[7.477269E1,6.1816635E1,1.2956052E1,3.803266E1,2.3783976E1,7.440085E0,5.5159674E0],"tree_param":{"num_deleted":"0","num_feature":"1024","num_nodes":"7","size_leaf_vector":"1"}},{"base_weights":[-6.458094E-5,-1.7718196E-1,8.2917905E-1,-2.9477274E-2,6.725653E-2,4.0395077E-2,1.3722683E-1],"categories":[],"categories_nodes":[],"categories_segments":[],"categories_sizes":[],"default_left":[0,0,0,0,0,0,0],"id":11,"left_children":[1,3,5,-1,-1,-1,-1],"loss_changes":[1.0853012E1,6.1039495E0,2.9479284E0,0E0,0E0,0E0,0E0],"parents":[2147483647,0,0,1,1,2,2],"right_children":[2,4,6,-1,-1,-1,-1],"split_conditions":[1E0,1E0,1E0,-2.9477274E-2,6.725653E-2,4.0395077E-2,1.3722683E-1],"split_indices":[73,754,212,0,0,0,0],"split_type":[0,0,0,0,0,0,0],"sum_hessian":[7.369359E1,6.0788467E1,1.2905119E1,5.3456318E1,7.3321486E0,7.3357496E0,5.5693693E0],"tree_param":{"num_deleted":"0","num_feature":"1024","num_nodes":"7","size_leaf_vector":"1"}},{"base_weights":[6.4964127E-4,5.3302413E-1,-2.851397E-1,1.2236661E-1,-5.0370026E-2,-5.1223893E-2,9.458603E-2],"categories":[],"categories_nodes":[],"categories_segments":[],"categories_sizes":[],"default_left":[0,0,0,0,0,0,0],"id":12,"left_children":[1,3,5,-1,-1,-1,-1],"loss_changes":[1.1153311E1,1.8395828E1,1.3383433E1,0E0,0E0,0E0,0E0],"parents":[2147483647,0,0,1,1,2,2],"right_children":[2,4,6,-1,-1,-1,-1],"split_conditions":[1E0,1E0,1E0,1.2236661E-1,-5.0370026E-2,-5.1223893E-2,9.458603E-2],"split_indices":[314,428,13,0,0,0,0],"split_type":[0,0,0,0,0,0,0],"sum_hessian":[7.310627E1,2.5506224E1,4.7600048E1,1.529741E1,1.0208814E1,4.0235626E1,7.364421E0],"tree_param":{"num_deleted":"0","num_feature":"1024","num_nodes":"7","size_leaf_vector":"1"}},{"base_weights":[1.4982756E-3,1.2691279E-1,-1.2141946E-1,1.0879277E-2,-8.201685E-2],"categories":[],"categories_nodes":[],"categories_segments":[],"categories_sizes":[],"default_left":[0,0,0,0,0],"id":13,"left_children":[1,-1,3,-1,-1],"loss_changes":[1.1261608E1,0E0,1.060773E1,0E0,0E0],"parents":[2147483647,0,0,2,2],"right_children":[2,-1,4,-1,-1],"split_conditions":[1E0,1.2691279E-1,1E0,1.0879277E-2,-8.201685E-2],"split_indices":[650,0,361,0,0],"split_type":[0,0,0,0,0],"sum_hessian":[7.2077E1,6.288834E0,6.578817E1,4.954826E1,1.6239908E1],"tree_param":{"num_deleted":"0","num_feature":"1024","num_nodes":"5","size_leaf_vector":"1"}},{"base_weights":[1.4234451E-3,1.10411234E-1,-1.3320327E-1,-6.6163326E-3,7.8914575E-2],"categories":[],"categories_nodes":[],"categories_segments":[],"categories_sizes":[],"default_left":[0,0,0,0,0],"id":14,"left_children":[1,3,-1,-1,-1],"loss_changes":[1.038388E1,7.92117E0,0E0,0E0,0E0],"parents":[2147483647,0,0,1,1],"right_children":[2,4,-1,-1,-1],"split_conditions":[1E0,1E0,-1.3320327E-1,-6.6163326E-3,7.8914575E-2],"split_indices":[699,289,0,0,0],"split_type":[0,0,0,0,0],"sum_hessian":[7.124895E1,6.5950325E1,5.2986193E0,5.2406807E1,1.3543518E1],"tree_param":{"num_deleted":"0","num_feature":"1024","num_nodes":"5","size_leaf_vector":"1"}},{"base_weights":[1.3184039E-3,-1.2738092E-1,1.1497285E-1,1.7449098E-2,-6.208984E-2],"categories":[],"categories_nodes":[],"categories_segments":[],"categories_sizes":[],"default_left":[0,0,0,0,0],"id":15,"left_children":[1,3,-1,-1,-1],"loss_changes":[1.0476655E1,9.507032E0,0E0,0E0,0E0],"parents":[2147483647,0,0,1,1],"right_children":[2,4,-1,-1,-1],"split_conditions":[1E0,1E0,1.1497285E-1,1.7449098E-2,-6.208984E-2],"split_indices":[249,136,0,0,0],"split_type":[0,0,0,0,0],"sum_hessian":[7.0685104E1,6.3641834E1,7.0432663E0,3.9528137E1,2.4113697E1],"tree_param":{"num_deleted":"0","num_feature":"1024","num_nodes":"5","size_leaf_vector":"1"}},{"base_weights":[1.5380289E-3,1.2186253E-1,-1.10370874E-1,7.590228E-2,-1.807542E-2],"categories":[],"categories_nodes":[],"categories_segments":[],"categories_sizes":[],"default_left":[0,0,0,0,0],"id":16,"left_children":[1,3,-1,-1,-1],"loss_changes":[9.359811E0,1.2251655E1,0E0,0E0,0E0],"parents":[2147483647,0,0,1,1],"right_children":[2,4,-1,-1,-1],"split_conditions":[1E0,1E0,-1.10370874E-1,7.590228E-2,-1.807542E-2],"split_indices":[194,314,0,0,0],"split_type":[0,0,0,0,0],"sum_hessian":[7.017958E1,6.336971E1,6.8098726E0,2.0357056E1,4.3012653E1],"tree_param":{"num_deleted":"0","num_feature":"1024","num_nodes":"5","size_leaf_vector":"1"}},{"base_weights":[1.4837007E-3,-9.924795E-2,1.2341827E-1,1.1348891E-1,-2.1216573E-2],"categories":[],"categories_nodes":[],"categories_segments":[],"categories_sizes":[],"default_left":[0,0,0,0,0],"id":17,"left_children":[1,3,-1,-1,-1],"loss_changes":[8.651896E0,9.000636E0,0E0,0E0,0E0],"parents":[2147483647,0,0,1,1],"right_children":[2,4,-1,-1,-1],"split_conditions":[1E0,1E0,1.2341827E-1,1.1348891E-1,-2.1216573E-2],"split_indices":[610,650,0,0,0],"split_type":[0,0,0,0,0],"sum_hessian":[6.9478165E1,6.431457E1,5.163602E0,5.3153443E0,5.899922E1],"tree_param":{"num_deleted":"0","num_feature":"1024","num_nodes":"5","size_leaf_vector":"1"}},{"base_weights":[2.0950753E-3,-1.1154427E-1,1.072848E-1,1.5017345E-2,-5.417682E-2],"categories":[],"categories_nodes":[],"categories_segments":[],"categories_sizes":[],"default_left":[0,0,0,0,0],"id":18,"left_children":[1,3,-1,-1,-1],"loss_changes":[8.424182E0,7.0557594E0,0E0,0E0,0E0],"parents":[2147483647,0,0,1,1],"right_children":[2,4,-1,-1,-1],"split_conditions":[1E0,1E0,1.072848E-1,1.5017345E-2,-5.417682E-2],"split_indices":[249,136,0,0,0],"split_type":[0,0,0,0,0],"sum_hessian":[6.90341E1,6.249145E1,6.542655E0,3.8895367E1,2.3596087E1],"tree_param":{"num_deleted":"0","num_feature":"1024","num_nodes":"5","size_leaf_vector":"1"}},{"base_weights":[2.2204116E-3,1.0917778E-1,-1.0150124E-1,3.1342648E-2,-6.566604E-2],"categories":[],"categories_nodes":[],"categories_segments":[],"categories_sizes":[],"default_left":[0,0,0,0,0],"id":19,"left_children":[1,3,-1,-1,-1],"loss_changes":[7.4785852E0,9.749221E0,0E0,0E0,0E0],"parents":[2147483647,0,0,1,1],"right_children":[2,4,-1,-1,-1],"split_conditions":[1E0,1E0,-1.0150124E-1,3.1342648E-2,-6.566604E-2],"split_indices":[194,843,0,0,0],"split_type":[0,0,0,0,0],"sum_hessian":[6.85348E1,6.2095055E1,6.4397435E0,4.9067776E1,1.3027279E1],"tree_param":{"num_deleted":"0","num_feature":"1024","num_nodes":"5","size_leaf_vector":"1"}},{"base_weights":[1.6797478E-3,1.12494215E-1,-1.02452E-1,2.8889257E-2,-6.269477E-2],"categories":[],"categories_nodes":[],"categories_segments":[],"categories_sizes":[],"default_left":[0,0,0,0,0],"id":20,"left_children":[1,3,-1,-1,-1],"loss_changes":[7.733262E0,8.023626E0,0E0,0E0,0E0],"parents":[2147483647,0,0,1,1],"right_children":[2,4,-1,-1,-1],"split_conditions":[1E0,1E0,-1.02452E-1,2.8889257E-2,-6.269477E-2],"split_indices":[1009,157,0,0,0],"split_type":[0,0,0,0,0],"sum_hessian":[6.780263E1,6.1274883E1,6.5277476E0,4.9522034E1,1.175285E1],"tree_param":{"num_deleted":"0","num_feature":"1024","num_nodes":"5","size_leaf_vector":"1"}},{"base_weights":[1.4516122E-3,-1.0003141E-1,1.0061329E-1,2.0036635E-4,-1.01541534E-1],"categories":[],"categories_nodes":[],"categories_segments":[],"categories_sizes":[],"default_left":[0,0,0,0,0],"id":21,"left_children":[1,3,-1,-1,-1],"loss_changes":[6.9371395E0,5.7722425E0,0E0,0E0,0E0],"parents":[2147483647,0,0,1,1],"right_children":[2,4,-1,-1,-1],"split_conditions":[1E0,1E0,1.0061329E-1,2.0036635E-4,-1.01541534E-1],"split_indices":[249,194,0,0,0],"split_type":[0,0,0,0,0],"sum_hessian":[6.784041E1,6.1698296E1,6.142112E0,5.560046E1,6.0978346E0],"tree_param":{"num_deleted":"0","num_feature":"1024","num_nodes":"5","size_leaf_vector":"1"}},{"base_weights":[1.3923247E-3,1.4395176E-1,-6.983677E-1,6.273502E-2,-5.5769016E-3,-9.1107525E-2,-4.3631934E-2],"categories":[],"categories_nodes":[],"categories_segments":[],"categories_sizes":[],"default_left":[0,0,0,0,0,0,0],"id":22,"left_children":[1,3,5,-1,-1,-1,-1],"loss_changes":[6.736248E0,5.419359E0,5.9727526E-1,0E0,0E0,0E0,0E0],"parents":[2147483647,0,0,1,1,2,2],"right_children":[2,4,6,-1,-1,-1,-1],"split_conditions":[1E0,1E0,1E0,6.273502E-2,-5.5769016E-3,-9.1107525E-2,-4.3631934E-2],"split_indices":[609,875,226,0,0,0,0],"split_type":[0,0,0,0,0,0,0],"sum_hessian":[6.732552E1,5.5996914E1,1.1328609E1,1.630899E1,3.9687923E1,6.116282E0,5.2123275E0],"tree_param":{"num_deleted":"0","num_feature":"1024","num_nodes":"7","size_leaf_vector":"1"}},{"base_weights":[1.0922287E-3,-1.4903435E-1,6.1016345E-1,-2.7113387E-2,9.336157E-2,4.0928586E-3,1.2005021E-1],"categories":[],"categories_nodes":[],"categories_segments":[],"categories_sizes":[],"default_left":[0,0,0,0,0,0,0],"id":23,"left_children":[1,3,5,-1,-1,-1,-1],"loss_changes":[6.118912E0,7.122209E0,4.441836E0,0E0,0E0,0E0,0E0],"parents":[2147483647,0,0,1,1,2,2],"right_children":[2,4,6,-1,-1,-1,-1],"split_conditions":[1E0,1E0,1E0,-2.7113387E-2,9.336157E-2,4.0928586E-3,1.2005021E-1],"split_indices":[289,249,80,0,0,0,0],"split_type":[0,0,0,0,0,0,0],"sum_hessian":[6.6719406E1,5.358666E1,1.3132748E1,4.8223095E1,5.363566E0,6.7403183E0,6.392429E0],"tree_param":{"num_deleted":"0","num_feature":"1024","num_nodes":"7","size_leaf_vector":"1"}},{"base_weights":[1.7835429E-3,1.5405683E-1,-5.2786165E-1,5.180621E-2,-3.208674E-2,-9.597363E-2,2.7275696E-2],"categories":[],"categories_nodes":[],"categories_segments":[],"categories_sizes":[],"default_left":[0,0,0,0,0,0,0],"id":24,"left_children":[1,3,5,-1,-1,-1,-1],"loss_changes":[5.342423E0,8.910814E0,5.1407156E0,0E0,0E0,0E0,0E0],"parents":[2147483647,0,0,1,1,2,2],"right_children":[2,4,6,-1,-1,-1,-1],"split_conditions":[1E0,1E0,1E0,5.180621E-2,-3.208674E-2,-9.597363E-2,2.7275696E-2],"split_indices":[792,136,950,0,0,0,0],"split_type":[0,0,0,0,0,0,0],"sum_hessian":[6.6040565E1,5.13487E1,1.4691867E1,2.906374E1,2.228496E1,9.530819E0,5.1610475E0],"tree_param":{"num_deleted":"0","num_feature":"1024","num_nodes":"7","size_leaf_vector":"1"}},{"base_weights":[1.5588909E-3,4.026413E-1,-1.9246893E-1,1.0661111E-2,1.0867458E-1,-3.7679765E-2,8.307542E-2],"categories":[],"categories_nodes":[],"categories_segments":[],"categories_sizes":[],"default_left":[0,0,0,0,0,0,0],"id":25,"left_children":[1,3,5,-1,-1,-1,-1],"loss_changes":[5.107593E0,4.3219376E0,8.374329E0,0E0,0E0,0E0,0E0],"parents":[2147483647,0,0,1,1,2,2],"right_children":[2,4,6,-1,-1,-1,-1],"split_conditions":[1E0,1E0,1E0,1.0661111E-2,1.0867458E-1,-3.7679765E-2,8.307542E-2],"split_indices":[314,64,13,0,0,0,0],"split_type":[0,0,0,0,0,0,0],"sum_hessian":[6.543288E1,2.129847E1,4.413441E1,1.4946364E1,6.352105E0,3.7450974E1,6.6834373E0],"tree_param":{"num_deleted":"0","num_feature":"1024","num_nodes":"7","size_leaf_vector":"1"}},{"base_weights":[2.0924776E-3,1.044218E-1,-9.054609E-2,2.714706E-2,-5.7515364E-2],"categories":[],"categories_nodes":[],"categories_segments":[],"categories_sizes":[],"default_left":[0,0,0,0,0],"id":26,"left_children":[1,3,-1,-1,-1],"loss_changes":[6.030443E0,6.6400003E0,0E0,0E0,0E0],"parents":[2147483647,0,0,1,1],"right_children":[2,4,-1,-1,-1],"split_conditions":[1E0,1E0,-9.054609E-2,2.714706E-2,-5.7515364E-2],"split_indices":[1009,157,0,0,0],"split_type":[0,0,0,0,0],"sum_hessian":[6.473291E1,5.825319E1,6.4797254E0,4.680736E1,1.14458275E1],"tree_param":{"num_deleted":"0","num_feature":"1024","num_nodes":"5","size_leaf_vector":"1"}},{"base_weights":[1.7904146E-3,9.411126E-2,-8.090429E-2,3.4985606E-2,-3.1896897E-2],"categories":[],"categories_nodes":[],"categories_segments":[],"categories_sizes":[],"default_left":[0,0,0,0,0],"id":27,"left_children":[1,3,-1,-1,-1],"loss_changes":[4.8591332E0,6.1675396E0,0E0,0E0,0E0],"parents":[2147483647,0,0,1,1],"right_children":[2,4,-1,-1,-1],"split_conditions":[1E0,1E0,-8.090429E-2,3.4985606E-2,-3.1896897E-2],"split_indices":[1009,428,0,0,0],"split_type":[0,0,0,0,0],"sum_hessian":[6.4710655E1,5.8175262E1,6.5353966E0,3.59397E1,2.223556E1],"tree_param":{"num_deleted":"0","num_feature":"1024","num_nodes":"5","size_leaf_vector":"1"}},{"base_weights":[1.5764345E-3,-8.282397E-2,9.0339124E-2,-2.3920754E-2,5.332178E-2],"categories":[],"categories_nodes":[],"categories_segments":[],"categories_sizes":[],"default_left":[0,0,0,0,0],"id":28,"left_children":[1,3,-1,-1,-1],"loss_changes":[4.92363E0,5.7115493E0,0E0,0E0,0E0],"parents":[2147483647,0,0,1,1],"right_children":[2,4,-1,-1,-1],"split_conditions":[1E0,1E0,9.0339124E-2,-2.3920754E-2,5.332178E-2],"split_indices":[249,289,0,0,0],"split_type":[0,0,0,0,0],"sum_hessian":[6.448967E1,5.905368E1,5.435989E0,4.7146587E1,1.1907095E1],"tree_param":{"num_deleted":"0","num_feature":"1024","num_nodes":"5","size_leaf_vector":"1"}},{"base_weights":[1.9206704E-3,1.0302823E-1,-8.834687E-2,7.5372085E-3,-6.552877E-2],"categories":[],"categories_nodes":[],"categories_segments":[],"categories_sizes":[],"default_left":[0,0,0,0,0],"id":29,"left_children":[1,-1,3,-1,-1],"loss_changes":[5.948705E0,0E0,5.473283E0,0E0,0E0],"parents":[2147483647,0,0,2,2],"right_children":[2,-1,4,-1,-1],"split_conditions":[1E0,1.0302823E-1,1E0,7.5372085E-3,-6.552877E-2],"split_indices":[650,0,361,0,0],"split_type":[0,0,0,0,0],"sum_hessian":[6.3885265E1,5.071175E0,5.8814087E1,4.5702892E1,1.3111197E1],"tree_param":{"num_deleted":"0","num_feature":"1024","num_nodes":"5","size_leaf_vector":"1"}},{"base_weights":[1.8268388E-3,1.1704893E-1,-5.8134705E-1,2.4263637E-2,-7.115676E-2,-3.736378E-2,-7.875606E-2],"categories":[],"categories_nodes":[],"categories_segments":[],"categories_sizes":[],"default_left":[0,0,0,0,0,0,0],"id":30,"left_children":[1,3,5,-1,-1,-1,-1],"loss_changes":[4.260598E0,5.5268903E0,4.1864395E-1,0E0,0E0,0E0,0E0],"parents":[2147483647,0,0,1,1,2,2],"right_children":[2,4,6,-1,-1,-1,-1],"split_conditions":[1E0,1E0,1E0,2.4263637E-2,-7.115676E-2,-3.736378E-2,-7.875606E-2],"split_indices":[609,81,831,0,0,0,0],"split_type":[0,0,0,0,0,0,0],"sum_hessian":[6.320567E1,5.2844673E1,1.0360993E1,4.595094E1,6.893735E0,5.301863E0,5.05913E0],"tree_param":{"num_deleted":"0","num_feature":"1024","num_nodes":"7","size_leaf_vector":"1"}},{"base_weights":[1.2460726E-3,9.060696E-2,-7.701531E-2,2.5002092E-2,-5.525372E-2],"categories":[],"categories_nodes":[],"categories_segments":[],"categories_sizes":[],"default_left":[0,0,0,0,0],"id":31,"left_children":[1,3,-1,-1,-1],"loss_changes":[4.3200874E0,5.7720313E0,0E0,0E0,0E0],"parents":[2147483647,0,0,1,1],"right_children":[2,4,-1,-1,-1],"split_conditions":[1E0,1E0,-7.701531E-2,2.5002092E-2,-5.525372E-2],"split_indices":[1009,157,0,0,0],"split_type":[0,0,0,0,0],"sum_hessian":[6.246966E1,5.606339E1,6.4062743E0,4.497637E1,1.1087017E1],"tree_param":{"num_deleted":"0","num_feature":"1024","num_nodes":"5","size_leaf_vector":"1"}},{"base_weights":[1.0122721E-3,-9.744803E-2,7.004545E-2,2.8628735E-2,-3.0209273E-2],"categories":[],"categories_nodes":[],"categories_segments":[],"categories_sizes":[],"default_left":[0,0,0,0,0],"id":32,"left_children":[1,3,-1,-1,-1],"loss_changes":[4.312126E0,4.319072E0,0E0,0E0,0E0],"parents":[2147483647,0,0,1,1],"right_children":[2,4,-1,-1,-1],"split_conditions":[1E0,1E0,7.004545E-2,2.8628735E-2,-3.0209273E-2],"split_indices":[750,314,0,0,0],"split_type":[0,0,0,0,0],"sum_hessian":[6.2415894E1,5.4789288E1,7.6266065E0,1.9042408E1,3.574688E1],"tree_param":{"num_deleted":"0","num_feature":"1024","num_nodes":"5","size_leaf_vector":"1"}},{"base_weights":[1.1270079E-3,8.4843114E-2,-7.907113E-2,-2.11167E-2,6.388881E-2],"categories":[],"categories_nodes":[],"categories_segments":[],"categories_sizes":[],"default_left":[0,0,0,0,0],"id":33,"left_children":[1,3,-1,-1,-1],"loss_changes":[4.1292667E0,9.252451E0,0E0,0E0,0E0],"parents":[2147483647,0,0,1,1],"right_children":[2,4,-1,-1,-1],"split_conditions":[1E0,1E0,-7.907113E-2,-2.11167E-2,6.388881E-2],"split_indices":[194,695,0,0,0],"split_type":[0,0,0,0,0],"sum_hessian":[6.209011E1,5.6234116E1,5.855996E0,3.669235E1,1.9541765E1],"tree_param":{"num_deleted":"0","num_feature":"1024","num_nodes":"5","size_leaf_vector":"1"}},{"base_weights":[1.1077373E-3,2.0504136E-1,-3.1343353E-1,3.950081E-2,-8.79999E-2,-9.334425E-2,1.577629E-2],"categories":[],"categories_nodes":[],"categories_segments":[],"categories_sizes":[],"default_left":[0,0,0,0,0,0,0],"id":34,"left_children":[1,3,5,-1,-1,-1,-1],"loss_changes":[3.9542758E0,7.7432613E0,7.0984898E0,0E0,0E0,0E0,0E0],"parents":[2147483647,0,0,1,1,2,2],"right_children":[2,4,6,-1,-1,-1,-1],"split_conditions":[1E0,1E0,1E0,3.950081E-2,-8.79999E-2,-9.334425E-2,1.577629E-2],"split_indices":[136,1009,695,0,0,0,0],"split_type":[0,0,0,0,0,0,0],"sum_hessian":[6.1445183E1,3.7297844E1,2.4147339E1,3.1794859E1,5.5029855E0,1.03847685E1,1.3762571E1],"tree_param":{"num_deleted":"0","num_feature":"1024","num_nodes":"7","size_leaf_vector":"1"}},{"base_weights":[7.3508674E-4,-8.549368E-2,6.261115E-2,-2.1033216E-2,5.261878E-2],"categories":[],"categories_nodes":[],"categories_segments":[],"categories_sizes":[],"default_left":[0,0,0,0,0],"id":35,"left_children":[1,3,-1,-1,-1],"loss_changes":[3.298206E0,4.1156254E0,0E0,0E0,0E0],"parents":[2147483647,0,0,1,1],"right_children":[2,4,-1,-1,-1],"split_conditions":[1E0,1E0,6.261115E-2,-2.1033216E-2,5.261878E-2],"split_indices":[750,73,0,0,0],"split_type":[0,0,0,0,0],"sum_hessian":[6.0963085E1,5.365175E1,7.3113346E0,4.4612392E1,9.039358E0],"tree_param":{"num_deleted":"0","num_feature":"1024","num_nodes":"5","size_leaf_vector":"1"}},{"base_weights":[9.88991E-4,-1.2110254E-1,5.147554E-1,4.18435E-3,-1.1517769E-1,3.2533254E-2,7.501023E-2],"categories":[],"categories_nodes":[],"categories_segments":[],"categories_sizes":[],"default_left":[0,0,0,0,0,0,0],"id":36,"left_children":[1,3,5,-1,-1,-1,-1],"loss_changes":[3.8118813E0,8.251227E0,4.9577594E-1,0E0,0E0,0E0,0E0],"parents":[2147483647,0,0,1,1,2,2],"right_children":[2,4,6,-1,-1,-1,-1],"split_conditions":[1E0,1E0,1E0,4.18435E-3,-1.1517769E-1,3.2533254E-2,7.501023E-2],"split_indices":[289,501,136,0,0,0,0],"split_type":[0,0,0,0,0,0,0],"sum_hessian":[6.0570457E1,4.9002037E1,1.1568421E1,4.239541E1,6.6066265E0,6.5415664E0,5.0268555E0],"tree_param":{"num_deleted":"0","num_feature":"1024","num_nodes":"7","size_leaf_vector":"1"}},{"base_weights":[1.0441554E-3,1.3443962E-1,-4.5611915E-1,4.511377E-2,-2.5873968E-2,-9.41525E-2,-8.228346E-3],"categories":[],"categories_nodes":[],"categories_segments":[],"categories_sizes":[],"default_left":[0,0,0,0,0,0,0],"id":37,"left_children":[1,3,5,-1,-1,-1,-1],"loss_changes":[3.6927884E0,5.8485513E0,2.4742844E0,0E0,0E0,0E0,0E0],"parents":[2147483647,0,0,1,1,2,2],"right_children":[2,4,6,-1,-1,-1,-1],"split_conditions":[1E0,1E0,1E0,4.511377E-2,-2.5873968E-2,-9.41525E-2,-8.228346E-3],"split_indices":[792,136,226,0,0,0,0],"split_type":[0,0,0,0,0,0,0],"sum_hessian":[6.035333E1,4.677536E1,1.3577968E1,2.5899273E1,2.087609E1,5.8413844E0,7.7365828E0],"tree_param":{"num_deleted":"0","num_feature":"1024","num_nodes":"7","size_leaf_vector":"1"}},{"base_weights":[8.875559E-4,7.623393E-2,-7.161659E-2,-1.8591104E-2,5.8173418E-2],"categories":[],"categories_nodes":[],"categories_segments":[],"categories_sizes":[],"default_left":[0,0,0,0,0],"id":38,"left_children":[1,3,-1,-1,-1],"loss_changes":[3.2500303E0,7.2241325E0,0E0,0E0,0E0],"parents":[2147483647,0,0,1,1],"right_children":[2,4,-1,-1,-1],"split_conditions":[1E0,1E0,-7.161659E-2,-1.8591104E-2,5.8173418E-2],"split_indices":[194,695,0,0,0],"split_type":[0,0,0,0,0],"sum_hessian":[5.9954185E1,5.4334236E1,5.6199517E0,3.582114E1,1.8513094E1],"tree_param":{"num_deleted":"0","num_feature":"1024","num_nodes":"5","size_leaf_vector":"1"}},{"base_weights":[8.6782227E-4,-1.0609813E-1,4.6180356E-1,6.9744536E-3,-9.963028E-2,-2.8294215E-2,1.23820804E-1],"categories":[],"categories_nodes":[],"categories_segments":[],"categories_sizes":[],"default_left":[0,0,0,0,0,0,0],"id":39,"left_children":[1,3,5,-1,-1,-1,-1],"loss_changes":[2.936767E0,7.574769E0,6.5221343E0,0E0,0E0,0E0,0E0],"parents":[2147483647,0,0,1,1,2,2],"right_children":[2,4,6,-1,-1,-1,-1],"split_conditions":[1E0,1E0,1E0,6.9744536E-3,-9.963028E-2,-2.8294215E-2,1.23820804E-1],"split_indices":[289,745,695,0,0,0,0],"split_type":[0,0,0,0,0,0,0],"sum_hessian":[5.9364582E1,4.824557E1,1.1119011E1,4.036451E1,7.881061E0,5.707652E0,5.4113593E0],"tree_param":{"num_deleted":"0","num_feature":"1024","num_nodes":"7","size_leaf_vector":"1"}},{"base_weights":[1.1538486E-3,-7.639325E-2,5.7018895E-2,4.963895E-3,-7.084019E-2],"categories":[],"categories_nodes":[],"categories_segments":[],"categories_sizes":[],"default_left":[0,0,0,0,0],"id":40,"left_children":[1,3,-1,-1,-1],"loss_changes":[2.6092205E0,4.148635E0,0E0,0E0,0E0],"parents":[2147483647,0,0,1,1],"right_children":[2,4,-1,-1,-1],"split_conditions":[1E0,1E0,5.7018895E-2,4.963895E-3,-7.084019E-2],"split_indices":[750,609,0,0,0],"split_type":[0,0,0,0,0],"sum_hessian":[5.893106E1,5.1939423E1,6.991637E0,4.3380775E1,8.558645E0],"tree_param":{"num_deleted":"0","num_feature":"1024","num_nodes":"5","size_leaf_vector":"1"}},{"base_weights":[8.8726333E-4,1.1956711E-1,-3.999544E-1,7.454626E-2,-1.1732838E-3,-7.436647E-2,8.913545E-3],"categories":[],"categories_nodes":[],"categories_segments":[],"categories_sizes":[],"default_left":[0,0,0,0,0,0,0],"id":41,"left_children":[1,3,5,-1,-1,-1,-1],"loss_changes":[2.7894945E0,3.7188444E0,2.2584398E0,0E0,0E0,0E0,0E0],"parents":[2147483647,0,0,1,1,2,2],"right_children":[2,4,6,-1,-1,-1,-1],"split_conditions":[1E0,1E0,1E0,7.454626E-2,-1.1732838E-3,-7.436647E-2,8.913545E-3],"split_indices":[792,726,53,0,0,0,0],"split_type":[0,0,0,0,0,0,0],"sum_hessian":[5.8437004E1,4.5141758E1,1.3295248E1,7.7466054E0,3.739515E1,7.7775126E0,5.5177355E0],"tree_param":{"num_deleted":"0","num_feature":"1024","num_nodes":"7","size_leaf_vector":"1"}},{"base_weights":[7.849999E-4,1.0914192E-1,-4.1562217E-1,-5.241955E-3,8.3716676E-2,-8.884085E-2,2.4578108E-2],"categories":[],"categories_nodes":[],"categories_segments":[],"categories_sizes":[],"default_left":[0,0,0,0,0,0,0],"id":42,"left_children":[1,3,5,-1,-1,-1,-1],"loss_changes":[2.632974E0,5.450724E0,3.7897139E0,0E0,0E0,0E0,0E0],"parents":[2147483647,0,0,1,1,2,2],"right_children":[2,4,6,-1,-1,-1,-1],"split_conditions":[1E0,1E0,1E0,-5.241955E-3,8.3716676E-2,-8.884085E-2,2.4578108E-2],"split_indices":[157,784,695,0,0,0,0],"split_type":[0,0,0,0,0,0,0],"sum_hessian":[5.815361E1,4.6204205E1,1.1949407E1,3.7888813E1,8.3153925E0,6.948288E0,5.001118E0],"tree_param":{"num_deleted":"0","num_feature":"1024","num_nodes":"7","size_leaf_vector":"1"}},{"base_weights":[9.569535E-4,7.4550636E-2,-6.0581084E-2,2.085976E-2,-3.6440715E-2],"categories":[],"categories_nodes":[],"categories_segments":[],"categories_sizes":[],"default_left":[0,0,0,0,0],"id":43,"left_children":[1,3,-1,-1,-1],"loss_changes":[2.5834742E0,3.043546E0,0E0,0E0,0E0],"parents":[2147483647,0,0,1,1],"right_children":[2,4,-1,-1,-1],"split_conditions":[1E0,1E0,-6.0581084E-2,2.085976E-2,-3.6440715E-2],"split_indices":[1009,361,0,0,0],"split_type":[0,0,0,0,0],"sum_hessian":[5.7653885E1,5.1495773E1,6.1581087E0,3.9489216E1,1.2006559E1],"tree_param":{"num_deleted":"0","num_feature":"1024","num_nodes":"5","size_leaf_vector":"1"}},{"base_weights":[7.139357E-4,6.653119E-2,-6.38219E-2,2.186784E-2,-4.0714633E-2],"categories":[],"categories_nodes":[],"categories_segments":[],"categories_sizes":[],"default_left":[0,0,0,0,0],"id":44,"left_children":[1,3,-1,-1,-1],"loss_changes":[2.4165113E0,3.7634065E0,0E0,0E0,0E0],"parents":[2147483647,0,0,1,1],"right_children":[2,4,-1,-1,-1],"split_conditions":[1E0,1E0,-6.38219E-2,2.186784E-2,-4.0714633E-2],"split_indices":[194,792,0,0,0],"split_type":[0,0,0,0,0],"sum_hessian":[5.726276E1,5.1996162E1,5.2666006E0,3.9395874E1,1.2600287E1],"tree_param":{"num_deleted":"0","num_feature":"1024","num_nodes":"5","size_leaf_vector":"1"}},{"base_weights":[4.306663E-4,1.7703828E-1,-3.386506E-1,8.735061E-2,-7.1021914E-3,-8.813817E-3,-9.0404436E-2],"categories":[],"categories_nodes":[],"categories_segments":[],"categories_sizes":[],"default_left":[0,0,0,0,0,0,0],"id":45,"left_children":[1,3,5,-1,-1,-1,-1],"loss_changes":[3.4146755E0,6.48372E0,2.7579484E0,0E0,0E0,0E0,0E0],"parents":[2147483647,0,0,1,1,2,2],"right_children":[2,4,6,-1,-1,-1,-1],"split_conditions":[1E0,1E0,1E0,8.735061E-2,-7.1021914E-3,-8.813817E-3,-9.0404436E-2],"split_indices":[428,314,389,0,0,0,0],"split_type":[0,0,0,0,0,0,0],"sum_hessian":[5.682106E1,3.7393013E1,1.9428047E1,9.754263E0,2.7638752E1,1.3543038E1,5.8850083E0],"tree_param":{"num_deleted":"0","num_feature":"1024","num_nodes":"7","size_leaf_vector":"1"}},{"base_weights":[7.053565E-4,-1.1444872E-1,3.833382E-1,-2.6870266E-2,5.9310526E-2,7.543123E-2,-2.9108385E-3],"categories":[],"categories_nodes":[],"categories_segments":[],"categories_sizes":[],"default_left":[0,0,0,0,0,0,0],"id":46,"left_children":[1,3,5,-1,-1,-1,-1],"loss_changes":[2.4886723E0,4.7544866E0,2.001375E0,0E0,0E0,0E0,0E0],"parents":[2147483647,0,0,1,1,2,2],"right_children":[2,4,6,-1,-1,-1,-1],"split_conditions":[1E0,1E0,1E0,-2.6870266E-2,5.9310526E-2,7.543123E-2,-2.9108385E-3],"split_indices":[233,289,792,0,0,0,0],"split_type":[0,0,0,0,0,0,0],"sum_hessian":[5.6281918E1,4.3315983E1,1.2965937E1,3.561383E1,7.7021513E0,6.782525E0,6.183412E0],"tree_param":{"num_deleted":"0","num_feature":"1024","num_nodes":"7","size_leaf_vector":"1"}},{"base_weights":[1.0558044E-3,1.5857476E-1,-2.9800987E-1,8.217039E-2,-6.5732882E-3,-6.592379E-3,-8.3252676E-2],"categories":[],"categories_nodes":[],"categories_segments":[],"categories_sizes":[],"default_left":[0,0,0,0,0,0,0],"id":47,"left_children":[1,3,5,-1,-1,-1,-1],"loss_changes":[2.6406684E0,5.4667096E0,2.3935614E0,0E0,0E0,0E0,0E0],"parents":[2147483647,0,0,1,1,2,2],"right_children":[2,4,6,-1,-1,-1,-1],"split_conditions":[1E0,1E0,1E0,8.217039E-2,-6.5732882E-3,-6.592379E-3,-8.3252676E-2],"split_indices":[428,314,389,0,0,0,0],"split_type":[0,0,0,0,0,0,0],"sum_hessian":[5.5854694E1,3.6615932E1,1.9238764E1,9.18769E0,2.7428242E1,1.3492627E1,5.746137E0],"tree_param":{"num_deleted":"0","num_feature":"1024","num_nodes":"7","size_leaf_vector":"1"}},{"base_weights":[1.2394886E-3,7.360191E-2,-5.8913596E-2,2.5089324E-2,-4.0116243E-2],"categories":[],"categories_nodes":[],"categories_segments":[],"categories_sizes":[],"default_left":[0,0,0,0,0],"id":48,"left_children":[1,3,-1,-1,-1],"loss_changes":[2.3733306E0,4.1754537E0,0E0,0E0,0E0],"parents":[2147483647,0,0,1,1],"right_children":[2,4,-1,-1,-1],"split_conditions":[1E0,1E0,-5.8913596E-2,2.5089324E-2,-4.0116243E-2],"split_indices":[1009,745,0,0,0],"split_type":[0,0,0,0,0],"sum_hessian":[5.535269E1,4.9386868E1,5.9658246E0,3.599311E1,1.3393759E1],"tree_param":{"num_deleted":"0","num_feature":"1024","num_nodes":"5","size_leaf_vector":"1"}},{"base_weights":[1.0228935E-3,1.02878E-1,-3.8217676E-1,-1.6632183E-2,7.579949E-2,-6.293444E-2,-1.8537918E-2],"categories":[],"categories_nodes":[],"categories_segments":[],"categories_sizes":[],"default_left":[0,0,0,0,0,0,0],"id":49,"left_children":[1,3,5,-1,-1,-1,-1],"loss_changes":[2.1681936E0,7.7520585E0,5.557414E-1,0E0,0E0,0E0,0E0],"parents":[2147483647,0,0,1,1,2,2],"right_children":[2,4,6,-1,-1,-1,-1],"split_conditions":[1E0,1E0,1E0,-1.6632183E-2,7.579949E-2,-6.293444E-2,-1.8537918E-2],"split_indices":[157,656,333,0,0,0,0],"split_type":[0,0,0,0,0,0,0],"sum_hessian":[5.5350044E1,4.3785057E1,1.1564987E1,3.1085892E1,1.2699165E1,5.0290127E0,6.535975E0],"tree_param":{"num_deleted":"0","num_feature":"1024","num_nodes":"7","size_leaf_vector":"1"}},{"base_weights":[1.2417303E-3,9.878369E-2,-3.3805588E-1,1.9822529E-2,-4.8348572E-2,-5.322829E-4,-7.3924564E-2],"categories":[],"categories_nodes":[],"categories_segments":[],"categories_sizes":[],"default_left":[0,0,0,0,0,0,0],"id":50,"left_children":[1,3,5,-1,-1,-1,-1],"loss_changes":[1.8213866E0,2.4845586E0,1.6399999E0,0E0,0E0,0E0,0E0],"parents":[2147483647,0,0,1,1,2,2],"right_children":[2,4,6,-1,-1,-1,-1],"split_conditions":[1E0,1E0,1E0,1.9822529E-2,-4.8348572E-2,-5.322829E-4,-7.3924564E-2],"split_indices":[511,81,333,0,0,0,0],"split_type":[0,0,0,0,0,0,0],"sum_hessian":[5.4832947E1,4.264435E1,1.2188598E1,3.6480125E1,6.164222E0,6.718134E0,5.4704638E0],"tree_param":{"num_deleted":"0","num_feature":"1024","num_nodes":"7","size_leaf_vector":"1"}},{"base_weights":[8.1435405E-4,1.4600866E-1,-2.7107456E-1,2.860958E-2,-5.5509347E-2,-5.4242844E-3,-7.719181E-2],"categories":[],"categories_nodes":[],"categories_segments":[],"categories_sizes":[],"default_left":[0,0,0,0,0,0,0],"id":51,"left_children":[1,3,5,-1,-1,-1,-1],"loss_changes":[2.152043E0,3.5061092E0,2.0567465E0,0E0,0E0,0E0,0E0],"parents":[2147483647,0,0,1,1,2,2],"right_children":[2,4,6,-1,-1,-1,-1],"split_conditions":[1E0,1E0,1E0,2.860958E-2,-5.5509347E-2,-5.4242844E-3,-7.719181E-2],"split_indices":[428,1009,389,0,0,0,0],"split_type":[0,0,0,0,0,0,0],"sum_hessian":[5.431397E1,3.5436462E1,1.8877506E1,2.9584402E1,5.8520627E0,1.3251377E1,5.626129E0],"tree_param":{"num_deleted":"0","num_feature":"1024","num_nodes":"7","size_leaf_vector":"1"}},{"base_weights":[5.360193E-4,4.004126E-2,-7.9525135E-2,3.7669258E-3,-8.5368805E-2],"categories":[],"categories_nodes":[],"categories_segments":[],"categories_sizes":[],"default_left":[0,0,0,0,0],"id":52,"left_children":[1,-1,3,-1,-1],"loss_changes":[1.738722E0,0E0,4.1087337E0,0E0,0E0],"parents":[2147483647,0,0,2,2],"right_children":[2,-1,4,-1,-1],"split_conditions":[1E0,4.004126E-2,1E0,3.7669258E-3,-8.5368805E-2],"split_indices":[726,0,609,0,0],"split_type":[0,0,0,0,0],"sum_hessian":[5.411085E1,8.959792E0,4.5151062E1,3.929729E1,5.853771E0],"tree_param":{"num_deleted":"0","num_feature":"1024","num_nodes":"5","size_leaf_vector":"1"}},{"base_weights":[1.7654289E-4,-1.00206815E-1,3.3101025E-1,3.4403577E-3,-6.195813E-2,5.190706E-2,9.174403E-3],"categories":[],"categories_nodes":[],"categories_segments":[],"categories_sizes":[],"default_left":[0,0,0,0,0,0,0],"id":53,"left_children":[1,3,5,-1,-1,-1,-1],"loss_changes":[1.7896626E0,2.8926392E0,5.5971146E-1,0E0,0E0,0E0,0E0],"parents":[2147483647,0,0,1,1,2,2],"right_children":[2,4,6,-1,-1,-1,-1],"split_conditions":[1E0,1E0,1E0,3.4403577E-3,-6.195813E-2,5.190706E-2,9.174403E-3],"split_indices":[233,511,286,0,0,0,0],"split_type":[0,0,0,0,0,0,0],"sum_hessian":[5.368907E1,4.1244232E1,1.2444839E1,3.2829044E1,8.415188E0,6.902564E0,5.542274E0],"tree_param":{"num_deleted":"0","num_feature":"1024","num_nodes":"7","size_leaf_vector":"1"}},{"base_weights":[6.209193E-5,9.313619E-2,-5.024312E-2,-3.8877067E-3,6.650364E-2],"categories":[],"categories_nodes":[],"categories_segments":[],"categories_sizes":[],"default_left":[0,0,0,0,0],"id":54,"left_children":[1,3,-1,-1,-1],"loss_changes":[2.4995072E0,3.406917E0,0E0,0E0,0E0],"parents":[2147483647,0,0,1,1],"right_children":[2,4,-1,-1,-1],"split_conditions":[1E0,1E0,-5.024312E-2,-3.8877067E-3,6.650364E-2],"split_indices":[451,289,0,0,0],"split_type":[0,0,0,0,0],"sum_hessian":[5.324349E1,4.4991436E1,8.252054E0,3.662938E1,8.362057E0],"tree_param":{"num_deleted":"0","num_feature":"1024","num_nodes":"5","size_leaf_vector":"1"}},{"base_weights":[3.230283E-4,8.467916E-2,-4.4361737E-2,-3.5010558E-3,6.1992895E-2],"categories":[],"categories_nodes":[],"categories_segments":[],"categories_sizes":[],"default_left":[0,0,0,0,0],"id":55,"left_children":[1,3,-1,-1,-1],"loss_changes":[1.9971478E0,2.8731234E0,0E0,0E0,0E0],"parents":[2147483647,0,0,1,1],"right_children":[2,4,-1,-1,-1],"split_conditions":[1E0,1E0,-4.4361737E-2,-3.5010558E-3,6.1992895E-2],"split_indices":[451,289,0,0,0],"split_type":[0,0,0,0,0],"sum_hessian":[5.3129364E1,4.4713898E1,8.415465E0,3.6618847E1,8.095053E0],"tree_param":{"num_deleted":"0","num_feature":"1024","num_nodes":"5","size_leaf_vector":"1"}},{"base_weights":[5.220373E-4,6.579043E-2,-5.3839304E-2,2.4417376E-2,-4.1190546E-2],"categories":[],"categories_nodes":[],"categories_segments":[],"categories_sizes":[],"default_left":[0,0,0,0,0],"id":56,"left_children":[1,3,-1,-1,-1],"loss_changes":[1.8717766E0,4.0547123E0,0E0,0E0,0E0],"parents":[2147483647,0,0,1,1],"right_children":[2,4,-1,-1,-1],"split_conditions":[1E0,1E0,-5.3839304E-2,2.4417376E-2,-4.1190546E-2],"split_indices":[1009,745,0,0,0],"split_type":[0,0,0,0,0],"sum_hessian":[5.301389E1,4.7365242E1,5.6486464E0,3.452256E1,1.2842684E1],"tree_param":{"num_deleted":"0","num_feature":"1024","num_nodes":"5","size_leaf_vector":"1"}},{"base_weights":[3.7567853E-4,1.0468298E-1,-3.3956298E-1,-5.3888303E-3,7.874145E-2,2.2312416E-2,-8.148112E-2],"categories":[],"categories_nodes":[],"categories_segments":[],"categories_sizes":[],"default_left":[0,0,0,0,0,0,0],"id":57,"left_children":[1,3,5,-1,-1,-1,-1],"loss_changes":[1.8865895E0,4.4119306E0,3.3589134E0,0E0,0E0,0E0,0E0],"parents":[2147483647,0,0,1,1,2,2],"right_children":[2,4,6,-1,-1,-1,-1],"split_conditions":[1E0,1E0,1E0,-5.3888303E-3,7.874145E-2,2.2312416E-2,-8.148112E-2],"split_indices":[792,1019,80,0,0,0,0],"split_type":[0,0,0,0,0,0,0],"sum_hessian":[5.300594E1,4.06133E1,1.2392642E1,3.303313E1,7.5801697E0,5.6986146E0,6.694028E0],"tree_param":{"num_deleted":"0","num_feature":"1024","num_nodes":"7","size_leaf_vector":"1"}},{"base_weights":[3.940048E-4,6.0641155E-2,-4.9864974E-2,2.2686092E-2,-3.8075615E-2],"categories":[],"categories_nodes":[],"categories_segments":[],"categories_sizes":[],"default_left":[0,0,0,0,0],"id":58,"left_children":[1,3,-1,-1,-1],"loss_changes":[1.5862013E0,3.462389E0,0E0,0E0,0E0],"parents":[2147483647,0,0,1,1],"right_children":[2,4,-1,-1,-1],"split_conditions":[1E0,1E0,-4.9864974E-2,2.2686092E-2,-3.8075615E-2],"split_indices":[1009,745,0,0,0],"split_type":[0,0,0,0,0],"sum_hessian":[5.255681E1,4.6973743E1,5.5830655E0,3.415891E1,1.2814832E1],"tree_param":{"num_deleted":"0","num_feature":"1024","num_nodes":"5","size_leaf_vector":"1"}},{"base_weights":[2.617325E-4,-6.1376665E-2,4.16812E-2,-1.4153826E-2,5.143412E-2],"categories":[],"categories_nodes":[],"categories_segments":[],"categories_sizes":[],"default_left":[0,0,0,0,0],"id":59,"left_children":[1,3,-1,-1,-1],"loss_changes":[1.3541439E0,2.1275625E0,0E0,0E0,0E0],"parents":[2147483647,0,0,1,1],"right_children":[2,4,-1,-1,-1],"split_conditions":[1E0,1E0,4.16812E-2,-1.4153826E-2,5.143412E-2],"split_indices":[754,750,0,0,0],"split_type":[0,0,0,0,0],"sum_hessian":[5.2541084E1,4.5842827E1,6.6982574E0,4.0306114E1,5.5367126E0],"tree_param":{"num_deleted":"0","num_feature":"1024","num_nodes":"5","size_leaf_vector":"1"}},{"base_weights":[4.7616492E-4,5.5554513E-2,-4.583195E-2,-1.5271012E-3,6.2057134E-2],"categories":[],"categories_nodes":[],"categories_segments":[],"categories_sizes":[],"default_left":[0,0,0,0,0],"id":60,"left_children":[1,3,-1,-1,-1],"loss_changes":[1.327548E0,1.877915E0,0E0,0E0,0E0],"parents":[2147483647,0,0,1,1],"right_children":[2,4,-1,-1,-1],"split_conditions":[1E0,1E0,-4.583195E-2,-1.5271012E-3,6.2057134E-2],"split_indices":[1009,512,0,0,0],"split_type":[0,0,0,0,0],"sum_hessian":[5.2334404E1,4.680354E1,5.530866E0,4.167662E1,5.1269164E0],"tree_param":{"num_deleted":"0","num_feature":"1024","num_nodes":"5","size_leaf_vector":"1"}},{"base_weights":[5.4094876E-4,1.3464537E-1,-2.443615E-1,7.363869E-2,-5.4994025E-3,-3.203279E-3,-6.969356E-2],"categories":[],"categories_nodes":[],"categories_segments":[],"categories_sizes":[],"default_left":[0,0,0,0,0,0,0],"id":61,"left_children":[1,3,5,-1,-1,-1,-1],"loss_changes":[1.7200671E0,3.8658555E0,1.7785279E0,0E0,0E0,0E0,0E0],"parents":[2147483647,0,0,1,1,2,2],"right_children":[2,4,6,-1,-1,-1,-1],"split_conditions":[1E0,1E0,1E0,7.363869E-2,-5.4994025E-3,-3.203279E-3,-6.969356E-2],"split_indices":[428,314,838,0,0,0,0],"split_type":[0,0,0,0,0,0,0],"sum_hessian":[5.2173023E1,3.3741676E1,1.8431347E1,8.016464E0,2.5725212E1,1.26184025E1,5.8129454E0],"tree_param":{"num_deleted":"0","num_feature":"1024","num_nodes":"7","size_leaf_vector":"1"}},{"base_weights":[5.9510086E-4,9.524708E-2,-3.0839887E-1,-4.5585693E-3,7.239532E-2,2.0162532E-2,-7.58427E-2],"categories":[],"categories_nodes":[],"categories_segments":[],"categories_sizes":[],"default_left":[0,0,0,0,0,0,0],"id":62,"left_children":[1,3,5,-1,-1,-1,-1],"loss_changes":[1.5143378E0,3.5127463E0,2.8020816E0,0E0,0E0,0E0,0E0],"parents":[2147483647,0,0,1,1,2,2],"right_children":[2,4,6,-1,-1,-1,-1],"split_conditions":[1E0,1E0,1E0,-4.5585693E-3,7.239532E-2,2.0162532E-2,-7.58427E-2],"split_indices":[792,1019,80,0,0,0,0],"split_type":[0,0,0,0,0,0,0],"sum_hessian":[5.15773E1,3.953576E1,1.204154E1,3.237612E1,7.159637E0,5.6703906E0,6.371149E0],"tree_param":{"num_deleted":"0","num_feature":"1024","num_nodes":"7","size_leaf_vector":"1"}},{"base_weights":[5.785644E-4,9.294689E-2,-3.2979697E-2,-1.3902694E-2,6.8747714E-2],"categories":[],"categories_nodes":[],"categories_segments":[],"categories_sizes":[],"default_left":[0,0,0,0,0],"id":63,"left_children":[1,3,-1,-1,-1],"loss_changes":[1.5676873E0,5.5464573E0,0E0,0E0,0E0],"parents":[2147483647,0,0,1,1],"right_children":[2,4,-1,-1,-1],"split_conditions":[1E0,1E0,-3.2979697E-2,-1.3902694E-2,6.8747714E-2],"split_indices":[157,656,0,0,0],"split_type":[0,0,0,0,0],"sum_hessian":[5.117179E1,4.0047062E1,1.1124725E1,2.8862217E1,1.1184846E1],"tree_param":{"num_deleted":"0","num_feature":"1024","num_nodes":"5","size_leaf_vector":"1"}},{"base_weights":[8.396711E-4,8.734495E-2,-4.4713113E-2,-2.1613888E-3,5.8193076E-2],"categories":[],"categories_nodes":[],"categories_segments":[],"categories_sizes":[],"default_left":[0,0,0,0,0],"id":64,"left_children":[1,3,-1,-1,-1],"loss_changes":[1.974114E0,2.3021548E0,0E0,0E0,0E0],"parents":[2147483647,0,0,1,1],"right_children":[2,4,-1,-1,-1],"split_conditions":[1E0,1E0,-4.4713113E-2,-2.1613888E-3,5.8193076E-2],"split_indices":[451,289,0,0,0],"split_type":[0,0,0,0,0],"sum_hessian":[5.074168E1,4.259658E1,8.145099E0,3.498492E1,7.6116605E0],"tree_param":{"num_deleted":"0","num_feature":"1024","num_nodes":"5","size_leaf_vector":"1"}},{"base_weights":[9.6139876E-4,7.930819E-2,-3.9645962E-2,-1.9462176E-3,5.406518E-2],"categories":[],"categories_nodes":[],"categories_segments":[],"categories_sizes":[],"default_left":[0,0,0,0,0],"id":65,"left_children":[1,3,-1,-1,-1],"loss_changes":[1.5831711E0,1.9363697E0,0E0,0E0,0E0],"parents":[2147483647,0,0,1,1],"right_children":[2,4,-1,-1,-1],"split_conditions":[1E0,1E0,-3.9645962E-2,-1.9462176E-3,5.406518E-2],"split_indices":[451,289,0,0,0],"split_type":[0,0,0,0,0],"sum_hessian":[5.06449E1,4.2371845E1,8.273057E0,3.4978893E1,7.3929496E0],"tree_param":{"num_deleted":"0","num_feature":"1024","num_nodes":"5","size_leaf_vector":"1"}},{"base_weights":[1.043107E-3,7.198005E-2,-3.5232577E-2,2.3692964E-2,-2.2137541E-2],"categories":[],"categories_nodes":[],"categories_segments":[],"categories_sizes":[],"default_left":[0,0,0,0,0],"id":66,"left_children":[1,3,-1,-1,-1],"loss_changes":[1.2721539E0,2.0503755E0,0E0,0E0,0E0],"parents":[2147483647,0,0,1,1],"right_children":[2,4,-1,-1,-1],"split_conditions":[1E0,1E0,-3.5232577E-2,2.3692964E-2,-2.2137541E-2],"split_indices":[451,136,0,0,0],"split_type":[0,0,0,0,0],"sum_hessian":[5.054916E1,4.216449E1,8.384669E0,2.7001287E1,1.5163202E1],"tree_param":{"num_deleted":"0","num_feature":"1024","num_nodes":"5","size_leaf_vector":"1"}},{"base_weights":[9.146244E-4,-6.3056834E-2,4.0812664E-2,4.285967E-2,-1.75715E-2],"categories":[],"categories_nodes":[],"categories_segments":[],"categories_sizes":[],"default_left":[0,0,0,0,0],"id":67,"left_children":[1,3,-1,-1,-1],"loss_changes":[1.3204728E0,2.4340703E0,0E0,0E0,0E0],"parents":[2147483647,0,0,1,1],"right_children":[2,4,-1,-1,-1],"split_conditions":[1E0,1E0,4.0812664E-2,4.285967E-2,-1.75715E-2],"split_indices":[73,726,0,0,0],"split_type":[0,0,0,0,0],"sum_hessian":[5.049125E1,4.3709213E1,6.782036E0,8.096163E0,3.561305E1],"tree_param":{"num_deleted":"0","num_feature":"1024","num_nodes":"5","size_leaf_vector":"1"}},{"base_weights":[1.0330956E-3,5.729298E-2,-4.6754096E-2,2.1908766E-2,-3.7249245E-2],"categories":[],"categories_nodes":[],"categories_segments":[],"categories_sizes":[],"default_left":[0,0,0,0,0],"id":68,"left_children":[1,3,-1,-1,-1],"loss_changes":[1.3309448E0,3.1424525E0,0E0,0E0,0E0],"parents":[2147483647,0,0,1,1],"right_children":[2,4,-1,-1,-1],"split_conditions":[1E0,1E0,-4.6754096E-2,2.1908766E-2,-3.7249245E-2],"split_indices":[1009,745,0,0,0],"split_type":[0,0,0,0,0],"sum_hessian":[5.0285786E1,4.4973736E1,5.3120503E0,3.270922E1,1.2264512E1],"tree_param":{"num_deleted":"0","num_feature":"1024","num_nodes":"5","size_leaf_vector":"1"}},{"base_weights":[8.30555E-4,-1.2639998E-1,2.2428434E-1,1.8874608E-2,-7.776317E-2,-3.5337504E-2,7.612305E-2],"categories":[],"categories_nodes":[],"categories_segments":[],"categories_sizes":[],"default_left":[0,0,0,0,0,0,0],"id":69,"left_children":[1,3,5,-1,-1,-1,-1],"loss_changes":[1.4346138E0,6.613711E0,5.705357E0,0E0,0E0,0E0,0E0],"parents":[2147483647,0,0,1,1,2,2],"right_children":[2,4,6,-1,-1,-1,-1],"split_conditions":[1E0,1E0,1E0,1.8874608E-2,-7.776317E-2,-3.5337504E-2,7.612305E-2],"split_indices":[695,578,578,0,0,0,0],"split_type":[0,0,0,0,0,0,0],"sum_hessian":[5.0261288E1,3.2053844E1,1.8207443E1,2.1648602E1,1.0405241E1,8.787661E0,9.419784E0],"tree_param":{"num_deleted":"0","num_feature":"1024","num_nodes":"7","size_leaf_vector":"1"}},{"base_weights":[1.0718924E-3,-1.132587E-1,2.0738965E-1,8.820547E-3,-7.725784E-2,-8.568429E-3,6.890906E-2],"categories":[],"categories_nodes":[],"categories_segments":[],"categories_sizes":[],"default_left":[0,0,0,0,0,0,0],"id":70,"left_children":[1,3,5,-1,-1,-1,-1],"loss_changes":[1.1844314E0,4.298427E0,2.533424E0,0E0,0E0,0E0,0E0],"parents":[2147483647,0,0,1,1,2,2],"right_children":[2,4,6,-1,-1,-1,-1],"split_conditions":[1E0,1E0,1E0,8.820547E-3,-7.725784E-2,-8.568429E-3,6.890906E-2],"split_indices":[695,583,121,0,0,0,0],"split_type":[0,0,0,0,0,0,0],"sum_hessian":[5.001281E1,3.2209232E1,1.780358E1,2.4737095E1,7.4721365E0,1.1120136E1,6.683443E0],"tree_param":{"num_deleted":"0","num_feature":"1024","num_nodes":"7","size_leaf_vector":"1"}},{"base_weights":[1.1470256E-3,9.603113E-2,-3.0041403E-1,-5.2318843E-3,6.613177E-2,1.7576287E-2,-7.280801E-2],"categories":[],"categories_nodes":[],"categories_segments":[],"categories_sizes":[],"default_left":[0,0,0,0,0,0,0],"id":71,"left_children":[1,3,5,-1,-1,-1,-1],"loss_changes":[1.4326233E0,3.1972113E0,2.4531355E0,0E0,0E0,0E0,0E0],"parents":[2147483647,0,0,1,1,2,2],"right_children":[2,4,6,-1,-1,-1,-1],"split_conditions":[1E0,1E0,1E0,-5.2318843E-3,6.613177E-2,1.7576287E-2,-7.280801E-2],"split_indices":[792,289,80,0,0,0,0],"split_type":[0,0,0,0,0,0,0],"sum_hessian":[4.9867527E1,3.798421E1,1.1883315E1,3.0159977E1,7.824235E0,5.6506286E0,6.232686E0],"tree_param":{"num_deleted":"0","num_feature":"1024","num_nodes":"7","size_leaf_vector":"1"}},{"base_weights":[1.075534E-3,1.2636903E-1,-2.3174597E-1,7.006046E-2,-4.518895E-3,-6.279102E-3,-6.1105963E-2],"categories":[],"categories_nodes":[],"categories_segments":[],"categories_sizes":[],"default_left":[0,0,0,0,0,0,0],"id":72,"left_children":[1,3,5,-1,-1,-1,-1],"loss_changes":[1.4483001E0,3.1829758E0,1.1093972E0,0E0,0E0,0E0,0E0],"parents":[2147483647,0,0,1,1,2,2],"right_children":[2,4,6,-1,-1,-1,-1],"split_conditions":[1E0,1E0,1E0,7.006046E-2,-4.518895E-3,-6.279102E-3,-6.1105963E-2],"split_indices":[428,314,838,0,0,0,0],"split_type":[0,0,0,0,0,0,0],"sum_hessian":[4.9448204E1,3.2177513E1,1.7270689E1,7.3309894E0,2.4846523E1,1.2029174E1,5.241515E0],"tree_param":{"num_deleted":"0","num_feature":"1024","num_nodes":"7","size_leaf_vector":"1"}},{"base_weights":[1.0877856E-3,1.15448736E-1,-2.1140952E-1,-2.357912E-3,5.431621E-2,1.5118696E-2,-4.112619E-2],"categories":[],"categories_nodes":[],"categories_segments":[],"categories_sizes":[],"default_left":[0,0,0,0,0,0,0],"id":73,"left_children":[1,3,5,-1,-1,-1,-1],"loss_changes":[1.1943985E0,1.9013014E0,1.252378E0,0E0,0E0,0E0,0E0],"parents":[2147483647,0,0,1,1,2,2],"right_children":[2,4,6,-1,-1,-1,-1],"split_conditions":[1E0,1E0,1E0,-2.357912E-3,5.431621E-2,1.5118696E-2,-4.112619E-2],"split_indices":[428,695,378,0,0,0,0],"split_type":[0,0,0,0,0,0,0],"sum_hessian":[4.894895E1,3.1852415E1,1.7096535E1,2.4109976E1,7.7424397E0,6.0834856E0,1.1013049E1],"tree_param":{"num_deleted":"0","num_feature":"1024","num_nodes":"7","size_leaf_vector":"1"}},{"base_weights":[1.0964974E-3,5.3392526E-2,-4.327849E-2,2.1047661E-2,-1.9216014E-2],"categories":[],"categories_nodes":[],"categories_segments":[],"categories_sizes":[],"default_left":[0,0,0,0,0],"id":74,"left_children":[1,3,-1,-1,-1],"loss_changes":[1.1078961E0,1.6847584E0,0E0,0E0,0E0],"parents":[2147483647,0,0,1,1],"right_children":[2,4,-1,-1,-1],"split_conditions":[1E0,1E0,-4.327849E-2,2.1047661E-2,-1.9216014E-2],"split_indices":[1009,428,0,0,0],"split_type":[0,0,0,0,0],"sum_hessian":[4.862508E1,4.347295E1,5.1521306E0,2.652119E1,1.6951757E1],"tree_param":{"num_deleted":"0","num_feature":"1024","num_nodes":"5","size_leaf_vector":"1"}},{"base_weights":[9.111369E-4,7.295218E-2,-3.6304526E-2,1.9760503E-2,-2.7201032E-2],"categories":[],"categories_nodes":[],"categories_segments":[],"categories_sizes":[],"default_left":[0,0,0,0,0],"id":75,"left_children":[1,3,-1,-1,-1],"loss_changes":[1.2768431E0,1.7533547E0,0E0,0E0,0E0],"parents":[2147483647,0,0,1,1],"right_children":[2,4,-1,-1,-1],"split_conditions":[1E0,1E0,-3.6304526E-2,1.9760503E-2,-2.7201032E-2],"split_indices":[451,511,0,0,0],"split_type":[0,0,0,0,0],"sum_hessian":[4.849666E1,4.0550167E1,7.946491E0,2.981807E1,1.0732097E1],"tree_param":{"num_deleted":"0","num_feature":"1024","num_nodes":"5","size_leaf_vector":"1"}},{"base_weights":[7.51782E-4,9.800424E-2,-2.3189436E-1,-2.6693114E-3,7.106926E-2,-6.721675E-2,1.52731305E-2],"categories":[],"categories_nodes":[],"categories_segments":[],"categories_sizes":[],"default_left":[0,0,0,0,0,0,0],"id":76,"left_children":[1,3,5,-1,-1,-1,-1],"loss_changes":[1.098922E0,2.6187289E0,2.4349432E0,0E0,0E0,0E0,0E0],"parents":[2147483647,0,0,1,1,2,2],"right_children":[2,4,6,-1,-1,-1,-1],"split_conditions":[1E0,1E0,1E0,-2.6693114E-3,7.106926E-2,-6.721675E-2,1.52731305E-2],"split_indices":[745,260,289,0,0,0,0],"split_type":[0,0,0,0,0,0,0],"sum_hessian":[4.8369812E1,3.4151447E1,1.4218366E1,2.8455656E1,5.6957917E0,6.5947413E0,7.6236243E0],"tree_param":{"num_deleted":"0","num_feature":"1024","num_nodes":"7","size_leaf_vector":"1"}},{"base_weights":[6.5847876E-4,7.9094656E-2,-2.693882E-1,-4.7414154E-3,7.00666E-2,-7.3329033E-3,-4.4653695E-2],"categories":[],"categories_nodes":[],"categories_segments":[],"categories_sizes":[],"default_left":[0,0,0,0,0,0,0],"id":77,"left_children":[1,3,5,-1,-1,-1,-1],"loss_changes":[1.0255824E0,2.9536955E0,3.7523603E-1,0E0,0E0,0E0,0E0],"parents":[2147483647,0,0,1,1,2,2],"right_children":[2,4,6,-1,-1,-1,-1],"split_conditions":[1E0,1E0,1E0,-4.7414154E-3,7.00666E-2,-7.3329033E-3,-4.4653695E-2],"split_indices":[157,580,745,0,0,0,0],"split_type":[0,0,0,0,0,0,0],"sum_hessian":[4.8218353E1,3.7420208E1,1.0798143E1,3.116878E1,6.2514296E0,5.1926155E0,5.605528E0],"tree_param":{"num_deleted":"0","num_feature":"1024","num_nodes":"7","size_leaf_vector":"1"}},{"base_weights":[8.0571906E-4,9.292836E-2,-2.9282013E-1,-2.4741197E-3,6.382166E-2,-5.7572734E-2,5.958863E-3],"categories":[],"categories_nodes":[],"categories_segments":[],"categories_sizes":[],"default_left":[0,0,0,0,0,0,0],"id":78,"left_children":[1,3,5,-1,-1,-1,-1],"loss_changes":[1.3034756E0,2.3550816E0,1.150785E0,0E0,0E0,0E0,0E0],"parents":[2147483647,0,0,1,1,2,2],"right_children":[2,4,6,-1,-1,-1,-1],"split_conditions":[1E0,1E0,1E0,-2.4741197E-3,6.382166E-2,-5.7572734E-2,5.958863E-3],"split_indices":[792,1019,438,0,0,0,0],"split_type":[0,0,0,0,0,0,0],"sum_hessian":[4.7987774E1,3.6579586E1,1.1408186E1,3.016553E1,6.414057E0,6.292952E0,5.115234E0],"tree_param":{"num_deleted":"0","num_feature":"1024","num_nodes":"7","size_leaf_vector":"1"}},{"base_weights":[7.886925E-4,5.3707805E-2,-4.3651108E-2,-4.9076793E-3,5.1455867E-2],"categories":[],"categories_nodes":[],"categories_segments":[],"categories_sizes":[],"default_left":[0,0,0,0,0],"id":79,"left_children":[1,3,-1,-1,-1],"loss_changes":[1.1083131E0,2.0261722E0,0E0,0E0,0E0],"parents":[2147483647,0,0,1,1],"right_children":[2,4,-1,-1,-1],"split_conditions":[1E0,1E0,-4.3651108E-2,-4.9076793E-3,5.1455867E-2],"split_indices":[202,784,0,0,0],"split_type":[0,0,0,0,0],"sum_hessian":[4.7691536E1,4.2621487E1,5.0700507E0,3.4922085E1,7.6994E0],"tree_param":{"num_deleted":"0","num_feature":"1024","num_nodes":"5","size_leaf_vector":"1"}},{"base_weights":[8.1222184E-4,6.771127E-2,-3.2749783E-2,2.095567E-2,-1.8822815E-2],"categories":[],"categories_nodes":[],"categories_segments":[],"categories_sizes":[],"default_left":[0,0,0,0,0],"id":80,"left_children":[1,3,-1,-1,-1],"loss_changes":[1.0492969E0,1.4447088E0,0E0,0E0,0E0],"parents":[2147483647,0,0,1,1],"right_children":[2,4,-1,-1,-1],"split_conditions":[1E0,1E0,-3.2749783E-2,2.095567E-2,-1.8822815E-2],"split_indices":[451,136,0,0,0],"split_type":[0,0,0,0,0],"sum_hessian":[4.7573322E1,3.9586285E1,7.987038E0,2.548194E1,1.4104346E1],"tree_param":{"num_deleted":"0","num_feature":"1024","num_nodes":"5","size_leaf_vector":"1"}},{"base_weights":[6.9926045E-4,8.667145E-2,-2.7431142E-1,-3.5534936E-3,5.7994302E-2,-5.0790936E-2,-1.0020944E-3],"categories":[],"categories_nodes":[],"categories_segments":[],"categories_sizes":[],"default_left":[0,0,0,0,0,0,0],"id":81,"left_children":[1,3,5,-1,-1,-1,-1],"loss_changes":[1.1282506E0,2.1935213E0,7.011439E-1,0E0,0E0,0E0,0E0],"parents":[2147483647,0,0,1,1,2,2],"right_children":[2,4,6,-1,-1,-1,-1],"split_conditions":[1E0,1E0,1E0,-3.5534936E-3,5.7994302E-2,-5.0790936E-2,-1.0020944E-3],"split_indices":[792,289,260,0,0,0,0],"split_type":[0,0,0,0,0,0,0],"sum_hessian":[4.751918E1,3.625412E1,1.126506E1,2.9130045E1,7.1240754E0,5.9308195E0,5.3342404E0],"tree_param":{"num_deleted":"0","num_feature":"1024","num_nodes":"7","size_leaf_vector":"1"}},{"base_weights":[6.995567E-4,5.6254916E-2,-4.6026435E-2,2.1251028E-2,-3.701498E-2],"categories":[],"categories_nodes":[],"categories_segments":[],"categories_sizes":[],"default_left":[0,0,0,0,0],"id":82,"left_children":[1,3,-1,-1,-1],"loss_changes":[1.2146498E0,2.8280926E0,0E0,0E0,0E0],"parents":[2147483647,0,0,1,1],"right_children":[2,4,-1,-1,-1],"split_conditions":[1E0,1E0,-4.6026435E-2,2.1251028E-2,-3.701498E-2],"split_indices":[1009,745,0,0,0],"split_type":[0,0,0,0,0],"sum_hessian":[4.7229443E1,4.2227932E1,5.001513E0,3.094013E1,1.1287802E1],"tree_param":{"num_deleted":"0","num_feature":"1024","num_nodes":"5","size_leaf_vector":"1"}},{"base_weights":[5.13713E-4,-8.3020754E-2,2.853728E-1,4.371486E-3,-4.7287945E-2,1.3632019E-2,4.332566E-2],"categories":[],"categories_nodes":[],"categories_segments":[],"categories_sizes":[],"default_left":[0,0,0,0,0,0,0],"id":83,"left_children":[1,3,5,-1,-1,-1,-1],"loss_changes":[1.1276593E0,1.8126225E0,2.3095524E-1,0E0,0E0,0E0,0E0],"parents":[2147483647,0,0,1,1,2,2],"right_children":[2,4,6,-1,-1,-1,-1],"split_conditions":[1E0,1E0,1E0,4.371486E-3,-4.7287945E-2,1.3632019E-2,4.332566E-2],"split_indices":[147,157,875,0,0,0,0],"split_type":[0,0,0,0,0,0,0],"sum_hessian":[4.718994E1,3.654425E1,1.0645687E1,2.764589E1,8.898363E0,5.397603E0,5.2480845E0],"tree_param":{"num_deleted":"0","num_feature":"1024","num_nodes":"7","size_leaf_vector":"1"}},{"base_weights":[4.7413292E-4,8.534687E-2,-2.6941153E-1,-3.459413E-3,5.7142567E-2,-5.2370727E-2,4.30922E-3],"categories":[],"categories_nodes":[],"categories_segments":[],"categories_sizes":[],"default_left":[0,0,0,0,0,0,0],"id":84,"left_children":[1,3,5,-1,-1,-1,-1],"loss_changes":[1.0832039E0,2.0993636E0,9.013267E-1,0E0,0E0,0E0,0E0],"parents":[2147483647,0,0,1,1,2,2],"right_children":[2,4,6,-1,-1,-1,-1],"split_conditions":[1E0,1E0,1E0,-3.459413E-3,5.7142567E-2,-5.2370727E-2,4.30922E-3],"split_indices":[792,289,881,0,0,0,0],"split_type":[0,0,0,0,0,0,0],"sum_hessian":[4.7088837E1,3.587528E1,1.1213559E1,2.8849487E1,7.02579E0,6.145311E0,5.0682487E0],"tree_param":{"num_deleted":"0","num_feature":"1024","num_nodes":"7","size_leaf_vector":"1"}},{"base_weights":[4.8998994E-4,6.353458E-2,-3.029405E-2,1.5373771E-2,-3.0062566E-2],"categories":[],"categories_nodes":[],"categories_segments":[],"categories_sizes":[],"default_left":[0,0,0,0,0],"id":85,"left_children":[1,3,-1,-1,-1],"loss_changes":[8.9897287E-1,1.2827111E0,0E0,0E0,0E0],"parents":[2147483647,0,0,1,1],"right_children":[2,4,-1,-1,-1],"split_conditions":[1E0,1E0,-3.029405E-2,1.5373771E-2,-3.0062566E-2],"split_indices":[451,609,0,0,0],"split_type":[0,0,0,0,0],"sum_hessian":[4.6793076E1,3.880874E1,7.9843383E0,3.1150492E1,7.6582475E0],"tree_param":{"num_deleted":"0","num_feature":"1024","num_nodes":"5","size_leaf_vector":"1"}},{"base_weights":[3.398742E-4,-7.611418E-2,2.5870007E-1,4.286885E-3,-6.581907E-2,5.7021808E-2,-8.991257E-3],"categories":[],"categories_nodes":[],"categories_segments":[],"categories_sizes":[],"default_left":[0,0,0,0,0,0,0],"id":86,"left_children":[1,3,5,-1,-1,-1,-1],"loss_changes":[9.256621E-1,2.5072997E0,1.1672391E0,0E0,0E0,0E0,0E0],"parents":[2147483647,0,0,1,1,2,2],"right_children":[2,4,6,-1,-1,-1,-1],"split_conditions":[1E0,1E0,1E0,4.286885E-3,-6.581907E-2,5.7021808E-2,-8.991257E-3],"split_indices":[147,451,695,0,0,0,0],"split_type":[0,0,0,0,0,0,0],"sum_hessian":[4.6662914E1,3.6061977E1,1.0600935E1,3.0018494E1,6.0434847E0,5.564746E0,5.0361886E0],"tree_param":{"num_deleted":"0","num_feature":"1024","num_nodes":"7","size_leaf_vector":"1"}},{"base_weights":[3.7417168E-4,7.984336E-2,-2.5453675E-1,-3.0696492E-3,5.9360977E-2,-4.9021196E-2,3.1712172E-3],"categories":[],"categories_nodes":[],"categories_segments":[],"categories_sizes":[],"default_left":[0,0,0,0,0,0,0],"id":87,"left_children":[1,3,5,-1,-1,-1,-1],"loss_changes":[9.502262E-1,2.0326262E0,7.536227E-1,0E0,0E0,0E0,0E0],"parents":[2147483647,0,0,1,1,2,2],"right_children":[2,4,6,-1,-1,-1,-1],"split_conditions":[1E0,1E0,1E0,-3.0696492E-3,5.9360977E-2,-4.9021196E-2,3.1712172E-3],"split_indices":[792,1019,881,0,0,0,0],"split_type":[0,0,0,0,0,0,0],"sum_hessian":[4.6706905E1,3.565884E1,1.1048064E1,2.9422453E1,6.2363877E0,6.0202246E0,5.02784E0],"tree_param":{"num_deleted":"0","num_feature":"1024","num_nodes":"7","size_leaf_vector":"1"}},{"base_weights":[4.048672E-4,7.425867E-2,-2.555773E-1,1.9380605E-2,-5.8832508E-2,-4.966865E-2,-1.8407801E-3],"categories":[],"categories_nodes":[],"categories_segments":[],"categories_sizes":[],"default_left":[0,0,0,0,0,0,0],"id":88,"left_children":[1,3,5,-1,-1,-1,-1],"loss_changes":[8.8197076E-1,2.8792694E0,5.964244E-1,0E0,0E0,0E0,0E0],"parents":[2147483647,0,0,1,1,2,2],"right_children":[2,4,6,-1,-1,-1,-1],"split_conditions":[1E0,1E0,1E0,1.9380605E-2,-5.8832508E-2,-4.966865E-2,-1.8407801E-3],"split_indices":[511,286,807,0,0,0,0],"split_type":[0,0,0,0,0,0,0],"sum_hessian":[4.645176E1,3.610581E1,1.0345951E1,3.0647034E1,5.458773E0,5.0761037E0,5.2698474E0],"tree_param":{"num_deleted":"0","num_feature":"1024","num_nodes":"7","size_leaf_vector":"1"}},{"base_weights":[1.87155E-4,1.0343815E-1,-2.5170243E-1,-1.1744414E-3,6.582116E-2,-5.992521E-2,1.1506463E-2],"categories":[],"categories_nodes":[],"categories_segments":[],"categories_sizes":[],"default_left":[0,0,0,0,0,0,0],"id":89,"left_children":[1,3,5,-1,-1,-1,-1],"loss_changes":[1.2097526E0,2.1089294E0,1.7307239E0,0E0,0E0,0E0,0E0],"parents":[2147483647,0,0,1,1,2,2],"right_children":[2,4,6,-1,-1,-1,-1],"split_conditions":[1E0,1E0,1E0,-1.1744414E-3,6.582116E-2,-5.992521E-2,1.1506463E-2],"split_indices":[745,260,695,0,0,0,0],"split_type":[0,0,0,0,0,0,0],"sum_hessian":[4.63148E1,3.2891373E1,1.3423428E1,2.7317558E1,5.5738134E0,6.8597336E0,6.563694E0],"tree_param":{"num_deleted":"0","num_feature":"1024","num_nodes":"7","size_leaf_vector":"1"}},{"base_weights":[2.280832E-4,9.33377E-2,-2.2667864E-1,-1.0573709E-3,5.9505027E-2,-4.960717E-2,1.8712092E-3],"categories":[],"categories_nodes":[],"categories_segments":[],"categories_sizes":[],"default_left":[0,0,0,0,0,0,0],"id":90,"left_children":[1,3,5,-1,-1,-1,-1],"loss_changes":[9.8267144E-1,1.7199527E0,8.9553946E-1,0E0,0E0,0E0,0E0],"parents":[2147483647,0,0,1,1,2,2],"right_children":[2,4,6,-1,-1,-1,-1],"split_conditions":[1E0,1E0,1E0,-1.0573709E-3,5.9505027E-2,-4.960717E-2,1.8712092E-3],"split_indices":[745,260,784,0,0,0,0],"split_type":[0,0,0,0,0,0,0],"sum_hessian":[4.6312008E1,3.2879143E1,1.3432866E1,2.731892E1,5.5602226E0,6.354576E0,7.07829E0],"tree_param":{"num_deleted":"0","num_feature":"1024","num_nodes":"7","size_leaf_vector":"1"}},{"base_weights":[2.3280908E-4,-7.0847206E-2,2.4137318E-1,3.9016425E-3,-6.0116597E-2,5.325821E-2,-8.203445E-3],"categories":[],"categories_nodes":[],"categories_segments":[],"categories_sizes":[],"default_left":[0,0,0,0,0,0,0],"id":91,"left_children":[1,3,5,-1,-1,-1,-1],"loss_changes":[7.967362E-1,2.094047E0,1.001007E0,0E0,0E0,0E0,0E0],"parents":[2147483647,0,0,1,1,2,2],"right_children":[2,4,6,-1,-1,-1,-1],"split_conditions":[1E0,1E0,1E0,3.9016425E-3,-6.0116597E-2,5.325821E-2,-8.203445E-3],"split_indices":[147,451,695,0,0,0,0],"split_type":[0,0,0,0,0,0,0],"sum_hessian":[4.6283543E1,3.5801186E1,1.0482357E1,2.973398E1,6.0672054E0,5.481722E0,5.0006356E0],"tree_param":{"num_deleted":"0","num_feature":"1024","num_nodes":"7","size_leaf_vector":"1"}},{"base_weights":[2.6473968E-4,-5.2539676E-2,3.5908006E-2,3.8058292E-2,-1.5189243E-2],"categories":[],"categories_nodes":[],"categories_segments":[],"categories_sizes":[],"default_left":[0,0,0,0,0],"id":92,"left_children":[1,3,-1,-1,-1],"loss_changes":[8.813793E-1,1.7507663E0,0E0,0E0,0E0],"parents":[2147483647,0,0,1,1],"right_children":[2,4,-1,-1,-1],"split_conditions":[1E0,1E0,3.5908006E-2,3.8058292E-2,-1.5189243E-2],"split_indices":[73,726,0,0,0],"split_type":[0,0,0,0,0],"sum_hessian":[4.631849E1,4.0450954E1,5.867535E0,7.494789E0,3.2956165E1],"tree_param":{"num_deleted":"0","num_feature":"1024","num_nodes":"5","size_leaf_vector":"1"}},{"base_weights":[4.1915706E-4,8.040361E-2,-2.5347957E-1,-3.699962E-3,5.6744386E-2,9.575956E-3,-6.0128875E-2],"categories":[],"categories_nodes":[],"categories_segments":[],"categories_sizes":[],"default_left":[0,0,0,0,0,0,0],"id":93,"left_children":[1,3,5,-1,-1,-1,-1],"loss_changes":[9.414814E-1,2.0179188E0,1.3547895E0,0E0,0E0,0E0,0E0],"parents":[2147483647,0,0,1,1,2,2],"right_children":[2,4,6,-1,-1,-1,-1],"split_conditions":[1E0,1E0,1E0,-3.699962E-3,5.6744386E-2,9.575956E-3,-6.0128875E-2],"split_indices":[792,289,80,0,0,0,0],"split_type":[0,0,0,0,0,0,0],"sum_hessian":[4.6159878E1,3.5153862E1,1.1006014E1,2.8400257E1,6.753606E0,5.5278773E0,5.4781365E0],"tree_param":{"num_deleted":"0","num_feature":"1024","num_nodes":"7","size_leaf_vector":"1"}},{"base_weights":[4.0011524E-4,-9.584058E-2,1.7968468E-1,1.1404701E-2,-6.1314374E-2,4.569342E-2,-4.0130686E-2],"categories":[],"categories_nodes":[],"categories_segments":[],"categories_sizes":[],"default_left":[0,0,0,0,0,0,0],"id":94,"left_children":[1,3,5,-1,-1,-1,-1],"loss_changes":[7.9451555E-1,3.260247E0,2.6091533E0,0E0,0E0,0E0,0E0],"parents":[2147483647,0,0,1,1,2,2],"right_children":[2,4,6,-1,-1,-1,-1],"split_conditions":[1E0,1E0,1E0,1.1404701E-2,-6.1314374E-2,4.569342E-2,-4.0130686E-2],"split_indices":[695,136,378,0,0,0,0],"split_type":[0,0,0,0,0,0,0],"sum_hessian":[4.584713E1,2.9863058E1,1.5984071E1,2.1299198E1,8.56386E0,1.08349695E1,5.1491013E0],"tree_param":{"num_deleted":"0","num_feature":"1024","num_nodes":"7","size_leaf_vector":"1"}},{"base_weights":[2.4051181E-4,1.9976352E-1,-8.534979E-2,6.511973E-2,-2.2484988E-2,3.0410506E-3,-5.0756764E-2],"categories":[],"categories_nodes":[],"categories_segments":[],"categories_sizes":[],"default_left":[0,0,0,0,0,0,0],"id":95,"left_children":[1,3,5,-1,-1,-1,-1],"loss_changes":[7.782434E-1,2.6369977E0,1.5602787E0,0E0,0E0,0E0,0E0],"parents":[2147483647,0,0,1,1,2,2],"right_children":[2,4,6,-1,-1,-1,-1],"split_conditions":[1E0,1E0,1E0,6.511973E-2,-2.2484988E-2,3.0410506E-3,-5.0756764E-2],"split_indices":[314,428,157,0,0,0,0],"split_type":[0,0,0,0,0,0,0],"sum_hessian":[4.5372143E1,1.3580559E1,3.1791584E1,6.556529E0,7.0240297E0,2.502361E1,6.767975E0],"tree_param":{"num_deleted":"0","num_feature":"1024","num_nodes":"7","size_leaf_vector":"1"}},{"base_weights":[3.591662E-4,7.504931E-2,-2.2909746E-1,-4.8353E-3,6.368094E-2,-5.061388E-2,5.1981336E-3],"categories":[],"categories_nodes":[],"categories_segments":[],"categories_sizes":[],"default_left":[0,0,0,0,0,0,0],"id":96,"left_children":[1,3,5,-1,-1,-1,-1],"loss_changes":[7.7520925E-1,2.3686826E0,8.676176E-1,0E0,0E0,0E0,0E0],"parents":[2147483647,0,0,1,1,2,2],"right_children":[2,4,6,-1,-1,-1,-1],"split_conditions":[1E0,1E0,1E0,-4.8353E-3,6.368094E-2,-5.061388E-2,5.1981336E-3],"split_indices":[36,289,438,0,0,0,0],"split_type":[0,0,0,0,0,0,0],"sum_hessian":[4.5032642E1,3.402462E1,1.100802E1,2.7971493E1,6.053129E0,5.5035014E0,5.5045195E0],"tree_param":{"num_deleted":"0","num_feature":"1024","num_nodes":"7","size_leaf_vector":"1"}},{"base_weights":[4.654454E-4,5.0015766E-2,-2.931498E-2,1.901603E-2,-4.110978E-2],"categories":[],"categories_nodes":[],"categories_segments":[],"categories_sizes":[],"default_left":[0,0,0,0,0],"id":97,"left_children":[1,3,-1,-1,-1],"loss_changes":[6.5529406E-1,2.4981709E0,0E0,0E0,0E0],"parents":[2147483647,0,0,1,1],"right_children":[2,4,-1,-1,-1],"split_conditions":[1E0,1E0,-2.931498E-2,1.901603E-2,-4.110978E-2],"split_indices":[286,511,0,0,0],"split_type":[0,0,0,0,0],"sum_hessian":[4.484054E1,3.8436916E1,6.403624E0,2.9522894E1,8.914022E0],"tree_param":{"num_deleted":"0","num_feature":"1024","num_nodes":"5","size_leaf_vector":"1"}},{"base_weights":[2.6964297E-4,2.806575E-2,-5.7850976E-2,-2.2292057E-2,1.6209612E-2],"categories":[],"categories_nodes":[],"categories_segments":[],"categories_sizes":[],"default_left":[0,0,0,0,0],"id":98,"left_children":[1,-1,3,-1,-1],"loss_changes":[7.304932E-1,0E0,1.3516641E0,0E0,0E0],"parents":[2147483647,0,0,2,2],"right_children":[2,-1,4,-1,-1],"split_conditions":[1E0,2.806575E-2,1E0,-2.2292057E-2,1.6209612E-2],"split_indices":[726,0,656,0,0],"split_type":[0,0,0,0,0],"sum_hessian":[4.4626034E1,7.5963798E0,3.7029655E1,2.1153025E1,1.587663E1],"tree_param":{"num_deleted":"0","num_feature":"1024","num_nodes":"5","size_leaf_vector":"1"}},{"base_weights":[3.0065866E-4,1.0019388E-1,-2.4467829E-1,-1.4530453E-2,3.0369017E-2,-5.1063728E-2,1.530749E-4],"categories":[],"categories_nodes":[],"categories_segments":[],"categories_sizes":[],"default_left":[0,0,0,0,0,0,0],"id":99,"left_children":[1,3,5,-1,-1,-1,-1],"loss_changes":[1.092502E0,1.5886867E0,8.468281E-1,0E0,0E0,0E0,0E0],"parents":[2147483647,0,0,1,1,2,2],"right_children":[2,4,6,-1,-1,-1,-1],"split_conditions":[1E0,1E0,1E0,-1.4530453E-2,3.0369017E-2,-5.1063728E-2,1.530749E-4],"split_indices":[745,128,289,0,0,0,0],"split_type":[0,0,0,0,0,0,0],"sum_hessian":[4.444324E1,3.161211E1,1.2831131E1,1.4340405E1,1.7271704E1,6.1165423E0,6.714588E0],"tree_param":{"num_deleted":"0","num_feature":"1024","num_nodes":"7","size_leaf_vector":"1"}},{"base_weights":[1.4043099E-4,-4.9553543E-2,3.2239176E-2,3.3478935E-3,-5.1821005E-2],"categories":[],"categories_nodes":[],"categories_segments":[],"categories_sizes":[],"default_left":[0,0,0,0,0],"id":100,"left_children":[1,3,-1,-1,-1],"loss_changes":[7.145227E-1,1.5060495E0,0E0,0E0,0E0],"parents":[2147483647,0,0,1,1],"right_children":[2,4,-1,-1,-1],"split_conditions":[1E0,1E0,3.2239176E-2,3.3478935E-3,-5.1821005E-2],"split_indices":[946,451,0,0,0],"split_type":[0,0,0,0,0],"sum_hessian":[4.4419014E1,3.85577E1,5.8613124E0,3.283342E1,5.7242823E0],"tree_param":{"num_deleted":"0","num_feature":"1024","num_nodes":"5","size_leaf_vector":"1"}},{"base_weights":[1.3173278E-4,9.330716E-2,-1.746416E-1,6.2405955E-2,-5.3954506E-3,2.2634675E-3,-3.7893213E-2],"categories":[],"categories_nodes":[],"categories_segments":[],"categories_sizes":[],"default_left":[0,0,0,0,0,0,0],"id":101,"left_children":[1,3,5,-1,-1,-1,-1],"loss_changes":[7.2687083E-1,2.2789068E0,6.263963E-1,0E0,0E0,0E0,0E0],"parents":[2147483647,0,0,1,1,2,2],"right_children":[2,4,6,-1,-1,-1,-1],"split_conditions":[1E0,1E0,1E0,6.2405955E-2,-5.3954506E-3,2.2634675E-3,-3.7893213E-2],"split_indices":[428,314,136,0,0,0,0],"split_type":[0,0,0,0,0,0,0],"sum_hessian":[4.4435463E1,2.901406E1,1.5421406E1,6.231403E0,2.2782656E1,7.890624E0,7.530782E0],"tree_param":{"num_deleted":"0","num_feature":"1024","num_nodes":"7","size_leaf_vector":"1"}},{"base_weights":[3.1159213E-4,8.618157E-2,-2.1087784E-1,-1.9261558E-3,5.870212E-2,-4.4728015E-2,3.8550154E-4],"categories":[],"categories_nodes":[],"categories_segments":[],"categories_sizes":[],"default_left":[0,0,0,0,0,0,0],"id":102,"left_children":[1,3,5,-1,-1,-1,-1],"loss_changes":[8.038254E-1,1.665273E0,6.505983E-1,0E0,0E0,0E0,0E0],"parents":[2147483647,0,0,1,1,2,2],"right_children":[2,4,6,-1,-1,-1,-1],"split_conditions":[1E0,1E0,1E0,-1.9261558E-3,5.870212E-2,-4.4728015E-2,3.8550154E-4],"split_indices":[745,260,784,0,0,0,0],"split_type":[0,0,0,0,0,0,0],"sum_hessian":[4.4124725E1,3.141182E1,1.2712907E1,2.6028189E1,5.383631E0,5.9995856E0,6.713321E0],"tree_param":{"num_deleted":"0","num_feature":"1024","num_nodes":"7","size_leaf_vector":"1"}},{"base_weights":[3.1252095E-4,7.823552E-2,-2.4062625E-1,-2.0582546E-3,5.4476984E-2,8.470877E-3,-5.75035E-2],"categories":[],"categories_nodes":[],"categories_segments":[],"categories_sizes":[],"default_left":[0,0,0,0,0,0,0],"id":103,"left_children":[1,3,5,-1,-1,-1,-1],"loss_changes":[8.3159196E-1,1.5440935E0,1.1825063E0,0E0,0E0,0E0,0E0],"parents":[2147483647,0,0,1,1,2,2],"right_children":[2,4,6,-1,-1,-1,-1],"split_conditions":[1E0,1E0,1E0,-2.0582546E-3,5.4476984E-2,8.470877E-3,-5.75035E-2],"split_indices":[792,1019,80,0,0,0,0],"split_type":[0,0,0,0,0,0,0],"sum_hessian":[4.4093014E1,3.336865E1,1.0724364E1,2.7615015E1,5.7536335E0,5.4737782E0,5.2505856E0],"tree_param":{"num_deleted":"0","num_feature":"1024","num_nodes":"7","size_leaf_vector":"1"}},{"base_weights":[2.8750295E-4,-7.051901E-2,2.4114085E-2,6.50835E-3,-3.759104E-2],"categories":[],"categories_nodes":[],"categories_segments":[],"categories_sizes":[],"default_left":[0,0,0,0,0],"id":104,"left_children":[1,3,-1,-1,-1],"loss_changes":[7.508822E-1,1.4115611E0,0E0,0E0,0E0],"parents":[2147483647,0,0,1,1],"right_children":[2,4,-1,-1,-1],"split_conditions":[1E0,1E0,2.4114085E-2,6.50835E-3,-3.759104E-2],"split_indices":[147,583,0,0,0],"split_type":[0,0,0,0,0],"sum_hessian":[4.3830013E1,3.3926857E1,9.903158E0,2.354908E1,1.0377775E1],"tree_param":{"num_deleted":"0","num_feature":"1024","num_nodes":"5","size_leaf_vector":"1"}},{"base_weights":[2.7981115E-4,7.3232286E-2,-2.2735856E-1,-2.6356843E-3,5.02638E-2,6.9579533E-3,-5.386693E-2],"categories":[],"categories_nodes":[],"categories_segments":[],"categories_sizes":[],"default_left":[0,0,0,0,0,0,0],"id":105,"left_children":[1,3,5,-1,-1,-1,-1],"loss_changes":[7.3176295E-1,1.4283464E0,9.923247E-1,0E0,0E0,0E0,0E0],"parents":[2147483647,0,0,1,1,2,2],"right_children":[2,4,6,-1,-1,-1,-1],"split_conditions":[1E0,1E0,1E0,-2.6356843E-3,5.02638E-2,6.9579533E-3,-5.386693E-2],"split_indices":[792,289,80,0,0,0,0],"split_type":[0,0,0,0,0,0,0],"sum_hessian":[4.386384E1,3.326959E1,1.0594252E1,2.708241E1,6.1871767E0,5.462036E0,5.132215E0],"tree_param":{"num_deleted":"0","num_feature":"1024","num_nodes":"7","size_leaf_vector":"1"}},{"base_weights":[2.6013015E-4,8.590327E-2,-2.1104392E-1,8.080089E-4,4.2734437E-2,-5.1491644E-2,1.3626051E-2],"categories":[],"categories_nodes":[],"categories_segments":[],"categories_sizes":[],"default_left":[0,0,0,0,0,0,0],"id":106,"left_children":[1,3,5,-1,-1,-1,-1],"loss_changes":[7.927449E-1,8.2794666E-1,1.3403825E0,0E0,0E0,0E0,0E0],"parents":[2147483647,0,0,1,1,2,2],"right_children":[2,4,6,-1,-1,-1,-1],"split_conditions":[1E0,1E0,1E0,8.080089E-4,4.2734437E-2,-5.1491644E-2,1.3626051E-2],"split_indices":[745,950,695,0,0,0,0],"split_type":[0,0,0,0,0,0,0],"sum_hessian":[4.3605766E1,3.107157E1,1.2534197E1,2.5387478E1,5.6840906E0,6.659359E0,5.874838E0],"tree_param":{"num_deleted":"0","num_feature":"1024","num_nodes":"7","size_leaf_vector":"1"}},{"base_weights":[2.6051537E-4,5.638503E-2,-3.247561E-2,1.3256569E-2,-3.5438955E-2],"categories":[],"categories_nodes":[],"categories_segments":[],"categories_sizes":[],"default_left":[0,0,0,0,0],"id":107,"left_children":[1,3,-1,-1,-1],"loss_changes":[7.988506E-1,1.1733115E0,0E0,0E0,0E0],"parents":[2147483647,0,0,1,1],"right_children":[2,4,-1,-1,-1],"split_conditions":[1E0,1E0,-3.247561E-2,1.3256569E-2,-3.5438955E-2],"split_indices":[286,609,0,0,0],"split_type":[0,0,0,0,0],"sum_hessian":[4.3592888E1,3.7244144E1,6.3487415E0,3.1474699E1,5.769448E0],"tree_param":{"num_deleted":"0","num_feature":"1024","num_nodes":"5","size_leaf_vector":"1"}},{"base_weights":[8.3397084E-5,5.087815E-2,-2.9155958E-2,5.4325968E-2,-5.192815E-3],"categories":[],"categories_nodes":[],"categories_segments":[],"categories_sizes":[],"default_left":[0,0,0,0,0],"id":108,"left_children":[1,3,-1,-1,-1],"loss_changes":[6.4659363E-1,1.8845228E0,0E0,0E0,0E0],"parents":[2147483647,0,0,1,1],"right_children":[2,4,-1,-1,-1],"split_conditions":[1E0,1E0,-2.9155958E-2,5.4325968E-2,-5.192815E-3],"split_indices":[286,726,0,0,0],"split_type":[0,0,0,0,0],"sum_hessian":[4.3447533E1,3.7073147E1,6.3743854E0,6.3296113E0,3.0743536E1],"tree_param":{"num_deleted":"0","num_feature":"1024","num_nodes":"5","size_leaf_vector":"1"}},{"base_weights":[1.6060304E-4,7.919932E-2,-1.936907E-1,-2.1184657E-3,5.5291504E-2,-4.626612E-2,1.1524145E-2],"categories":[],"categories_nodes":[],"categories_segments":[],"categories_sizes":[],"default_left":[0,0,0,0,0,0,0],"id":109,"left_children":[1,3,5,-1,-1,-1,-1],"loss_changes":[6.683402E-1,1.4746718E0,1.0551398E0,0E0,0E0,0E0,0E0],"parents":[2147483647,0,0,1,1,2,2],"right_children":[2,4,6,-1,-1,-1,-1],"split_conditions":[1E0,1E0,1E0,-2.1184657E-3,5.5291504E-2,-4.626612E-2,1.1524145E-2],"split_indices":[745,260,695,0,0,0,0],"split_type":[0,0,0,0,0,0,0],"sum_hessian":[4.342022E1,3.0886183E1,1.2534035E1,2.5564417E1,5.321767E0,6.673777E0,5.860258E0],"tree_param":{"num_deleted":"0","num_feature":"1024","num_nodes":"7","size_leaf_vector":"1"}},{"base_weights":[2.0223715E-4,6.880447E-2,-2.1452764E-1,-4.479864E-3,3.9784435E-2,-4.114512E-2,2.859552E-4],"categories":[],"categories_nodes":[],"categories_segments":[],"categories_sizes":[],"default_left":[0,0,0,0,0,0,0],"id":110,"left_children":[1,3,5,-1,-1,-1,-1],"loss_changes":[6.422812E-1,1.236953E0,4.5204586E-1,0E0,0E0,0E0,0E0],"parents":[2147483647,0,0,1,1,2,2],"right_children":[2,4,6,-1,-1,-1,-1],"split_conditions":[1E0,1E0,1E0,-4.479864E-3,3.9784435E-2,-4.114512E-2,2.859552E-4],"split_indices":[792,128,438,0,0,0,0],"split_type":[0,0,0,0,0,0,0],"sum_hessian":[4.34006E1,3.2943665E1,1.0456936E1,2.4552977E1,8.390686E0,5.4398723E0,5.017063E0],"tree_param":{"num_deleted":"0","num_feature":"1024","num_nodes":"7","size_leaf_vector":"1"}},{"base_weights":[1.5449445E-4,5.218475E-2,-2.9761324E-2,1.9114796E-2,-4.0530875E-2],"categories":[],"categories_nodes":[],"categories_segments":[],"categories_sizes":[],"default_left":[0,0,0,0,0],"id":111,"left_children":[1,3,-1,-1,-1],"loss_changes":[6.7376584E-1,2.3612652E0,0E0,0E0,0E0],"parents":[2147483647,0,0,1,1],"right_children":[2,4,-1,-1,-1],"split_conditions":[1E0,1E0,-2.9761324E-2,1.9114796E-2,-4.0530875E-2],"split_indices":[286,511,0,0,0],"split_type":[0,0,0,0,0],"sum_hessian":[4.328835E1,3.6919685E1,6.3686633E0,2.8362747E1,8.556938E0],"tree_param":{"num_deleted":"0","num_feature":"1024","num_nodes":"5","size_leaf_vector":"1"}},{"base_weights":[-1.1784276E-5,6.538983E-2,-1.9951545E-1,-4.5268456E-3,5.938328E-2,-5.5711728E-2,1.2483924E-2],"categories":[],"categories_nodes":[],"categories_segments":[],"categories_sizes":[],"default_left":[0,0,0,0,0,0,0],"id":112,"left_children":[1,3,5,-1,-1,-1,-1],"loss_changes":[5.649009E-1,1.9093574E0,1.246752E0,0E0,0E0,0E0,0E0],"parents":[2147483647,0,0,1,1,2,2],"right_children":[2,4,6,-1,-1,-1,-1],"split_conditions":[1E0,1E0,1E0,-4.5268456E-3,5.938328E-2,-5.5711728E-2,1.2483924E-2],"split_indices":[36,289,226,0,0,0,0],"split_type":[0,0,0,0,0,0,0],"sum_hessian":[4.309453E1,3.2505684E1,1.0588843E1,2.6953033E1,5.552651E0,5.002173E0,5.58667E0],"tree_param":{"num_deleted":"0","num_feature":"1024","num_nodes":"7","size_leaf_vector":"1"}},{"base_weights":[1.1200276E-4,8.314947E-2,-2.037325E-1,-1.0733946E-3,5.242436E-2,-4.468376E-2,8.09492E-3],"categories":[],"categories_nodes":[],"categories_segments":[],"categories_sizes":[],"default_left":[0,0,0,0,0,0,0],"id":113,"left_children":[1,3,5,-1,-1,-1,-1],"loss_changes":[7.3024774E-1,1.270001E0,8.678328E-1,0E0,0E0,0E0,0E0],"parents":[2147483647,0,0,1,1,2,2],"right_children":[2,4,6,-1,-1,-1,-1],"split_conditions":[1E0,1E0,1E0,-1.0733946E-3,5.242436E-2,-4.468376E-2,8.09492E-3],"split_indices":[745,260,695,0,0,0,0],"split_type":[0,0,0,0,0,0,0],"sum_hessian":[4.294161E1,3.055431E1,1.23873E1,2.5272766E1,5.281543E0,6.6508336E0,5.736466E0],"tree_param":{"num_deleted":"0","num_feature":"1024","num_nodes":"7","size_leaf_vector":"1"}},{"base_weights":[1.4896819E-4,9.415606E-2,-1.7428522E-1,2.5531713E-2,-2.1092957E-2,4.226796E-3,-3.923175E-2],"categories":[],"categories_nodes":[],"categories_segments":[],"categories_sizes":[],"default_left":[0,0,0,0,0,0,0],"id":114,"left_children":[1,3,5,-1,-1,-1,-1],"loss_changes":[7.071248E-1,1.383123E0,7.1467793E-1,0E0,0E0,0E0,0E0],"parents":[2147483647,0,0,1,1,2,2],"right_children":[2,4,6,-1,-1,-1,-1],"split_conditions":[1E0,1E0,1E0,2.5531713E-2,-2.1092957E-2,4.226796E-3,-3.923175E-2],"split_indices":[428,36,896,0,0,0,0],"split_type":[0,0,0,0,0,0,0],"sum_hessian":[4.292243E1,2.7921064E1,1.5001361E1,1.828065E1,9.640415E0,7.5666537E0,7.4347076E0],"tree_param":{"num_deleted":"0","num_feature":"1024","num_nodes":"7","size_leaf_vector":"1"}},{"base_weights":[5.4591655E-5,5.144942E-2,-2.3673793E-2,1.3427448E-2,-1.774866E-2],"categories":[],"categories_nodes":[],"categories_segments":[],"categories_sizes":[],"default_left":[0,0,0,0,0],"id":115,"left_children":[1,3,-1,-1,-1],"loss_changes":[5.2325195E-1,6.7225444E-1,0E0,0E0,0E0],"parents":[2147483647,0,0,1,1],"right_children":[2,4,-1,-1,-1],"split_conditions":[1E0,1E0,-2.3673793E-2,1.3427448E-2,-1.774866E-2],"split_indices":[451,511,0,0,0],"split_type":[0,0,0,0,0],"sum_hessian":[4.279546E1,3.5227707E1,7.5677543E0,2.5899181E1,9.328525E0],"tree_param":{"num_deleted":"0","num_feature":"1024","num_nodes":"5","size_leaf_vector":"1"}},{"base_weights":[-8.857968E-6,8.6797714E-2,-1.6115156E-1,5.827847E-2,-4.7050165E-3,-3.2847244E-2,4.4248495E-3],"categories":[],"categories_nodes":[],"categories_segments":[],"categories_sizes":[],"default_left":[0,0,0,0,0,0,0],"id":116,"left_children":[1,3,5,-1,-1,-1,-1],"loss_changes":[6.005103E-1,1.8549374E0,5.179858E-1,0E0,0E0,0E0,0E0],"parents":[2147483647,0,0,1,1,2,2],"right_children":[2,4,6,-1,-1,-1,-1],"split_conditions":[1E0,1E0,1E0,5.827847E-2,-4.7050165E-3,-3.2847244E-2,4.4248495E-3],"split_indices":[428,314,333,0,0,0,0],"split_type":[0,0,0,0,0,0,0],"sum_hessian":[4.2729637E1,2.7800056E1,1.4929582E1,5.8365855E0,2.1963472E1,8.194414E0,6.735167E0],"tree_param":{"num_deleted":"0","num_feature":"1024","num_nodes":"7","size_leaf_vector":"1"}},{"base_weights":[1.9409874E-4,-6.0850114E-2,2.0828968E-2,4.661196E-3,-5.6383085E-2],"categories":[],"categories_nodes":[],"categories_segments":[],"categories_sizes":[],"default_left":[0,0,0,0,0],"id":117,"left_children":[1,3,-1,-1,-1],"loss_changes":[5.4257876E-1,1.7876775E0,0E0,0E0,0E0],"parents":[2147483647,0,0,1,1],"right_children":[2,4,-1,-1,-1],"split_conditions":[1E0,1E0,2.0828968E-2,4.661196E-3,-5.6383085E-2],"split_indices":[147,451,0,0,0],"split_type":[0,0,0,0,0],"sum_hessian":[4.251277E1,3.292506E1,9.587708E0,2.7203709E1,5.721352E0],"tree_param":{"num_deleted":"0","num_feature":"1024","num_nodes":"5","size_leaf_vector":"1"}},{"base_weights":[1.4581018E-4,5.0759368E-2,-2.8546734E-2,1.7637584E-2,-3.7109397E-2],"categories":[],"categories_nodes":[],"categories_segments":[],"categories_sizes":[],"default_left":[0,0,0,0,0],"id":118,"left_children":[1,3,-1,-1,-1],"loss_changes":[6.178349E-1,1.9304278E0,0E0,0E0,0E0],"parents":[2147483647,0,0,1,1],"right_children":[2,4,-1,-1,-1],"split_conditions":[1E0,1E0,-2.8546734E-2,1.7637584E-2,-3.7109397E-2],"split_indices":[286,511,0,0,0],"split_type":[0,0,0,0,0],"sum_hessian":[4.2539066E1,3.6205338E1,6.333727E0,2.7942894E1,8.262445E0],"tree_param":{"num_deleted":"0","num_feature":"1024","num_nodes":"5","size_leaf_vector":"1"}},{"base_weights":[-8.236706E-6,8.502717E-2,-1.5645078E-1,-7.853339E-3,3.3044007E-2,3.2685404E-3,-3.5040952E-2],"categories":[],"categories_nodes":[],"categories_segments":[],"categories_sizes":[],"default_left":[0,0,0,0,0,0,0],"id":119,"left_children":[1,3,5,-1,-1,-1,-1],"loss_changes":[5.663141E-1,1.109617E0,5.5107737E-1,0E0,0E0,0E0,0E0],"parents":[2147483647,0,0,1,1,2,2],"right_children":[2,4,6,-1,-1,-1,-1],"split_conditions":[1E0,1E0,1E0,-7.853339E-3,3.3044007E-2,3.2685404E-3,-3.5040952E-2],"split_indices":[428,378,896,0,0,0,0],"split_type":[0,0,0,0,0,0,0],"sum_hessian":[4.2369915E1,2.7479107E1,1.4890807E1,1.6530205E1,1.0948902E1,7.581227E0,7.3095803E0],"tree_param":{"num_deleted":"0","num_feature":"1024","num_nodes":"7","size_leaf_vector":"1"}},{"base_weights":[-7.066137E-5,-4.7083616E-2,3.1651206E-2,1.9015977E-3,-4.0937882E-2],"categories":[],"categories_nodes":[],"categories_segments":[],"categories_sizes":[],"default_left":[0,0,0,0,0],"id":120,"left_children":[1,3,-1,-1,-1],"loss_changes":[6.34269E-1,8.893596E-1,0E0,0E0,0E0],"parents":[2147483647,0,0,1,1],"right_children":[2,4,-1,-1,-1],"split_conditions":[1E0,1E0,3.1651206E-2,1.9015977E-3,-4.0937882E-2],"split_indices":[946,451,0,0,0],"split_type":[0,0,0,0,0],"sum_hessian":[4.241549E1,3.7005283E1,5.4102063E0,3.1375647E1,5.629635E0],"tree_param":{"num_deleted":"0","num_feature":"1024","num_nodes":"5","size_leaf_vector":"1"}},{"base_weights":[-5.5338467E-5,-7.728831E-2,1.6327265E-1,1.4662944E-2,-3.9158728E-2,-2.6390875E-2,8.1159286E-2],"categories":[],"categories_nodes":[],"categories_segments":[],"categories_sizes":[],"default_left":[0,0,0,0,0,0,0],"id":121,"left_children":[1,3,5,-1,-1,-1,-1],"loss_changes":[5.3760695E-1,2.0421638E0,3.8109138E0,0E0,0E0,0E0,0E0],"parents":[2147483647,0,0,1,1,2,2],"right_children":[2,4,6,-1,-1,-1,-1],"split_conditions":[1E0,1E0,1E0,1.4662944E-2,-3.9158728E-2,-2.6390875E-2,8.1159286E-2],"split_indices":[333,33,695,0,0,0,0],"split_type":[0,0,0,0,0,0,0],"sum_hessian":[4.2418797E1,2.8835854E1,1.3582942E1,1.6870241E1,1.1965612E1,8.223639E0,5.359303E0],"tree_param":{"num_deleted":"0","num_feature":"1024","num_nodes":"7","size_leaf_vector":"1"}},{"base_weights":[1.9239579E-4,7.8765854E-2,-1.4558557E-1,5.550557E-2,-4.492588E-3,-2.8923068E-2,3.1773334E-3],"categories":[],"categories_nodes":[],"categories_segments":[],"categories_sizes":[],"default_left":[0,0,0,0,0,0,0],"id":122,"left_children":[1,3,5,-1,-1,-1,-1],"loss_changes":[4.8510522E-1,1.6237091E0,3.7880468E-1,0E0,0E0,0E0,0E0],"parents":[2147483647,0,0,1,1,2,2],"right_children":[2,4,6,-1,-1,-1,-1],"split_conditions":[1E0,1E0,1E0,5.550557E-2,-4.492588E-3,-2.8923068E-2,3.1773334E-3],"split_indices":[428,314,333,0,0,0,0],"split_type":[0,0,0,0,0,0,0],"sum_hessian":[4.215133E1,2.7418755E1,1.4732576E1,5.5807323E0,2.1838022E1,8.10509E0,6.6274867E0],"tree_param":{"num_deleted":"0","num_feature":"1024","num_nodes":"7","size_leaf_vector":"1"}},{"base_weights":[3.6059853E-4,4.6507347E-2,-2.5455356E-2,-3.6635192E-3,4.756686E-2],"categories":[],"categories_nodes":[],"categories_segments":[],"categories_sizes":[],"default_left":[0,0,0,0,0],"id":123,"left_children":[1,3,-1,-1,-1],"loss_changes":[4.9586034E-1,1.2752446E0,0E0,0E0,0E0],"parents":[2147483647,0,0,1,1],"right_children":[2,4,-1,-1,-1],"split_conditions":[1E0,1E0,-2.5455356E-2,-3.6635192E-3,4.756686E-2],"split_indices":[286,289,0,0,0],"split_type":[0,0,0,0,0],"sum_hessian":[4.1951954E1,3.5590763E1,6.3611903E0,2.9891306E1,5.6994576E0],"tree_param":{"num_deleted":"0","num_feature":"1024","num_nodes":"5","size_leaf_vector":"1"}},{"base_weights":[4.3789466E-4,-4.1681338E-2,2.9141722E-2,8.614964E-3,-2.5773508E-2],"categories":[],"categories_nodes":[],"categories_segments":[],"categories_sizes":[],"default_left":[0,0,0,0,0],"id":124,"left_children":[1,3,-1,-1,-1],"loss_changes":[5.153651E-1,1.0167634E0,0E0,0E0,0E0],"parents":[2147483647,0,0,1,1],"right_children":[2,4,-1,-1,-1],"split_conditions":[1E0,1E0,2.9141722E-2,8.614964E-3,-2.5773508E-2],"split_indices":[946,578,0,0,0],"split_type":[0,0,0,0,0],"sum_hessian":[4.1851517E1,3.663437E1,5.217147E0,2.3054188E1,1.3580182E1],"tree_param":{"num_deleted":"0","num_feature":"1024","num_nodes":"5","size_leaf_vector":"1"}},{"base_weights":[4.480532E-4,-8.522968E-2,1.1480215E-1,-4.925239E-2,5.412729E-3,4.0062793E-2,-2.5569856E-2],"categories":[],"categories_nodes":[],"categories_segments":[],"categories_sizes":[],"default_left":[0,0,0,0,0,0,0],"id":125,"left_children":[1,3,5,-1,-1,-1,-1],"loss_changes":[4.12558E-1,1.3690106E0,1.9201878E0,0E0,0E0,0E0,0E0],"parents":[2147483647,0,0,1,1,2,2],"right_children":[2,4,6,-1,-1,-1,-1],"split_conditions":[1E0,1E0,1E0,-4.925239E-2,5.412729E-3,4.0062793E-2,-2.5569856E-2],"split_indices":[128,875,875,0,0,0,0],"split_type":[0,0,0,0,0,0,0],"sum_hessian":[4.19082E1,2.3972618E1,1.7935581E1,6.046698E0,1.792592E1,1.0120166E1,7.815415E0],"tree_param":{"num_deleted":"0","num_feature":"1024","num_nodes":"7","size_leaf_vector":"1"}},{"base_weights":[3.4846453E-4,7.6843016E-2,-1.8575788E-1,-1.9347066E-3,5.2123863E-2,-4.181562E-2,9.378872E-3],"categories":[],"categories_nodes":[],"categories_segments":[],"categories_sizes":[],"default_left":[0,0,0,0,0,0,0],"id":126,"left_children":[1,3,5,-1,-1,-1,-1],"loss_changes":[5.990189E-1,1.275712E0,8.0021375E-1,0E0,0E0,0E0,0E0],"parents":[2147483647,0,0,1,1,2,2],"right_children":[2,4,6,-1,-1,-1,-1],"split_conditions":[1E0,1E0,1E0,-1.9347066E-3,5.2123863E-2,-4.181562E-2,9.378872E-3],"split_indices":[745,260,695,0,0,0,0],"split_type":[0,0,0,0,0,0,0],"sum_hessian":[4.187713E1,2.9720102E1,1.2157026E1,2.4510431E1,5.2096725E0,6.611247E0,5.545779E0],"tree_param":{"num_deleted":"0","num_feature":"1024","num_nodes":"7","size_leaf_vector":"1"}},{"base_weights":[3.6751968E-4,-4.0162902E-2,2.8985793E-2,-1.1463728E-2,2.3614673E-2],"categories":[],"categories_nodes":[],"categories_segments":[],"categories_sizes":[],"default_left":[0,0,0,0,0],"id":127,"left_children":[1,3,-1,-1,-1],"loss_changes":[4.9344242E-1,7.618547E-1,0E0,0E0,0E0],"parents":[2147483647,0,0,1,1],"right_children":[2,4,-1,-1,-1],"split_conditions":[1E0,1E0,2.8985793E-2,-1.1463728E-2,2.3614673E-2],"split_indices":[750,935,0,0,0],"split_type":[0,0,0,0,0],"sum_hessian":[4.185612E1,3.679125E1,5.0648723E0,2.9026247E1,7.765001E0],"tree_param":{"num_deleted":"0","num_feature":"1024","num_nodes":"5","size_leaf_vector":"1"}},{"base_weights":[4.403784E-4,4.88652E-2,-2.6701337E-2,-3.4021174E-3,4.8075195E-2],"categories":[],"categories_nodes":[],"categories_segments":[],"categories_sizes":[],"default_left":[0,0,0,0,0],"id":128,"left_children":[1,3,-1,-1,-1],"loss_changes":[5.445695E-1,1.2760441E0,0E0,0E0,0E0],"parents":[2147483647,0,0,1,1],"right_children":[2,4,-1,-1,-1],"split_conditions":[1E0,1E0,-2.6701337E-2,-3.4021174E-3,4.8075195E-2],"split_indices":[286,289,0,0,0],"split_type":[0,0,0,0,0],"sum_hessian":[4.184641E1,3.550047E1,6.3459377E0,2.9861639E1,5.6388307E0],"tree_param":{"num_deleted":"0","num_feature":"1024","num_nodes":"5","size_leaf_vector":"1"}},{"base_weights":[5.084281E-4,7.383767E-2,-1.7945626E-1,-1.8094272E-3,5.000322E-2,-3.9532278E-2,8.21708E-3],"categories":[],"categories_nodes":[],"categories_segments":[],"categories_sizes":[],"default_left":[0,0,0,0,0,0,0],"id":129,"left_children":[1,3,5,-1,-1,-1,-1],"loss_changes":[5.53583E-1,1.1686496E0,6.891181E-1,0E0,0E0,0E0,0E0],"parents":[2147483647,0,0,1,1,2,2],"right_children":[2,4,6,-1,-1,-1,-1],"split_conditions":[1E0,1E0,1E0,-1.8094272E-3,5.000322E-2,-3.9532278E-2,8.21708E-3],"split_indices":[745,260,695,0,0,0,0],"split_type":[0,0,0,0,0,0,0],"sum_hessian":[4.1748272E1,2.970394E1,1.20443325E1,2.4512291E1,5.1916485E0,6.5713005E0,5.473032E0],"tree_param":{"num_deleted":"0","num_feature":"1024","num_nodes":"7","size_leaf_vector":"1"}},{"base_weights":[5.079981E-4,4.97678E-2,-2.7060224E-2,1.7324992E-2,-3.631794E-2],"categories":[],"categories_nodes":[],"categories_segments":[],"categories_sizes":[],"default_left":[0,0,0,0,0],"id":130,"left_children":[1,3,-1,-1,-1],"loss_changes":[5.5993754E-1,1.8154774E0,0E0,0E0,0E0],"parents":[2147483647,0,0,1,1],"right_children":[2,4,-1,-1,-1],"split_conditions":[1E0,1E0,-2.7060224E-2,1.7324992E-2,-3.631794E-2],"split_indices":[286,511,0,0,0],"split_type":[0,0,0,0,0],"sum_hessian":[4.172686E1,3.5380066E1,6.346794E0,2.7280516E1,8.099549E0],"tree_param":{"num_deleted":"0","num_feature":"1024","num_nodes":"5","size_leaf_vector":"1"}},{"base_weights":[3.2038864E-4,7.140192E-2,-1.7367007E-1,-1.55124115E-2,2.619858E-2,-3.9037935E-2,3.0985465E-3],"categories":[],"categories_nodes":[],"categories_segments":[],"categories_sizes":[],"default_left":[0,0,0,0,0,0,0],"id":131,"left_children":[1,3,5,-1,-1,-1,-1],"loss_changes":[5.1655465E-1,1.2842275E0,5.38489E-1,0E0,0E0,0E0,0E0],"parents":[2147483647,0,0,1,1,2,2],"right_children":[2,4,6,-1,-1,-1,-1],"split_conditions":[1E0,1E0,1E0,-1.55124115E-2,2.619858E-2,-3.9037935E-2,3.0985465E-3],"split_indices":[745,128,289,0,0,0,0],"split_type":[0,0,0,0,0,0,0],"sum_hessian":[4.1566814E1,2.9552492E1,1.2014323E1,1.3511485E1,1.6041006E1,5.791241E0,6.2230816E0],"tree_param":{"num_deleted":"0","num_feature":"1024","num_nodes":"7","size_leaf_vector":"1"}},{"base_weights":[1.9611891E-4,4.808344E-2,-2.614755E-2,1.6199403E-2,-3.3620294E-2],"categories":[],"categories_nodes":[],"categories_segments":[],"categories_sizes":[],"default_left":[0,0,0,0,0],"id":132,"left_children":[1,3,-1,-1,-1],"loss_changes":[5.23075E-1,1.550042E0,0E0,0E0,0E0],"parents":[2147483647,0,0,1,1],"right_children":[2,4,-1,-1,-1],"split_conditions":[1E0,1E0,-2.614755E-2,1.6199403E-2,-3.3620294E-2],"split_indices":[286,511,0,0,0],"split_type":[0,0,0,0,0],"sum_hessian":[4.1542965E1,3.518546E1,6.357505E0,2.7185076E1,8.000384E0],"tree_param":{"num_deleted":"0","num_feature":"1024","num_nodes":"5","size_leaf_vector":"1"}},{"base_weights":[4.882629E-5,8.3121315E-2,-1.5114753E-1,-7.949579E-3,3.278998E-2,1.9199403E-3,-3.3306323E-2],"categories":[],"categories_nodes":[],"categories_segments":[],"categories_sizes":[],"default_left":[0,0,0,0,0,0,0],"id":133,"left_children":[1,3,5,-1,-1,-1,-1],"loss_changes":[5.224482E-1,1.0711946E0,4.5771945E-1,0E0,0E0,0E0,0E0],"parents":[2147483647,0,0,1,1,2,2],"right_children":[2,4,6,-1,-1,-1,-1],"split_conditions":[1E0,1E0,1E0,-7.949579E-3,3.278998E-2,1.9199403E-3,-3.3306323E-2],"split_indices":[428,378,136,0,0,0,0],"split_type":[0,0,0,0,0,0,0],"sum_hessian":[4.1395317E1,2.6745462E1,1.4649856E1,1.6110243E1,1.063522E1,7.6116796E0,7.0381756E0],"tree_param":{"num_deleted":"0","num_feature":"1024","num_nodes":"7","size_leaf_vector":"1"}},{"base_weights":[-1.7594952E-5,-3.964126E-2,2.7982268E-2,6.6000074E-3,-2.184335E-2],"categories":[],"categories_nodes":[],"categories_segments":[],"categories_sizes":[],"default_left":[0,0,0,0,0],"id":134,"left_children":[1,3,-1,-1,-1],"loss_changes":[4.617349E-1,6.9040835E-1,0E0,0E0,0E0],"parents":[2147483647,0,0,1,1],"right_children":[2,4,-1,-1,-1],"split_conditions":[1E0,1E0,2.7982268E-2,6.6000074E-3,-2.184335E-2],"split_indices":[946,578,0,0,0],"split_type":[0,0,0,0,0],"sum_hessian":[4.14416E1,3.6376717E1,5.0648856E0,2.2905712E1,1.34710045E1],"tree_param":{"num_deleted":"0","num_feature":"1024","num_nodes":"5","size_leaf_vector":"1"}},{"base_weights":[3.420419E-5,6.220669E-2,-1.8658862E-1,4.5938924E-2,-2.5710096E-3,-3.7159223E-2,-3.2101752E-4],"categories":[],"categories_nodes":[],"categories_segments":[],"categories_sizes":[],"default_left":[0,0,0,0,0,0,0],"id":135,"left_children":[1,3,5,-1,-1,-1,-1],"loss_changes":[4.8364112E-1,1.0929837E0,3.5326317E-1,0E0,0E0,0E0,0E0],"parents":[2147483647,0,0,1,1,2,2],"right_children":[2,4,6,-1,-1,-1,-1],"split_conditions":[1E0,1E0,1E0,4.5938924E-2,-2.5710096E-3,-3.7159223E-2,-3.2101752E-4],"split_indices":[792,726,207,0,0,0,0],"split_type":[0,0,0,0,0,0,0],"sum_hessian":[4.1483086E1,3.1166716E1,1.0316372E1,5.5719104E0,2.5594805E1,5.084338E0,5.232034E0],"tree_param":{"num_deleted":"0","num_feature":"1024","num_nodes":"7","size_leaf_vector":"1"}},{"base_weights":[5.131974E-5,4.5907833E-2,-2.50129E-2,1.6045904E-2,-3.4024823E-2],"categories":[],"categories_nodes":[],"categories_segments":[],"categories_sizes":[],"default_left":[0,0,0,0,0],"id":136,"left_children":[1,3,-1,-1,-1],"loss_changes":[4.7688454E-1,1.5593766E0,0E0,0E0,0E0],"parents":[2147483647,0,0,1,1],"right_children":[2,4,-1,-1,-1],"split_conditions":[1E0,1E0,-2.50129E-2,1.6045904E-2,-3.4024823E-2],"split_indices":[286,511,0,0,0],"split_type":[0,0,0,0,0],"sum_hessian":[4.136791E1,3.5028965E1,6.338944E0,2.7060158E1,7.968808E0],"tree_param":{"num_deleted":"0","num_feature":"1024","num_nodes":"5","size_leaf_vector":"1"}},{"base_weights":[-8.259778E-5,5.3318754E-2,-1.6046403E-1,-2.9052277E-3,4.622441E-2,-3.8236316E-2,7.4150534E-3],"categories":[],"categories_nodes":[],"categories_segments":[],"categories_sizes":[],"default_left":[0,0,0,0,0,0,0],"id":137,"left_children":[1,3,5,-1,-1,-1,-1],"loss_changes":[3.547593E-1,1.0480591E0,5.4149795E-1,0E0,0E0,0E0,0E0],"parents":[2147483647,0,0,1,1,2,2],"right_children":[2,4,6,-1,-1,-1,-1],"split_conditions":[1E0,1E0,1E0,-2.9052277E-3,4.622441E-2,-3.8236316E-2,7.4150534E-3],"split_indices":[792,1019,881,0,0,0,0],"split_type":[0,0,0,0,0,0,0],"sum_hessian":[4.1221752E1,3.0974947E1,1.0246807E1,2.585899E1,5.1159563E0,5.2337437E0,5.013064E0],"tree_param":{"num_deleted":"0","num_feature":"1024","num_nodes":"7","size_leaf_vector":"1"}},{"base_weights":[-2.01256E-5,-7.037204E-2,1.5119012E-1,1.4516785E-2,-3.7598368E-2,-2.976801E-2,6.0009327E-2],"categories":[],"categories_nodes":[],"categories_segments":[],"categories_sizes":[],"default_left":[0,0,0,0,0,0,0],"id":138,"left_children":[1,3,5,-1,-1,-1,-1],"loss_changes":[4.3892154E-1,1.8603244E0,2.6577404E0,0E0,0E0,0E0,0E0],"parents":[2147483647,0,0,1,1,2,2],"right_children":[2,4,6,-1,-1,-1,-1],"split_conditions":[1E0,1E0,1E0,1.4516785E-2,-3.7598368E-2,-2.976801E-2,6.0009327E-2],"split_indices":[333,33,33,0,0,0,0],"split_type":[0,0,0,0,0,0,0],"sum_hessian":[4.1060036E1,2.805886E1,1.3001174E1,1.6484955E1,1.1573907E1,6.517669E0,6.483505E0],"tree_param":{"num_deleted":"0","num_feature":"1024","num_nodes":"7","size_leaf_vector":"1"}},{"base_weights":[1.37844245E-5,5.4882515E-2,-1.8916883E-2,-9.518443E-3,5.2550446E-2],"categories":[],"categories_nodes":[],"categories_segments":[],"categories_sizes":[],"default_left":[0,0,0,0,0],"id":139,"left_children":[1,3,-1,-1,-1],"loss_changes":[4.277213E-1,2.2608595E0,0E0,0E0,0E0],"parents":[2147483647,0,0,1,1],"right_children":[2,4,-1,-1,-1],"split_conditions":[1E0,1E0,-1.8916883E-2,-9.518443E-3,5.2550446E-2],"split_indices":[157,656,0,0,0],"split_type":[0,0,0,0,0],"sum_hessian":[4.1005436E1,3.1841438E1,9.163999E0,2.4203468E1,7.637971E0],"tree_param":{"num_deleted":"0","num_feature":"1024","num_nodes":"5","size_leaf_vector":"1"}},{"base_weights":[1.8584433E-4,4.8530854E-2,-2.2362696E-2,1.6245829E-2,-1.6175479E-2],"categories":[],"categories_nodes":[],"categories_segments":[],