{"learner":{"attributes":{"scikit_learn":"{\"_estimator_type\": \"classifier\"}"},"feature_names":[],"feature_types":[],"gradient_booster":{"model":{"gbtree_model_param":{"num_parallel_tree":"1","num_trees":"130"},"iteration_indptr":[0,1,2,3,4,5,6,7,8,9,10,11,12,13,14,15,16,17,18,19,20,21,22,23,24,25,26,27,28,29,30,31,32,33,34,35,36,37,38,39,40,41,42,43,44,45,46,47,48,49,50,51,52,53,54,55,56,57,58,59,60,61,62,63,64,65,66,67,68,69,70,71,72,73,74,75,76,77,78,79,80,81,82,83,84,85,86,87,88,89,90,91,92,93,94,95,96,97,98,99,100,101,102,103,104,105,106,107,108,109,110,111,112,113,114,115,116,117,118,119,120,121,122,123,124,125,126,127,128,129,130],"tree_info":[0,0,0,0,0,0,0,0,0,0,0,0,0,0,0,0,0,0,0,0,0,0,0,0,0,0,0,0,0,0,0,0,0,0,0,0,0,0,0,0,0,0,0,0,0,0,0,0,0,0,0,0,0,0,0,0,0,0,0,0,0,0,0,0,0,0,0,0,0,0,0,0,0,0,0,0,0,0,0,0,0,0,0,0,0,0,0,0,0,0,0,0,0,0,0,0,0,0,0,0,0,0,0,0,0,0,0,0,0,0,0,0,0,0,0,0,0,0,0,0,0,0,0,0,0,0,0,0,0,0],"trees":[{"base_weights":[7.4286474E-4,5.172909E-1,-1.2824956E0,8.244645E-2,-1.249792E-1,-1.7335074E-1,1.0931365E-2],"categories":[],"categories_nodes":[],"categories_segments":[],"categories_sizes":[],"default_left":[0,0,0,0,0,0,0],"id":0,"left_children":[1,3,5,-1,-1,-1,-1],"loss_changes":[5.657369E1,3.4060997E1,1.5565968E1,0E0,0E0,0E0,0E0],"parents":[2147483647,0,0,1,1,2,2],"right_children":[2,4,6,-1,-1,-1,-1],"split_conditions":[1E0,1E0,1E0,8.244645E-2,-1.249792E-1,-1.7335074E-1,1.0931365E-2],"split_indices":[511,81,233,0,0,0,0],"split_type":[0,0,0,0,0,0,0],"sum_hessian":[8.334774E1,5.985209E1,2.3495655E1,5.1443115E1,8.408971E0,1.755991E1,5.9357443E0],"tree_param":{"num_deleted":"0","num_feature":"1024","num_nodes":"7","size_leaf_vector":"1"}},{"base_weights":[-1.2233366E-3,4.6872273E-1,-1.1516991E0,8.588069E-2,-1.4359038E-1,-1.5529622E-1,1.0006298E-2],"categories":[],"categories_nodes":[],"categories_segments":[],"categories_sizes":[],"default_left":[0,0,0,0,0,0,0],"id":1,"left_children":[1,3,5,-1,-1,-1,-1],"loss_changes":[4.5998512E1,4.6112785E1,1.2548607E1,0E0,0E0,0E0,0E0],"parents":[2147483647,0,0,1,1,2,2],"right_children":[2,4,6,-1,-1,-1,-1],"split_conditions":[1E0,1E0,1E0,8.588069E-2,-1.4359038E-1,-1.5529622E-1,1.0006298E-2],"split_indices":[511,360,233,0,0,0,0],"split_type":[0,0,0,0,0,0,0],"sum_hessian":[8.307975E1,5.940613E1,2.3673618E1,4.976327E1,9.642859E0,1.774476E1,5.9288583E0],"tree_param":{"num_deleted":"0","num_feature":"1024","num_nodes":"7","size_leaf_vector":"1"}},{"base_weights":[-3.1543605E-3,4.0010834E-1,-1.0599493E0,6.5042965E-2,-8.837476E-2,-2.2970801E-2,-1.5540707E-1],"categories":[],"categories_nodes":[],"categories_segments":[],"categories_sizes":[],"default_left":[0,0,0,0,0,0,0],"id":2,"left_children":[1,3,5,-1,-1,-1,-1],"loss_changes":[3.597525E1,2.021295E1,9.207598E0,0E0,0E0,0E0,0E0],"parents":[2147483647,0,0,1,1,2,2],"right_children":[2,4,6,-1,-1,-1,-1],"split_conditions":[1E0,1E0,1E0,6.5042965E-2,-8.837476E-2,-2.2970801E-2,-1.5540707E-1],"split_indices":[361,609,314,0,0,0,0],"split_type":[0,0,0,0,0,0,0],"sum_hessian":[8.242092E1,6.0106327E1,2.2314596E1,5.0712063E1,9.394265E0,8.872155E0,1.3442442E1],"tree_param":{"num_deleted":"0","num_feature":"1024","num_nodes":"7","size_leaf_vector":"1"}},{"base_weights":[-5.1714107E-3,3.9959937E-1,-9.847675E-1,-3.0994395E-2,1.0741019E-1,-1.18119836E-1,2.4224212E-2],"categories":[],"categories_nodes":[],"categories_segments":[],"categories_sizes":[],"default_left":[0,0,0,0,0,0,0],"id":3,"left_children":[1,3,5,-1,-1,-1,-1],"loss_changes":[3.319366E1,2.8687538E1,6.185259E0,0E0,0E0,0E0,0E0],"parents":[2147483647,0,0,1,1,2,2],"right_children":[2,4,6,-1,-1,-1,-1],"split_conditions":[1E0,1E0,1E0,-3.0994395E-2,1.0741019E-1,-1.18119836E-1,2.4224212E-2],"split_indices":[511,656,416,0,0,0,0],"split_type":[0,0,0,0,0,0,0],"sum_hessian":[8.172173E1,5.824633E1,2.3475405E1,2.8649235E1,2.9597094E1,2.0268047E1,3.2073572E0],"tree_param":{"num_deleted":"0","num_feature":"1024","num_nodes":"7","size_leaf_vector":"1"}},{"base_weights":[-4.578403E-3,3.6558366E-1,-8.9950264E-1,6.493645E-2,-1.1484748E-1,-1.2551312E-1,1.6650446E-2],"categories":[],"categories_nodes":[],"categories_segments":[],"categories_sizes":[],"default_left":[0,0,0,0,0,0,0],"id":4,"left_children":[1,3,5,-1,-1,-1,-1],"loss_changes":[2.7438562E1,2.5924881E1,9.396225E0,0E0,0E0,0E0,0E0],"parents":[2147483647,0,0,1,1,2,2],"right_children":[2,4,6,-1,-1,-1,-1],"split_conditions":[1E0,1E0,1E0,6.493645E-2,-1.1484748E-1,-1.2551312E-1,1.6650446E-2],"split_indices":[511,674,233,0,0,0,0],"split_type":[0,0,0,0,0,0,0],"sum_hessian":[8.083645E1,5.760227E1,2.3234184E1,4.899097E1,8.611297E0,1.7289017E1,5.9451675E0],"tree_param":{"num_deleted":"0","num_feature":"1024","num_nodes":"7","size_leaf_vector":"1"}},{"base_weights":[-6.18271E-3,3.2248932E-1,-8.606268E-1,4.4296317E-2,-1.2916474E-1,-8.207936E-3,-1.4032137E-1],"categories":[],"categories_nodes":[],"categories_segments":[],"categories_sizes":[],"default_left":[0,0,0,0,0,0,0],"id":5,"left_children":[1,3,5,-1,-1,-1,-1],"loss_changes":[2.2921053E1,1.2037262E1,9.462061E0,0E0,0E0,0E0,0E0],"parents":[2147483647,0,0,1,1,2,2],"right_children":[2,4,6,-1,-1,-1,-1],"split_conditions":[1E0,1E0,1E0,4.4296317E-2,-1.2916474E-1,-8.207936E-3,-1.4032137E-1],"split_indices":[361,864,896,0,0,0,0],"split_type":[0,0,0,0,0,0,0],"sum_hessian":[7.963013E1,5.795834E1,2.1671787E1,5.4608143E1,3.3501987E0,9.373381E0,1.2298407E1],"tree_param":{"num_deleted":"0","num_feature":"1024","num_nodes":"7","size_leaf_vector":"1"}},{"base_weights":[-8.69434E-3,3.1562364E-1,-7.9720104E-1,6.246571E-2,-1.1199675E-1,-1.1276616E-1,1.5930248E-2],"categories":[],"categories_nodes":[],"categories_segments":[],"categories_sizes":[],"default_left":[0,0,0,0,0,0,0],"id":6,"left_children":[1,3,5,-1,-1,-1,-1],"loss_changes":[2.0657564E1,2.6101324E1,7.6200256E0,0E0,0E0,0E0,0E0],"parents":[2147483647,0,0,1,1,2,2],"right_children":[2,4,6,-1,-1,-1,-1],"split_conditions":[1E0,1E0,1E0,6.246571E-2,-1.1199675E-1,-1.1276616E-1,1.5930248E-2],"split_indices":[511,360,233,0,0,0,0],"split_type":[0,0,0,0,0,0,0],"sum_hessian":[7.879586E1,5.625679E1,2.2539068E1,4.6756584E1,9.500208E0,1.6618599E1,5.9204693E0],"tree_param":{"num_deleted":"0","num_feature":"1024","num_nodes":"7","size_leaf_vector":"1"}},{"base_weights":[-9.937133E-3,2.8829083E-1,-7.384271E-1,5.7394274E-2,-1.0310855E-1,-1.8268818E-2,-1.1188572E-1],"categories":[],"categories_nodes":[],"categories_segments":[],"categories_sizes":[],"default_left":[0,0,0,0,0,0,0],"id":7,"left_children":[1,3,5,-1,-1,-1,-1],"loss_changes":[1.7234983E1,2.181455E1,4.666504E0,0E0,0E0,0E0,0E0],"parents":[2147483647,0,0,1,1,2,2],"right_children":[2,4,6,-1,-1,-1,-1],"split_conditions":[1E0,1E0,1E0,5.7394274E-2,-1.0310855E-1,-1.8268818E-2,-1.1188572E-1],"split_indices":[511,360,875,0,0,0,0],"split_type":[0,0,0,0,0,0,0],"sum_hessian":[7.73504E1,5.5311386E1,2.2039017E1,4.5931885E1,9.379503E0,9.5574875E0,1.2481529E1],"tree_param":{"num_deleted":"0","num_feature":"1024","num_nodes":"7","size_leaf_vector":"1"}},{"base_weights":[-1.1413883E-2,-2.339272E-1,8.8964623E-1,3.470442E-2,-7.0991956E-2,1.21753745E-1,1.6333522E-2],"categories":[],"categories_nodes":[],"categories_segments":[],"categories_sizes":[],"default_left":[0,0,0,0,0,0,0],"id":8,"left_children":[1,3,5,-1,-1,-1,-1],"loss_changes":[1.5651152E1,1.7546991E1,3.4834204E0,0E0,0E0,0E0,0E0],"parents":[2147483647,0,0,1,1,2,2],"right_children":[2,4,6,-1,-1,-1,-1],"split_conditions":[1E0,1E0,1E0,3.470442E-2,-7.0991956E-2,1.21753745E-1,1.6333522E-2],"split_indices":[73,378,1,0,0,0,0],"split_type":[0,0,0,0,0,0,0],"sum_hessian":[7.602346E1,6.1561474E1,1.4461983E1,2.784555E1,3.3715927E1,9.497866E0,4.9641166E0],"tree_param":{"num_deleted":"0","num_feature":"1024","num_nodes":"7","size_leaf_vector":"1"}},{"base_weights":[-8.842007E-3,1.449683E-1,-1.2280297E-1,2.942445E-2,-1.2684005E-1],"categories":[],"categories_nodes":[],"categories_segments":[],"categories_sizes":[],"default_left":[0,0,0,0,0],"id":9,"left_children":[1,3,-1,-1,-1],"loss_changes":[1.4439622E1,1.4810088E1,0E0,0E0,0E0],"parents":[2147483647,0,0,1,1],"right_children":[2,4,-1,-1,-1],"split_conditions":[1E0,1E0,-1.2280297E-1,2.942445E-2,-1.2684005E-1],"split_indices":[553,186,0,0,0],"split_type":[0,0,0,0,0],"sum_hessian":[7.505226E1,6.742691E1,7.62535E0,6.170193E1,5.7249784E0],"tree_param":{"num_deleted":"0","num_feature":"1024","num_nodes":"5","size_leaf_vector":"1"}},{"base_weights":[-1.1266995E-2,1.4222455E-1,-1.1168834E-1,3.5506483E-2,-7.708247E-2],"categories":[],"categories_nodes":[],"categories_segments":[],"categories_sizes":[],"default_left":[0,0,0,0,0],"id":10,"left_children":[1,3,-1,-1,-1],"loss_changes":[1.2930667E1,1.3288688E1,0E0,0E0,0E0],"parents":[2147483647,0,0,1,1],"right_children":[2,4,-1,-1,-1],"split_conditions":[1E0,1E0,-1.1168834E-1,3.5506483E-2,-7.708247E-2],"split_indices":[921,674,0,0,0],"split_type":[0,0,0,0,0],"sum_hessian":[7.425994E1,6.597243E1,8.287519E0,5.3996468E1,1.1975956E1],"tree_param":{"num_deleted":"0","num_feature":"1024","num_nodes":"5","size_leaf_vector":"1"}},{"base_weights":[-1.2442195E-2,-2.1458791E-1,8.159306E-1,-3.149822E-2,1.22682095E-1,1.1171722E-1,1.7256616E-2],"categories":[],"categories_nodes":[],"categories_segments":[],"categories_sizes":[],"default_left":[0,0,0,0,0,0,0],"id":11,"left_children":[1,3,5,-1,-1,-1,-1],"loss_changes":[1.2637449E1,9.158178E0,2.6769457E0,0E0,0E0,0E0,0E0],"parents":[2147483647,0,0,1,1,2,2],"right_children":[2,4,6,-1,-1,-1,-1],"split_conditions":[1E0,1E0,1E0,-3.149822E-2,1.22682095E-1,1.1171722E-1,1.7256616E-2],"split_indices":[73,117,1,0,0,0,0],"split_type":[0,0,0,0,0,0,0],"sum_hessian":[7.342348E1,5.961639E1,1.3807084E1,5.646507E1,3.1513228E0,8.902314E0,4.9047704E0],"tree_param":{"num_deleted":"0","num_feature":"1024","num_nodes":"7","size_leaf_vector":"1"}},{"base_weights":[-7.891256E-3,5.1079804E-1,-2.953391E-1,1.1605191E-1,-5.258019E-2,-5.89706E-2,6.472381E-2],"categories":[],"categories_nodes":[],"categories_segments":[],"categories_sizes":[],"default_left":[0,0,0,0,0,0,0],"id":12,"left_children":[1,3,5,-1,-1,-1,-1],"loss_changes":[1.1177566E1,1.8617964E1,1.3760828E1,0E0,0E0,0E0,0E0],"parents":[2147483647,0,0,1,1,2,2],"right_children":[2,4,6,-1,-1,-1,-1],"split_conditions":[1E0,1E0,1E0,1.1605191E-1,-5.258019E-2,-5.89706E-2,6.472381E-2],"split_indices":[314,428,779,0,0,0,0],"split_type":[0,0,0,0,0,0,0],"sum_hessian":[7.295704E1,2.5737547E1,4.721949E1,1.5747667E1,9.989881E0,3.6267513E1,1.0951977E1],"tree_param":{"num_deleted":"0","num_feature":"1024","num_nodes":"7","size_leaf_vector":"1"}},{"base_weights":[-5.6460463E-3,1.22757815E-1,-1.0730516E-1,2.3610814E-2,-1.2240692E-1],"categories":[],"categories_nodes":[],"categories_segments":[],"categories_sizes":[],"default_left":[0,0,0,0,0],"id":13,"left_children":[1,3,-1,-1,-1],"loss_changes":[1.0130908E1,1.0367667E1,0E0,0E0,0E0],"parents":[2147483647,0,0,1,1],"right_children":[2,4,-1,-1,-1],"split_conditions":[1E0,1E0,-1.0730516E-1,2.3610814E-2,-1.2240692E-1],"split_indices":[553,884,0,0,0],"split_type":[0,0,0,0,0],"sum_hessian":[7.195532E1,6.501885E1,6.936468E0,6.073226E1,4.286595E0],"tree_param":{"num_deleted":"0","num_feature":"1024","num_nodes":"5","size_leaf_vector":"1"}},{"base_weights":[-8.20516E-3,-1.3577133E-1,1.0002589E-1,1.0252823E-1,-2.6555514E-2],"categories":[],"categories_nodes":[],"categories_segments":[],"categories_sizes":[],"default_left":[0,0,0,0,0],"id":14,"left_children":[1,3,-1,-1,-1],"loss_changes":[9.441454E0,1.0080906E1,0E0,0E0,0E0],"parents":[2147483647,0,0,1,1],"right_children":[2,4,-1,-1,-1],"split_conditions":[1E0,1E0,1.0002589E-1,1.0252823E-1,-2.6555514E-2],"split_indices":[610,650,0,0,0],"split_type":[0,0,0,0,0],"sum_hessian":[7.133536E1,6.409322E1,7.242136E0,5.750348E0,5.8342873E1],"tree_param":{"num_deleted":"0","num_feature":"1024","num_nodes":"5","size_leaf_vector":"1"}},{"base_weights":[-4.6373503E-3,-3.5713872E-1,3.9188758E-1,-6.054078E-4,-1.0160148E-1,-3.594134E-2,9.775966E-2],"categories":[],"categories_nodes":[],"categories_segments":[],"categories_sizes":[],"default_left":[0,0,0,0,0,0,0],"id":15,"left_children":[1,3,5,-1,-1,-1,-1],"loss_changes":[1.0196406E1,8.925409E0,1.5460716E1,0E0,0E0,0E0,0E0],"parents":[2147483647,0,0,1,1,2,2],"right_children":[2,4,6,-1,-1,-1,-1],"split_conditions":[1E0,1E0,1E0,-6.054078E-4,-1.0160148E-1,-3.594134E-2,9.775966E-2],"split_indices":[656,896,695,0,0,0,0],"split_type":[0,0,0,0,0,0,0],"sum_hessian":[7.09471E1,3.761107E1,3.3336033E1,2.5195002E1,1.2416066E1,1.4772896E1,1.8563135E1],"tree_param":{"num_deleted":"0","num_feature":"1024","num_nodes":"7","size_leaf_vector":"1"}},{"base_weights":[-4.5209234E-3,-3.27033E-1,3.621574E-1,7.0006095E-2,-4.3526232E-2,5.2539606E-2,-9.73902E-2],"categories":[],"categories_nodes":[],"categories_segments":[],"categories_sizes":[],"default_left":[0,0,0,0,0,0,0],"id":16,"left_children":[1,3,5,-1,-1,-1,-1],"loss_changes":[8.516399E0,4.5630693E0,7.862841E0,0E0,0E0,0E0,0E0],"parents":[2147483647,0,0,1,1,2,2],"right_children":[2,4,6,-1,-1,-1,-1],"split_conditions":[1E0,1E0,1E0,7.0006095E-2,-4.3526232E-2,5.2539606E-2,-9.73902E-2],"split_indices":[656,650,258,0,0,0,0],"split_type":[0,0,0,0,0,0,0],"sum_hessian":[7.001379E1,3.7307808E1,3.270598E1,3.0352302E0,3.427258E1,2.9685755E1,3.0202243E0],"tree_param":{"num_deleted":"0","num_feature":"1024","num_nodes":"7","size_leaf_vector":"1"}},{"base_weights":[-4.25136E-3,1.2401484E-1,-9.665808E-2,2.962629E-2,-6.346325E-2],"categories":[],"categories_nodes":[],"categories_segments":[],"categories_sizes":[],"default_left":[0,0,0,0,0],"id":17,"left_children":[1,3,-1,-1,-1],"loss_changes":[8.784438E0,8.397871E0,0E0,0E0,0E0],"parents":[2147483647,0,0,1,1],"right_children":[2,4,-1,-1,-1],"split_conditions":[1E0,1E0,-9.665808E-2,2.962629E-2,-6.346325E-2],"split_indices":[921,674,0,0,0],"split_type":[0,0,0,0,0],"sum_hessian":[6.919576E1,6.182625E1,7.3695173E0,5.088295E1,1.0943298E1],"tree_param":{"num_deleted":"0","num_feature":"1024","num_nodes":"5","size_leaf_vector":"1"}},{"base_weights":[-5.8873734E-3,2.7537906E-1,-4.3270022E-1,4.6456024E-2,-7.625556E-2,-1.0861975E-1,8.770487E-3],"categories":[],"categories_nodes":[],"categories_segments":[],"categories_sizes":[],"default_left":[0,0,0,0,0,0,0],"id":18,"left_children":[1,3,5,-1,-1,-1,-1],"loss_changes":[8.453218E0,8.691085E0,9.605795E0,0E0,0E0,0E0,0E0],"parents":[2147483647,0,0,1,1,2,2],"right_children":[2,4,6,-1,-1,-1,-1],"split_conditions":[1E0,1E0,1E0,4.6456024E-2,-7.625556E-2,-1.0861975E-1,8.770487E-3],"split_indices":[136,1009,695,0,0,0,0],"split_type":[0,0,0,0,0,0,0],"sum_hessian":[6.842267E1,4.1457375E1,2.6965298E1,3.5533257E1,5.924119E0,1.1472066E1,1.5493231E1],"tree_param":{"num_deleted":"0","num_feature":"1024","num_nodes":"7","size_leaf_vector":"1"}},{"base_weights":[-7.188572E-3,1.0743513E-1,-8.803383E-1,-3.8957022E-4,1.1443799E-1,-4.634595E-2,-1.0346377E-1],"categories":[],"categories_nodes":[],"categories_segments":[],"categories_sizes":[],"default_left":[0,0,0,0,0,0,0],"id":19,"left_children":[1,3,5,-1,-1,-1,-1],"loss_changes":[6.998815E0,7.147058E0,4.240799E-2,0E0,0E0,0E0,0E0],"parents":[2147483647,0,0,1,1,2,2],"right_children":[2,4,6,-1,-1,-1,-1],"split_conditions":[1E0,1E0,1E0,-3.8957022E-4,1.1443799E-1,-4.634595E-2,-1.0346377E-1],"split_indices":[921,79,1019,0,0,0,0],"split_type":[0,0,0,0,0,0,0],"sum_hessian":[6.798465E1,6.0870735E1,7.1139164E0,5.5868675E1,5.0020576E0,3.0033216E0,4.1105947E0],"tree_param":{"num_deleted":"0","num_feature":"1024","num_nodes":"7","size_leaf_vector":"1"}},{"base_weights":[-6.97304E-3,-1.5308343E-1,6.4626765E-1,-3.3605304E-2,4.608714E-2,9.361097E-2,8.636003E-3],"categories":[],"categories_nodes":[],"categories_segments":[],"categories_sizes":[],"default_left":[0,0,0,0,0,0,0],"id":20,"left_children":[1,3,5,-1,-1,-1,-1],"loss_changes":[6.6356277E0,6.532864E0,1.9817758E0,0E0,0E0,0E0,0E0],"parents":[2147483647,0,0,1,1,2,2],"right_children":[2,4,6,-1,-1,-1,-1],"split_conditions":[1E0,1E0,1E0,-3.3605304E-2,4.608714E-2,9.361097E-2,8.636003E-3],"split_indices":[73,926,1,0,0,0,0],"split_type":[0,0,0,0,0,0,0],"sum_hessian":[6.748633E1,5.577646E1,1.1709869E1,4.33192E1,1.245726E1,7.2730155E0,4.436854E0],"tree_param":{"num_deleted":"0","num_feature":"1024","num_nodes":"7","size_leaf_vector":"1"}},{"base_weights":[-4.3520518E-3,9.288429E-2,-1.0828213E-1,2.3969032E-2,-8.2415126E-2],"categories":[],"categories_nodes":[],"categories_segments":[],"categories_sizes":[],"default_left":[0,0,0,0,0],"id":21,"left_children":[1,3,-1,-1,-1],"loss_changes":[7.228263E0,8.715193E0,0E0,0E0,0E0],"parents":[2147483647,0,0,1,1],"right_children":[2,4,-1,-1,-1],"split_conditions":[1E0,1E0,-1.0828213E-1,2.3969032E-2,-8.2415126E-2],"split_indices":[186,81,0,0,0],"split_type":[0,0,0,0,0],"sum_hessian":[6.696921E1,6.2268833E1,4.7003736E0,5.431267E1,7.956161E0],"tree_param":{"num_deleted":"0","num_feature":"1024","num_nodes":"5","size_leaf_vector":"1"}},{"base_weights":[-6.62994E-3,-1.1662321E-1,8.320957E-2,2.7195219E-2,-3.4977686E-2],"categories":[],"categories_nodes":[],"categories_segments":[],"categories_sizes":[],"default_left":[0,0,0,0,0],"id":22,"left_children":[1,3,-1,-1,-1],"loss_changes":[6.312075E0,5.570401E0,0E0,0E0,0E0],"parents":[2147483647,0,0,1,1],"right_children":[2,4,-1,-1,-1],"split_conditions":[1E0,1E0,8.320957E-2,2.7195219E-2,-3.4977686E-2],"split_indices":[249,875,0,0,0],"split_type":[0,0,0,0,0],"sum_hessian":[6.636858E1,5.943503E1,6.9335556E0,2.2226233E1,3.7208797E1],"tree_param":{"num_deleted":"0","num_feature":"1024","num_nodes":"5","size_leaf_vector":"1"}},{"base_weights":[-4.6736454E-3,1.4681028E-1,-6.0848355E-1,2.7113615E-2,-1.03227906E-1,-3.3880122E-2,-1.0004451E-1],"categories":[],"categories_nodes":[],"categories_segments":[],"categories_sizes":[],"default_left":[0,0,0,0,0,0,0],"id":23,"left_children":[1,3,5,-1,-1,-1,-1],"loss_changes":[6.2249665E0,8.25912E0,1.1037245E0,0E0,0E0,0E0,0E0],"parents":[2147483647,0,0,1,1,2,2],"right_children":[2,4,6,-1,-1,-1,-1],"split_conditions":[1E0,1E0,1E0,2.7113615E-2,-1.03227906E-1,-3.3880122E-2,-1.0004451E-1],"split_indices":[609,186,921,0,0,0,0],"split_type":[0,0,0,0,0,0,0],"sum_hessian":[6.607995E1,5.3431828E1,1.2648125E1,4.9031845E1,4.3999834E0,8.597284E0,4.0508394E0],"tree_param":{"num_deleted":"0","num_feature":"1024","num_nodes":"7","size_leaf_vector":"1"}},{"base_weights":[-7.718915E-3,8.204599E-2,-1.1470234E-1,2.1641906E-2,-7.639124E-2],"categories":[],"categories_nodes":[],"categories_segments":[],"categories_sizes":[],"default_left":[0,0,0,0,0],"id":24,"left_children":[1,3,-1,-1,-1],"loss_changes":[6.866615E0,7.24936E0,0E0,0E0,0E0],"parents":[2147483647,0,0,1,1],"right_children":[2,4,-1,-1,-1],"split_conditions":[1E0,1E0,-1.1470234E-1,2.1641906E-2,-7.639124E-2],"split_indices":[884,81,0,0,0],"split_type":[0,0,0,0,0],"sum_hessian":[6.522212E1,6.1318848E1,3.9032776E0,5.3556103E1,7.762744E0],"tree_param":{"num_deleted":"0","num_feature":"1024","num_nodes":"5","size_leaf_vector":"1"}},{"base_weights":[-9.69387E-3,7.332986E-2,-1.07822895E-1,-2.2159232E-2,4.258676E-2],"categories":[],"categories_nodes":[],"categories_segments":[],"categories_sizes":[],"default_left":[0,0,0,0,0],"id":25,"left_children":[1,3,-1,-1,-1],"loss_changes":[5.9143867E0,6.537563E0,0E0,0E0,0E0],"parents":[2147483647,0,0,1,1],"right_children":[2,4,-1,-1,-1],"split_conditions":[1E0,1E0,-1.07822895E-1,-2.2159232E-2,4.258676E-2],"split_indices":[884,656,0,0,0],"split_type":[0,0,0,0,0],"sum_hessian":[6.477694E1,6.0970955E1,3.805987E0,3.3400536E1,2.757042E1],"tree_param":{"num_deleted":"0","num_feature":"1024","num_nodes":"5","size_leaf_vector":"1"}},{"base_weights":[-1.0088778E-2,9.166516E-2,-1.1121742E-1,-2.692287E-2,4.7795873E-2],"categories":[],"categories_nodes":[],"categories_segments":[],"categories_sizes":[],"default_left":[0,0,0,0,0],"id":26,"left_children":[1,-1,3,-1,-1],"loss_changes":[6.2115684E0,0E0,5.683571E0,0E0,0E0],"parents":[2147483647,0,0,2,2],"right_children":[2,-1,4,-1,-1],"split_conditions":[1E0,9.166516E-2,1E0,-2.692287E-2,4.7795873E-2],"split_indices":[650,0,289,0,0],"split_type":[0,0,0,0,0],"sum_hessian":[6.419015E1,5.522045E0,5.8668102E1,4.6689484E1,1.19786215E1],"tree_param":{"num_deleted":"0","num_feature":"1024","num_nodes":"5","size_leaf_vector":"1"}},{"base_weights":[-7.160435E-3,6.975433E-2,-1.1430844E-1,1.6251197E-2,-9.832984E-2],"categories":[],"categories_nodes":[],"categories_segments":[],"categories_sizes":[],"default_left":[0,0,0,0,0],"id":27,"left_children":[1,3,-1,-1,-1],"loss_changes":[5.7336664E0,6.1720753E0,0E0,0E0,0E0],"parents":[2147483647,0,0,1,1],"right_children":[2,4,-1,-1,-1],"split_conditions":[1E0,1E0,-1.1430844E-1,1.6251197E-2,-9.832984E-2],"split_indices":[864,186,0,0,0],"split_type":[0,0,0,0,0],"sum_hessian":[6.3713E1,6.0551575E1,3.1614273E0,5.6426914E1,4.1246624E0],"tree_param":{"num_deleted":"0","num_feature":"1024","num_nodes":"5","size_leaf_vector":"1"}},{"base_weights":[-9.750394E-3,6.863423E-2,-1.1297261E-1,5.180783E-2,-1.666393E-2],"categories":[],"categories_nodes":[],"categories_segments":[],"categories_sizes":[],"default_left":[0,0,0,0,0],"id":28,"left_children":[1,3,-1,-1,-1],"loss_changes":[5.7196045E0,6.5374055E0,0E0,0E0,0E0],"parents":[2147483647,0,0,1,1],"right_children":[2,4,-1,-1,-1],"split_conditions":[1E0,1E0,-1.1297261E-1,5.180783E-2,-1.666393E-2],"split_indices":[672,314,0,0,0],"split_type":[0,0,0,0,0],"sum_hessian":[6.3268585E1,6.000751E1,3.261075E0,2.0205957E1,3.9801556E1],"tree_param":{"num_deleted":"0","num_feature":"1024","num_nodes":"5","size_leaf_vector":"1"}},{"base_weights":[-1.00176595E-2,9.73463E-2,-8.43749E-2,-4.2487136E-3,8.910805E-2],"categories":[],"categories_nodes":[],"categories_segments":[],"categories_sizes":[],"default_left":[0,0,0,0,0],"id":29,"left_children":[1,3,-1,-1,-1],"loss_changes":[5.7991347E0,6.417404E0,0E0,0E0,0E0],"parents":[2147483647,0,0,1,1],"right_children":[2,4,-1,-1,-1],"split_conditions":[1E0,1E0,-8.43749E-2,-4.2487136E-3,8.910805E-2],"split_indices":[921,73,0,0,0],"split_type":[0,0,0,0,0],"sum_hessian":[6.2868023E1,5.647826E1,6.389762E0,4.882343E1,7.654831E0],"tree_param":{"num_deleted":"0","num_feature":"1024","num_nodes":"5","size_leaf_vector":"1"}},{"base_weights":[-8.887283E-3,2.2398132E-1,-3.6618367E-1,4.599866E-2,-4.2111475E-2,-6.9229595E-2,2.0262517E-2],"categories":[],"categories_nodes":[],"categories_segments":[],"categories_sizes":[],"default_left":[0,0,0,0,0,0,0],"id":30,"left_children":[1,3,5,-1,-1,-1,-1],"loss_changes":[5.3512783E0,6.125464E0,4.84601E0,0E0,0E0,0E0,0E0],"parents":[2147483647,0,0,1,1,2,2],"right_children":[2,4,6,-1,-1,-1,-1],"split_conditions":[1E0,1E0,1E0,4.599866E-2,-4.2111475E-2,-6.9229595E-2,2.0262517E-2],"split_indices":[136,843,779,0,0,0,0],"split_type":[0,0,0,0,0,0,0],"sum_hessian":[6.2330082E1,3.7961636E1,2.4368446E1,2.8003601E1,9.9580345E0,1.5350516E1,9.01793E0],"tree_param":{"num_deleted":"0","num_feature":"1024","num_nodes":"7","size_leaf_vector":"1"}},{"base_weights":[-8.811997E-3,6.283902E-2,-1.0658983E-1,9.81942E-2,-3.5499998E-3],"categories":[],"categories_nodes":[],"categories_segments":[],"categories_sizes":[],"default_left":[0,0,0,0,0],"id":31,"left_children":[1,3,-1,-1,-1],"loss_changes":[4.806901E0,5.4174056E0,0E0,0E0,0E0],"parents":[2147483647,0,0,1,1],"right_children":[2,4,-1,-1,-1],"split_conditions":[1E0,1E0,-1.0658983E-1,9.81942E-2,-3.5499998E-3],"split_indices":[864,650,0,0,0],"split_type":[0,0,0,0,0],"sum_hessian":[6.15804E1,5.8552193E1,3.0282078E0,4.790801E0,5.376139E1],"tree_param":{"num_deleted":"0","num_feature":"1024","num_nodes":"5","size_leaf_vector":"1"}},{"base_weights":[-8.053741E-3,9.0520605E-2,-7.8489535E-2,2.4886621E-2,-5.600306E-2],"categories":[],"categories_nodes":[],"categories_segments":[],"categories_sizes":[],"default_left":[0,0,0,0,0],"id":32,"left_children":[1,3,-1,-1,-1],"loss_changes":[4.8399215E0,5.9245186E0,0E0,0E0,0E0],"parents":[2147483647,0,0,1,1],"right_children":[2,4,-1,-1,-1],"split_conditions":[1E0,1E0,-7.8489535E-2,2.4886621E-2,-5.600306E-2],"split_indices":[921,360,0,0,0],"split_type":[0,0,0,0,0],"sum_hessian":[6.12758E1,5.515996E1,6.115837E0,4.4858707E1,1.0301256E1],"tree_param":{"num_deleted":"0","num_feature":"1024","num_nodes":"5","size_leaf_vector":"1"}},{"base_weights":[-9.221491E-3,6.68287E-2,-1.0877253E-1,1.5259896E-2,-9.455793E-2],"categories":[],"categories_nodes":[],"categories_segments":[],"categories_sizes":[],"default_left":[0,0,0,0,0],"id":33,"left_children":[1,3,-1,-1,-1],"loss_changes":[5.126982E0,5.2245836E0,0E0,0E0,0E0],"parents":[2147483647,0,0,1,1],"right_children":[2,4,-1,-1,-1],"split_conditions":[1E0,1E0,-1.0877253E-1,1.5259896E-2,-9.455793E-2],"split_indices":[672,186,0,0,0],"split_type":[0,0,0,0,0],"sum_hessian":[6.062234E1,5.7505413E1,3.1169312E0,5.3797047E1,3.7083647E0],"tree_param":{"num_deleted":"0","num_feature":"1024","num_nodes":"5","size_leaf_vector":"1"}},{"base_weights":[-1.1652639E-2,7.089411E-2,-9.0609826E-2,1.534275E-2,-9.8247446E-2],"categories":[],"categories_nodes":[],"categories_segments":[],"categories_sizes":[],"default_left":[0,0,0,0,0],"id":34,"left_children":[1,3,-1,-1,-1],"loss_changes":[4.581315E0,5.100779E0,0E0,0E0,0E0],"parents":[2147483647,0,0,1,1],"right_children":[2,4,-1,-1,-1],"split_conditions":[1E0,1E0,-9.0609826E-2,1.534275E-2,-9.8247446E-2],"split_indices":[699,884,0,0,0],"split_type":[0,0,0,0,0],"sum_hessian":[6.017918E1,5.5937546E1,4.241634E0,5.2665455E1,3.272091E0],"tree_param":{"num_deleted":"0","num_feature":"1024","num_nodes":"5","size_leaf_vector":"1"}},{"base_weights":[-1.3501222E-2,1.9927387E-1,-3.4059078E-1,3.923731E-2,-7.786585E-2,-6.405946E-2,1.6778503E-2],"categories":[],"categories_nodes":[],"categories_segments":[],"categories_sizes":[],"default_left":[0,0,0,0,0,0,0],"id":35,"left_children":[1,3,5,-1,-1,-1,-1],"loss_changes":[4.304615E0,7.389574E0,3.8230288E0,0E0,0E0,0E0,0E0],"parents":[2147483647,0,0,1,1,2,2],"right_children":[2,4,6,-1,-1,-1,-1],"split_conditions":[1E0,1E0,1E0,3.923731E-2,-7.786585E-2,-6.405946E-2,1.6778503E-2],"split_indices":[136,1009,779,0,0,0,0],"split_type":[0,0,0,0,0,0,0],"sum_hessian":[5.987581E1,3.6513905E1,2.33619E1,3.0992922E1,5.520985E0,1.4528332E1,8.83357E0],"tree_param":{"num_deleted":"0","num_feature":"1024","num_nodes":"7","size_leaf_vector":"1"}},{"base_weights":[-1.3692967E-2,-8.286003E-2,9.511567E-2,5.1999005E-4,-9.067764E-2],"categories":[],"categories_nodes":[],"categories_segments":[],"categories_sizes":[],"default_left":[0,0,0,0,0],"id":36,"left_children":[1,3,-1,-1,-1],"loss_changes":[4.1059895E0,4.1568613E0,0E0,0E0,0E0],"parents":[2147483647,0,0,1,1],"right_children":[2,4,-1,-1,-1],"split_conditions":[1E0,1E0,9.511567E-2,5.1999005E-4,-9.067764E-2],"split_indices":[492,553,0,0,0],"split_type":[0,0,0,0,0],"sum_hessian":[5.9345055E1,5.622834E1,3.1167135E0,5.16967E1,4.531639E0],"tree_param":{"num_deleted":"0","num_feature":"1024","num_nodes":"5","size_leaf_vector":"1"}},{"base_weights":[-1.2383959E-2,5.8279447E-2,-9.473644E-2,4.5150008E-2,-1.3590726E-2],"categories":[],"categories_nodes":[],"categories_segments":[],"categories_sizes":[],"default_left":[0,0,0,0,0],"id":37,"left_children":[1,3,-1,-1,-1],"loss_changes":[4.018298E0,4.391735E0,0E0,0E0,0E0],"parents":[2147483647,0,0,1,1],"right_children":[2,4,-1,-1,-1],"split_conditions":[1E0,1E0,-9.473644E-2,4.5150008E-2,-1.3590726E-2],"split_indices":[884,875,0,0,0],"split_type":[0,0,0,0,0],"sum_hessian":[5.8984142E1,5.5711292E1,3.272848E0,1.7979141E1,3.7732155E1],"tree_param":{"num_deleted":"0","num_feature":"1024","num_nodes":"5","size_leaf_vector":"1"}},{"base_weights":[-1.2235507E-2,-1.0262624E-1,7.2036825E-2,2.8164838E-3,-6.379521E-2],"categories":[],"categories_nodes":[],"categories_segments":[],"categories_sizes":[],"default_left":[0,0,0,0,0],"id":38,"left_children":[1,3,-1,-1,-1],"loss_changes":[4.03356E0,3.8060021E0,0E0,0E0,0E0],"parents":[2147483647,0,0,1,1],"right_children":[2,4,-1,-1,-1],"split_conditions":[1E0,1E0,7.2036825E-2,2.8164838E-3,-6.379521E-2],"split_indices":[249,157,0,0,0],"split_type":[0,0,0,0,0],"sum_hessian":[5.8794556E1,5.3102528E1,5.692025E0,4.3437294E1,9.665235E0],"tree_param":{"num_deleted":"0","num_feature":"1024","num_nodes":"5","size_leaf_vector":"1"}},{"base_weights":[-1.0727282E-2,1.3057157E-1,-4.5744768E-1,-5.034961E-3,8.1493266E-2,-7.725061E-2,6.280921E-3],"categories":[],"categories_nodes":[],"categories_segments":[],"categories_sizes":[],"default_left":[0,0,0,0,0,0,0],"id":39,"left_children":[1,3,5,-1,-1,-1,-1],"loss_changes":[3.8198614E0,5.7407007E0,2.431223E0,0E0,0E0,0E0,0E0],"parents":[2147483647,0,0,1,1,2,2],"right_children":[2,4,6,-1,-1,-1,-1],"split_conditions":[1E0,1E0,1E0,-5.034961E-3,8.1493266E-2,-7.725061E-2,6.280921E-3],"split_indices":[792,1019,950,0,0,0,0],"split_type":[0,0,0,0,0,0,0],"sum_hessian":[5.8570137E1,4.50336E1,1.3536538E1,3.6350285E1,8.683318E0,8.128941E0,5.4075975E0],"tree_param":{"num_deleted":"0","num_feature":"1024","num_nodes":"7","size_leaf_vector":"1"}},{"base_weights":[-9.534111E-3,7.942484E-2,-7.723926E-2,1.8437918E-2,-6.926344E-2],"categories":[],"categories_nodes":[],"categories_segments":[],"categories_sizes":[],"default_left":[0,0,0,0,0],"id":40,"left_children":[1,3,-1,-1,-1],"loss_changes":[4.0770597E0,4.4953356E0,0E0,0E0,0E0],"parents":[2147483647,0,0,1,1],"right_children":[2,4,-1,-1,-1],"split_conditions":[1E0,1E0,-7.723926E-2,1.8437918E-2,-6.926344E-2],"split_indices":[441,921,0,0,0],"split_type":[0,0,0,0,0],"sum_hessian":[5.8173737E1,5.2900726E1,5.273009E0,4.724006E1,5.6606655E0],"tree_param":{"num_deleted":"0","num_feature":"1024","num_nodes":"5","size_leaf_vector":"1"}},{"base_weights":[-1.0823321E-2,7.52676E-2,-8.8138E-2,-1.705118E-2,8.776961E-2],"categories":[],"categories_nodes":[],"categories_segments":[],"categories_sizes":[],"default_left":[0,0,0,0,0],"id":41,"left_children":[1,-1,3,-1,-1],"loss_changes":[3.544241E0,0E0,4.4773216E0,0E0,0E0],"parents":[2147483647,0,0,2,2],"right_children":[2,-1,4,-1,-1],"split_conditions":[1E0,7.52676E-2,1E0,-1.705118E-2,8.776961E-2],"split_indices":[650,0,429,0,0],"split_type":[0,0,0,0,0],"sum_hessian":[5.7917828E1,4.5224476E0,5.339538E1,4.995803E1,3.4373505E0],"tree_param":{"num_deleted":"0","num_feature":"1024","num_nodes":"5","size_leaf_vector":"1"}},{"base_weights":[-7.123276E-3,-7.3257625E-2,8.783716E-2,-1.5572071E-2,6.393769E-2],"categories":[],"categories_nodes":[],"categories_segments":[],"categories_sizes":[],"default_left":[0,0,0,0,0],"id":42,"left_children":[1,3,-1,-1,-1],"loss_changes":[3.5057025E0,3.3671787E0,0E0,0E0,0E0],"parents":[2147483647,0,0,1,1],"right_children":[2,4,-1,-1,-1],"split_conditions":[1E0,1E0,8.783716E-2,-1.5572071E-2,6.393769E-2],"split_indices":[859,249,0,0,0],"split_type":[0,0,0,0,0],"sum_hessian":[5.776467E1,5.4603786E1,3.1608865E0,4.9641018E1,4.962766E0],"tree_param":{"num_deleted":"0","num_feature":"1024","num_nodes":"5","size_leaf_vector":"1"}},{"base_weights":[-3.8957917E-3,6.770775E-2,-9.174831E-2,5.692268E-2,-1.4509626E-2],"categories":[],"categories_nodes":[],"categories_segments":[],"categories_sizes":[],"default_left":[0,0,0,0,0],"id":43,"left_children":[1,3,-1,-1,-1],"loss_changes":[3.8870842E0,5.968799E0,0E0,0E0,0E0],"parents":[2147483647,0,0,1,1],"right_children":[2,4,-1,-1,-1],"split_conditions":[1E0,1E0,-9.174831E-2,5.692268E-2,-1.4509626E-2],"split_indices":[186,314,0,0,0],"split_type":[0,0,0,0,0],"sum_hessian":[5.74713E1,5.4152885E1,3.3184116E0,1.5633722E1,3.851916E1],"tree_param":{"num_deleted":"0","num_feature":"1024","num_nodes":"5","size_leaf_vector":"1"}},{"base_weights":[-4.3169837E-3,9.53645E-2,-6.218989E-1,1.9299312E-2,-7.6158606E-2,-7.691063E-2,-2.9042354E-2],"categories":[],"categories_nodes":[],"categories_segments":[],"categories_sizes":[],"default_left":[0,0,0,0,0,0,0],"id":44,"left_children":[1,3,5,-1,-1,-1,-1],"loss_changes":[3.6249914E0,4.3918877E0,1.7590213E-1,0E0,0E0,0E0,0E0],"parents":[2147483647,0,0,1,1,2,2],"right_children":[2,4,6,-1,-1,-1,-1],"split_conditions":[1E0,1E0,1E0,1.9299312E-2,-7.6158606E-2,-7.691063E-2,-2.9042354E-2],"split_indices":[81,328,697,0,0,0,0],"split_type":[0,0,0,0,0,0,0],"sum_hessian":[5.69207E1,4.9738228E1,7.1824694E0,4.534685E1,4.3913774E0,4.0594335E0,3.1230357E0],"tree_param":{"num_deleted":"0","num_feature":"1024","num_nodes":"7","size_leaf_vector":"1"}},{"base_weights":[-6.8160896E-3,6.122441E-2,-8.890477E-2,-1.7744202E-2,4.8228458E-2],"categories":[],"categories_nodes":[],"categories_segments":[],"categories_sizes":[],"default_left":[0,0,0,0,0],"id":45,"left_children":[1,3,-1,-1,-1],"loss_changes":[3.5102262E0,5.550755E0,0E0,0E0,0E0],"parents":[2147483647,0,0,1,1],"right_children":[2,4,-1,-1,-1],"split_conditions":[1E0,1E0,-8.890477E-2,-1.7744202E-2,4.8228458E-2],"split_indices":[186,695,0,0,0],"split_type":[0,0,0,0,0],"sum_hessian":[5.6570217E1,5.3383698E1,3.1865175E0,3.4440582E1,1.8943117E1],"tree_param":{"num_deleted":"0","num_feature":"1024","num_nodes":"5","size_leaf_vector":"1"}},{"base_weights":[-7.181968E-3,6.501025E-2,-8.225931E-2,2.0516904E-2,-4.4777013E-2],"categories":[],"categories_nodes":[],"categories_segments":[],"categories_sizes":[],"default_left":[0,0,0,0,0],"id":46,"left_children":[1,3,-1,-1,-1],"loss_changes":[3.415696E0,3.929578E0,0E0,0E0,0E0],"parents":[2147483647,0,0,1,1],"right_children":[2,4,-1,-1,-1],"split_conditions":[1E0,1E0,-8.225931E-2,2.0516904E-2,-4.4777013E-2],"split_indices":[699,157,0,0,0],"split_type":[0,0,0,0,0],"sum_hessian":[5.6116158E1,5.2397438E1,3.7187207E0,4.1621014E1,1.0776424E1],"tree_param":{"num_deleted":"0","num_feature":"1024","num_nodes":"5","size_leaf_vector":"1"}},{"base_weights":[-8.357582E-3,8.697001E-2,-6.000919E-2,1.8522788E-2,-6.738355E-2],"categories":[],"categories_nodes":[],"categories_segments":[],"categories_sizes":[],"default_left":[0,0,0,0,0],"id":47,"left_children":[1,3,-1,-1,-1],"loss_changes":[3.2652023E0,3.8573418E0,0E0,0E0,0E0],"parents":[2147483647,0,0,1,1],"right_children":[2,4,-1,-1,-1],"split_conditions":[1E0,1E0,-6.000919E-2,1.8522788E-2,-6.738355E-2],"split_indices":[81,441,0,0,0],"split_type":[0,0,0,0,0],"sum_hessian":[5.5959614E1,4.8930073E1,7.029543E0,4.400356E1,4.926513E0],"tree_param":{"num_deleted":"0","num_feature":"1024","num_nodes":"5","size_leaf_vector":"1"}},{"base_weights":[-9.517725E-3,5.56172E-2,-8.6607546E-2,-1.61529E-2,4.438937E-2],"categories":[],"categories_nodes":[],"categories_segments":[],"categories_sizes":[],"default_left":[0,0,0,0,0],"id":48,"left_children":[1,3,-1,-1,-1],"loss_changes":[3.2099545E0,4.5913644E0,0E0,0E0,0E0],"parents":[2147483647,0,0,1,1],"right_children":[2,4,-1,-1,-1],"split_conditions":[1E0,1E0,-8.6607546E-2,-1.61529E-2,4.438937E-2],"split_indices":[186,695,0,0,0],"split_type":[0,0,0,0,0],"sum_hessian":[5.567113E1,5.2605907E1,3.0652242E0,3.4112343E1,1.8493567E1],"tree_param":{"num_deleted":"0","num_feature":"1024","num_nodes":"5","size_leaf_vector":"1"}},{"base_weights":[-9.656776E-3,5.6988828E-2,-7.675778E-2,1.888337E-2,-4.173076E-2],"categories":[],"categories_nodes":[],"categories_segments":[],"categories_sizes":[],"default_left":[0,0,0,0,0],"id":49,"left_children":[1,3,-1,-1,-1],"loss_changes":[2.8849514E0,3.3701117E0,0E0,0E0,0E0],"parents":[2147483647,0,0,1,1],"right_children":[2,4,-1,-1,-1],"split_conditions":[1E0,1E0,-7.675778E-2,1.888337E-2,-4.173076E-2],"split_indices":[699,157,0,0,0],"split_type":[0,0,0,0,0],"sum_hessian":[5.5248062E1,5.1632698E1,3.6153636E0,4.0872757E1,1.0759939E1],"tree_param":{"num_deleted":"0","num_feature":"1024","num_nodes":"5","size_leaf_vector":"1"}},{"base_weights":[-1.049432E-2,7.9909556E-2,-5.724936E-1,1.705794E-2,-6.1185457E-2,-8.9699924E-2,-1.6083814E-2],"categories":[],"categories_nodes":[],"categories_segments":[],"categories_sizes":[],"default_left":[0,0,0,0,0,0,0],"id":50,"left_children":[1,3,5,-1,-1,-1,-1],"loss_changes":[2.8961203E0,3.190643E0,9.105892E-1,0E0,0E0,0E0,0E0],"parents":[2147483647,0,0,1,1,2,2],"right_children":[2,4,6,-1,-1,-1,-1],"split_conditions":[1E0,1E0,1E0,1.705794E-2,-6.1185457E-2,-8.9699924E-2,-1.6083814E-2],"split_indices":[81,441,807,0,0,0,0],"split_type":[0,0,0,0,0,0,0],"sum_hessian":[5.5102066E1,4.8205486E1,6.89658E0,4.3285454E1,4.9200306E0,3.1972227E0,3.6993575E0],"tree_param":{"num_deleted":"0","num_feature":"1024","num_nodes":"7","size_leaf_vector":"1"}},{"base_weights":[-1.2181797E-2,6.583819E-2,-6.571154E-2,-2.1819435E-3,9.658396E-2],"categories":[],"categories_nodes":[],"categories_segments":[],"categories_sizes":[],"default_left":[0,0,0,0,0],"id":51,"left_children":[1,3,-1,-1,-1],"loss_changes":[2.8548183E0,4.0252314E0,0E0,0E0,0E0],"parents":[2147483647,0,0,1,1],"right_children":[2,4,-1,-1,-1],"split_conditions":[1E0,1E0,-6.571154E-2,-2.1819435E-3,9.658396E-2],"split_indices":[585,525,0,0,0],"split_type":[0,0,0,0,0],"sum_hessian":[5.487605E1,4.975493E1,5.121122E0,4.6228188E1,3.5267403E0],"tree_param":{"num_deleted":"0","num_feature":"1024","num_nodes":"5","size_leaf_vector":"1"}},{"base_weights":[-1.0278325E-2,7.1323626E-2,-6.527008E-2,-3.2509079E-3,7.4994445E-2],"categories":[],"categories_nodes":[],"categories_segments":[],"categories_sizes":[],"default_left":[0,0,0,0,0],"id":52,"left_children":[1,3,-1,-1,-1],"loss_changes":[2.9714448E0,3.5762303E0,0E0,0E0,0E0],"parents":[2147483647,0,0,1,1],"right_children":[2,4,-1,-1,-1],"split_conditions":[1E0,1E0,-6.527008E-2,-3.2509079E-3,7.4994445E-2],"split_indices":[921,73,0,0,0],"split_type":[0,0,0,0,0],"sum_hessian":[5.4794136E1,4.9407288E1,5.3868484E0,4.367662E1,5.730667E0],"tree_param":{"num_deleted":"0","num_feature":"1024","num_nodes":"5","size_leaf_vector":"1"}},{"base_weights":[-9.05367E-3,6.311177E-2,-6.995909E-2,-1.7734815E-3,8.79256E-2],"categories":[],"categories_nodes":[],"categories_segments":[],"categories_sizes":[],"default_left":[0,0,0,0,0],"id":53,"left_children":[1,3,-1,-1,-1],"loss_changes":[2.8062553E0,3.3873048E0,0E0,0E0,0E0],"parents":[2147483647,0,0,1,1],"right_children":[2,4,-1,-1,-1],"split_conditions":[1E0,1E0,-6.995909E-2,-1.7734815E-3,8.79256E-2],"split_indices":[328,756,0,0,0],"split_type":[0,0,0,0,0],"sum_hessian":[5.4427277E1,5.010011E1,4.327169E0,4.6474636E1,3.6254702E0],"tree_param":{"num_deleted":"0","num_feature":"1024","num_nodes":"5","size_leaf_vector":"1"}},{"base_weights":[-7.7695264E-3,8.123594E-2,-5.722561E-1,1.8133191E-2,-7.350212E-2,-3.1649932E-2,-7.038738E-2],"categories":[],"categories_nodes":[],"categories_segments":[],"categories_sizes":[],"default_left":[0,0,0,0,0,0,0],"id":54,"left_children":[1,3,5,-1,-1,-1,-1],"loss_changes":[2.8230276E0,4.1050634E0,3.4776926E-2,0E0,0E0,0E0,0E0],"parents":[2147483647,0,0,1,1,2,2],"right_children":[2,4,6,-1,-1,-1,-1],"split_conditions":[1E0,1E0,1E0,1.8133191E-2,-7.350212E-2,-3.1649932E-2,-7.038738E-2],"split_indices":[732,1009,361,0,0,0,0],"split_type":[0,0,0,0,0,0,0],"sum_hessian":[5.42629E1,4.7611794E1,6.6511054E0,4.31039E1,4.5078945E0,3.4166427E0,3.2344627E0],"tree_param":{"num_deleted":"0","num_feature":"1024","num_nodes":"7","size_leaf_vector":"1"}},{"base_weights":[-9.963576E-3,6.698724E-2,-6.127706E-2,1.4272369E-2,-6.705246E-2],"categories":[],"categories_nodes":[],"categories_segments":[],"categories_sizes":[],"default_left":[0,0,0,0,0],"id":55,"left_children":[1,3,-1,-1,-1],"loss_changes":[2.5910993E0,2.8691E0,0E0,0E0,0E0],"parents":[2147483647,0,0,1,1],"right_children":[2,4,-1,-1,-1],"split_conditions":[1E0,1E0,-6.127706E-2,1.4272369E-2,-6.705246E-2],"split_indices":[921,328,0,0,0],"split_type":[0,0,0,0,0],"sum_hessian":[5.3974003E1,4.865222E1,5.3217835E0,4.4852695E1,3.7995262E0],"tree_param":{"num_deleted":"0","num_feature":"1024","num_nodes":"5","size_leaf_vector":"1"}},{"base_weights":[-1.1140937E-2,1.684608E-1,-2.8342208E-1,3.2950003E-2,-6.0474988E-2,-5.3012956E-2,7.955068E-2],"categories":[],"categories_nodes":[],"categories_segments":[],"categories_sizes":[],"default_left":[0,0,0,0,0,0,0],"id":56,"left_children":[1,3,5,-1,-1,-1,-1],"loss_changes":[2.724499E0,4.384143E0,6.3117723E0,0E0,0E0,0E0,0E0],"parents":[2147483647,0,0,1,1,2,2],"right_children":[2,4,6,-1,-1,-1,-1],"split_conditions":[1E0,1E0,1E0,3.2950003E-2,-6.0474988E-2,-5.3012956E-2,7.955068E-2],"split_indices":[136,1009,756,0,0,0,0],"split_type":[0,0,0,0,0,0,0],"sum_hessian":[5.3736908E1,3.2608818E1,2.1128088E1,2.7462885E1,5.145934E0,1.7610037E1,3.5180519E0],"tree_param":{"num_deleted":"0","num_feature":"1024","num_nodes":"7","size_leaf_vector":"1"}},{"base_weights":[-1.0017927E-2,1.1527841E-1,-4.0072057E-1,2.2788784E-2,-8.979262E-2,-6.755202E-2,2.6845376E-3],"categories":[],"categories_nodes":[],"categories_segments":[],"categories_sizes":[],"default_left":[0,0,0,0,0,0,0],"id":57,"left_children":[1,3,5,-1,-1,-1,-1],"loss_changes":[2.7030413E0,4.981919E0,1.5928104E0,0E0,0E0,0E0,0E0],"parents":[2147483647,0,0,1,1,2,2],"right_children":[2,4,6,-1,-1,-1,-1],"split_conditions":[1E0,1E0,1E0,2.2788784E-2,-8.979262E-2,-6.755202E-2,2.6845376E-3],"split_indices":[792,244,950,0,0,0,0],"split_type":[0,0,0,0,0,0,0],"sum_hessian":[5.3272743E1,4.0870674E1,1.240207E1,3.7480145E1,3.39053E0,7.196749E0,5.205321E0],"tree_param":{"num_deleted":"0","num_feature":"1024","num_nodes":"7","size_leaf_vector":"1"}},{"base_weights":[-1.1509559E-2,6.315912E-2,-6.0886394E-2,-1.3742847E-3,8.96722E-2],"categories":[],"categories_nodes":[],"categories_segments":[],"categories_sizes":[],"default_left":[0,0,0,0,0],"id":58,"left_children":[1,3,-1,-1,-1],"loss_changes":[2.4480288E0,3.1485767E0,0E0,0E0,0E0],"parents":[2147483647,0,0,1,1],"right_children":[2,4,-1,-1,-1],"split_conditions":[1E0,1E0,-6.0886394E-2,-1.3742847E-3,8.96722E-2],"split_indices":[585,525,0,0,0],"split_type":[0,0,0,0,0],"sum_hessian":[5.3021873E1,4.7925503E1,5.09637E0,4.477794E1,3.1475635E0],"tree_param":{"num_deleted":"0","num_feature":"1024","num_nodes":"5","size_leaf_vector":"1"}},{"base_weights":[-9.7068995E-3,6.1224394E-2,-6.774653E-2,1.4589453E-2,-6.362318E-2],"categories":[],"categories_nodes":[],"categories_segments":[],"categories_sizes":[],"default_left":[0,0,0,0,0],"id":59,"left_children":[1,3,-1,-1,-1],"loss_changes":[2.596164E0,3.0262682E0,0E0,0E0,0E0],"parents":[2147483647,0,0,1,1],"right_children":[2,4,-1,-1,-1],"split_conditions":[1E0,1E0,-6.774653E-2,1.4589453E-2,-6.362318E-2],"split_indices":[285,194,0,0,0],"split_type":[0,0,0,0,0],"sum_hessian":[5.293621E1,4.8674206E1,4.2620063E0,4.4110123E1,4.564083E0],"tree_param":{"num_deleted":"0","num_feature":"1024","num_nodes":"5","size_leaf_vector":"1"}},{"base_weights":[-1.0924176E-2,6.535213E-2,-7.687687E-2,-1.433781E-2,6.6004165E-2],"categories":[],"categories_nodes":[],"categories_segments":[],"categories_sizes":[],"default_left":[0,0,0,0,0],"id":60,"left_children":[1,-1,3,-1,-1],"loss_changes":[2.408445E0,0E0,2.537528E0,0E0,0E0],"parents":[2147483647,0,0,2,2],"right_children":[2,-1,4,-1,-1],"split_conditions":[1E0,6.535213E-2,1E0,-1.433781E-2,6.6004165E-2],"split_indices":[650,0,43,0,0],"split_type":[0,0,0,0,0],"sum_hessian":[5.281329E1,3.9644272E0,4.884886E1,4.5544277E1,3.304585E0],"tree_param":{"num_deleted":"0","num_feature":"1024","num_nodes":"5","size_leaf_vector":"1"}},{"base_weights":[-7.528343E-3,7.4428365E-2,-5.303942E-2,1.6220437E-2,-6.381326E-2],"categories":[],"categories_nodes":[],"categories_segments":[],"categories_sizes":[],"default_left":[0,0,0,0,0],"id":61,"left_children":[1,3,-1,-1,-1],"loss_changes":[2.336094E0,3.056194E0,0E0,0E0,0E0],"parents":[2147483647,0,0,1,1],"right_children":[2,4,-1,-1,-1],"split_conditions":[1E0,1E0,-5.303942E-2,1.6220437E-2,-6.381326E-2],"split_indices":[732,1009,0,0,0],"split_type":[0,0,0,0,0],"sum_hessian":[5.2593716E1,4.620842E1,6.385294E0,4.1828224E1,4.3801975E0],"tree_param":{"num_deleted":"0","num_feature":"1024","num_nodes":"5","size_leaf_vector":"1"}},{"base_weights":[-8.723517E-3,-7.80937E-2,6.2438607E-2,1.2751122E-2,-3.8638923E-2],"categories":[],"categories_nodes":[],"categories_segments":[],"categories_sizes":[],"default_left":[0,0,0,0,0],"id":62,"left_children":[1,3,-1,-1,-1],"loss_changes":[2.3923297E0,3.1540084E0,0E0,0E0,0E0],"parents":[2147483647,0,0,1,1],"right_children":[2,4,-1,-1,-1],"split_conditions":[1E0,1E0,6.2438607E-2,1.2751122E-2,-3.8638923E-2],"split_indices":[610,136,0,0,0],"split_type":[0,0,0,0,0],"sum_hessian":[5.236125E1,4.7980637E1,4.380615E0,2.9135994E1,1.8844643E1],"tree_param":{"num_deleted":"0","num_feature":"1024","num_nodes":"5","size_leaf_vector":"1"}},{"base_weights":[-7.11876E-3,5.463516E-2,-7.325386E-2,1.306644E-2,-6.110881E-2],"categories":[],"categories_nodes":[],"categories_segments":[],"categories_sizes":[],"default_left":[0,0,0,0,0],"id":63,"left_children":[1,3,-1,-1,-1],"loss_changes":[2.418581E0,2.603533E0,0E0,0E0,0E0],"parents":[2147483647,0,0,1,1],"right_children":[2,4,-1,-1,-1],"split_conditions":[1E0,1E0,-7.325386E-2,1.306644E-2,-6.110881E-2],"split_indices":[699,285,0,0,0],"split_type":[0,0,0,0,0],"sum_hessian":[5.209577E1,4.8860992E1,3.2347796E0,4.4574112E1,4.286882E0],"tree_param":{"num_deleted":"0","num_feature":"1024","num_nodes":"5","size_leaf_vector":"1"}},{"base_weights":[-8.696979E-3,7.266578E-2,-5.06789E-1,1.9999804E-2,-4.1489467E-2,-6.558358E-2,-2.1056725E-2],"categories":[],"categories_nodes":[],"categories_segments":[],"categories_sizes":[],"default_left":[0,0,0,0,0,0,0],"id":64,"left_children":[1,3,5,-1,-1,-1,-1],"loss_changes":[2.1857116E0,2.9669392E0,1.9615722E-1,0E0,0E0,0E0,0E0],"parents":[2147483647,0,0,1,1,2,2],"right_children":[2,4,6,-1,-1,-1,-1],"split_conditions":[1E0,1E0,1E0,1.9999804E-2,-4.1489467E-2,-6.558358E-2,-2.1056725E-2],"split_indices":[81,609,697,0,0,0,0],"split_type":[0,0,0,0,0,0,0],"sum_hessian":[5.202467E1,4.5453934E1,6.5707355E0,3.6508976E1,8.944959E0,3.5636492E0,3.0070863E0],"tree_param":{"num_deleted":"0","num_feature":"1024","num_nodes":"7","size_leaf_vector":"1"}},{"base_weights":[-1.0038786E-2,-7.415958E-2,5.893152E-2,7.445962E-3,-4.3077264E-2],"categories":[],"categories_nodes":[],"categories_segments":[],"categories_sizes":[],"default_left":[0,0,0,0,0],"id":65,"left_children":[1,3,-1,-1,-1],"loss_changes":[2.0629413E0,2.5947204E0,0E0,0E0,0E0],"parents":[2147483647,0,0,1,1],"right_children":[2,4,-1,-1,-1],"split_conditions":[1E0,1E0,5.893152E-2,7.445962E-3,-4.3077264E-2],"split_indices":[610,745,0,0,0],"split_type":[0,0,0,0,0],"sum_hessian":[5.1541832E1,4.735221E1,4.1896224E0,3.398154E1,1.3370671E1],"tree_param":{"num_deleted":"0","num_feature":"1024","num_nodes":"5","size_leaf_vector":"1"}},{"base_weights":[-8.51003E-3,1.0545934E-1,-3.645823E-1,-7.3586027E-3,6.6970706E-2,-6.1905343E-2,1.9536342E-3],"categories":[],"categories_nodes":[],"categories_segments":[],"categories_sizes":[],"default_left":[0,0,0,0,0,0,0],"id":66,"left_children":[1,3,5,-1,-1,-1,-1],"loss_changes":[2.165657E0,4.1392484E0,1.2763618E0,0E0,0E0,0E0,0E0],"parents":[2147483647,0,0,1,1,2,2],"right_children":[2,4,6,-1,-1,-1,-1],"split_conditions":[1E0,1E0,1E0,-7.3586027E-3,6.6970706E-2,-6.1905343E-2,1.9536342E-3],"split_indices":[792,289,950,0,0,0,0],"split_type":[0,0,0,0,0,0,0],"sum_hessian":[5.1418396E1,3.948433E1,1.1934069E1,3.0633413E1,8.850915E0,6.810575E0,5.1234937E0],"tree_param":{"num_deleted":"0","num_feature":"1024","num_nodes":"7","size_leaf_vector":"1"}},{"base_weights":[-7.5989543E-3,-7.303743E-2,5.8188748E-2,-3.4710285E-4,-7.0778295E-2],"categories":[],"categories_nodes":[],"categories_segments":[],"categories_sizes":[],"default_left":[0,0,0,0,0],"id":67,"left_children":[1,3,-1,-1,-1],"loss_changes":[2.0497382E0,2.1048849E0,0E0,0E0,0E0],"parents":[2147483647,0,0,1,1],"right_children":[2,4,-1,-1,-1],"split_conditions":[1E0,1E0,5.8188748E-2,-3.4710285E-4,-7.0778295E-2],"split_indices":[249,328,0,0,0],"split_type":[0,0,0,0,0],"sum_hessian":[5.1034576E1,4.672389E1,4.310686E0,4.3015026E1,3.708863E0],"tree_param":{"num_deleted":"0","num_feature":"1024","num_nodes":"5","size_leaf_vector":"1"}},{"base_weights":[-7.067608E-3,-6.656383E-2,6.451036E-2,4.2262874E-3,-5.7888348E-2],"categories":[],"categories_nodes":[],"categories_segments":[],"categories_sizes":[],"default_left":[0,0,0,0,0],"id":68,"left_children":[1,3,-1,-1,-1],"loss_changes":[2.0541956E0,2.723365E0,0E0,0E0,0E0],"parents":[2147483647,0,0,1,1],"right_children":[2,4,-1,-1,-1],"split_conditions":[1E0,1E0,6.451036E-2,4.2262874E-3,-5.7888348E-2],"split_indices":[429,609,0,0,0],"split_type":[0,0,0,0,0],"sum_hessian":[5.083417E1,4.740724E1,3.426929E0,3.985811E1,7.5491343E0],"tree_param":{"num_deleted":"0","num_feature":"1024","num_nodes":"5","size_leaf_vector":"1"}},{"base_weights":[-6.2430804E-3,5.8397938E-2,-5.9316166E-2,1.3553803E-2,-5.8057733E-2],"categories":[],"categories_nodes":[],"categories_segments":[],"categories_sizes":[],"default_left":[0,0,0,0,0],"id":69,"left_children":[1,3,-1,-1,-1],"loss_changes":[1.9922159E0,2.4145393E0,0E0,0E0,0E0],"parents":[2147483647,0,0,1,1],"right_children":[2,4,-1,-1,-1],"split_conditions":[1E0,1E0,-5.9316166E-2,1.3553803E-2,-5.8057733E-2],"split_indices":[285,194,0,0,0],"split_type":[0,0,0,0,0],"sum_hessian":[5.0597977E1,4.6389328E1,4.208647E0,4.2095272E1,4.2940564E0],"tree_param":{"num_deleted":"0","num_feature":"1024","num_nodes":"5","size_leaf_vector":"1"}},{"base_weights":[-7.655266E-3,-7.3034756E-2,5.5600315E-2,-1.3988525E-2,6.02283E-2],"categories":[],"categories_nodes":[],"categories_segments":[],"categories_sizes":[],"default_left":[0,0,0,0,0],"id":70,"left_children":[1,3,-1,-1,-1],"loss_changes":[1.9375826E0,2.2065153E0,0E0,0E0,0E0],"parents":[2147483647,0,0,1,1],"right_children":[2,4,-1,-1,-1],"split_conditions":[1E0,1E0,5.5600315E-2,-1.3988525E-2,6.02283E-2],"split_indices":[119,11,0,0,0],"split_type":[0,0,0,0,0],"sum_hessian":[5.0475914E1,4.6009624E1,4.4662895E0,4.258677E1,3.4228542E0],"tree_param":{"num_deleted":"0","num_feature":"1024","num_nodes":"5","size_leaf_vector":"1"}},{"base_weights":[-4.8364718E-3,7.0170194E-2,-4.8893537E-2,1.5338102E-2,-6.051562E-2],"categories":[],"categories_nodes":[],"categories_segments":[],"categories_sizes":[],"default_left":[0,0,0,0,0],"id":71,"left_children":[1,3,-1,-1,-1],"loss_changes":[1.9001535E0,2.642165E0,0E0,0E0,0E0],"parents":[2147483647,0,0,1,1],"right_children":[2,4,-1,-1,-1],"split_conditions":[1E0,1E0,-4.8893537E-2,1.5338102E-2,-6.051562E-2],"split_indices":[732,1009,0,0,0],"split_type":[0,0,0,0,0],"sum_hessian":[5.0385616E1,4.4366486E1,6.0191283E0,4.018762E1,4.178868E0],"tree_param":{"num_deleted":"0","num_feature":"1024","num_nodes":"5","size_leaf_vector":"1"}},{"base_weights":[-6.2405346E-3,5.4960642E-2,-6.344148E-2,1.29805105E-2,-5.3624462E-2],"categories":[],"categories_nodes":[],"categories_segments":[],"categories_sizes":[],"default_left":[0,0,0,0,0],"id":72,"left_children":[1,3,-1,-1,-1],"loss_changes":[2.0020523E0,2.1734622E0,0E0,0E0,0E0],"parents":[2147483647,0,0,1,1],"right_children":[2,4,-1,-1,-1],"split_conditions":[1E0,1E0,-6.344148E-2,1.29805105E-2,-5.3624462E-2],"split_indices":[116,325,0,0,0],"split_type":[0,0,0,0,0],"sum_hessian":[5.01688E1,4.6546425E1,3.6223745E0,4.2008713E1,4.537712E0],"tree_param":{"num_deleted":"0","num_feature":"1024","num_nodes":"5","size_leaf_vector":"1"}},{"base_weights":[-7.6661357E-3,7.9117544E-2,-4.1936573E-1,1.5657002E-2,-7.141329E-2,-9.3224645E-2,2.6369772E-3],"categories":[],"categories_nodes":[],"categories_segments":[],"categories_sizes":[],"default_left":[0,0,0,0,0,0,0],"id":73,"left_children":[1,3,5,-1,-1,-1,-1],"loss_changes":[1.8579518E0,2.755086E0,2.0935574E0,0E0,0E0,0E0,0E0],"parents":[2147483647,0,0,1,1,2,2],"right_children":[2,4,6,-1,-1,-1,-1],"split_conditions":[1E0,1E0,1E0,1.5657002E-2,-7.141329E-2,-9.3224645E-2,2.6369772E-3],"split_indices":[244,194,207,0,0,0,0],"split_type":[0,0,0,0,0,0,0],"sum_hessian":[5.0072865E1,4.2022594E1,8.050271E0,3.9015743E1,3.0068505E0,3.2356856E0,4.814585E0],"tree_param":{"num_deleted":"0","num_feature":"1024","num_nodes":"7","size_leaf_vector":"1"}},{"base_weights":[-9.8517835E-3,9.83692E-2,-3.4323108E-1,1.9379439E-2,-7.0119396E-2,-2.8841847E-3,-6.1587095E-2],"categories":[],"categories_nodes":[],"categories_segments":[],"categories_sizes":[],"default_left":[0,0,0,0,0,0,0],"id":74,"left_children":[1,3,5,-1,-1,-1,-1],"loss_changes":[1.8690464E0,3.1252599E0,1.0698743E0,0E0,0E0,0E0,0E0],"parents":[2147483647,0,0,1,1,2,2],"right_children":[2,4,6,-1,-1,-1,-1],"split_conditions":[1E0,1E0,1E0,1.9379439E-2,-7.0119396E-2,-2.8841847E-3,-6.1587095E-2],"split_indices":[792,244,80,0,0,0,0],"split_type":[0,0,0,0,0,0,0],"sum_hessian":[4.9868973E1,3.817999E1,1.1688986E1,3.478602E1,3.39397E0,5.9424067E0,5.746579E0],"tree_param":{"num_deleted":"0","num_feature":"1024","num_nodes":"7","size_leaf_vector":"1"}},{"base_weights":[-1.1222569E-2,1.0027478E-1,-3.2172602E-1,2.493764E-2,-3.8149785E-2,9.742791E-3,-7.6769866E-2],"categories":[],"categories_nodes":[],"categories_segments":[],"categories_sizes":[],"default_left":[0,0,0,0,0,0,0],"id":75,"left_children":[1,3,5,-1,-1,-1,-1],"loss_changes":[1.7851131E0,2.8259373E0,2.6198313E0,0E0,0E0,0E0,0E0],"parents":[2147483647,0,0,1,1,2,2],"right_children":[2,4,6,-1,-1,-1,-1],"split_conditions":[1E0,1E0,1E0,2.493764E-2,-3.8149785E-2,9.742791E-3,-7.6769866E-2],"split_indices":[511,36,875,0,0,0,0],"split_type":[0,0,0,0,0,0,0],"sum_hessian":[4.963075E1,3.701592E1,1.261483E1,2.86359E1,8.380018E0,6.905826E0,5.709004E0],"tree_param":{"num_deleted":"0","num_feature":"1024","num_nodes":"7","size_leaf_vector":"1"}},{"base_weights":[-1.1796582E-2,5.6484364E-2,-5.5615522E-2,-1.2281436E-3,6.983551E-2],"categories":[],"categories_nodes":[],"categories_segments":[],"categories_sizes":[],"default_left":[0,0,0,0,0],"id":76,"left_children":[1,3,-1,-1,-1],"loss_changes":[1.9039102E0,2.0244162E0,0E0,0E0,0E0],"parents":[2147483647,0,0,1,1],"right_children":[2,4,-1,-1,-1],"split_conditions":[1E0,1E0,-5.5615522E-2,-1.2281436E-3,6.983551E-2],"split_indices":[921,820,0,0,0],"split_type":[0,0,0,0,0],"sum_hessian":[4.9377464E1,4.4670513E1,4.7069535E0,4.1233852E1,3.436658E0],"tree_param":{"num_deleted":"0","num_feature":"1024","num_nodes":"5","size_leaf_vector":"1"}},{"base_weights":[-1.0323096E-2,-6.624909E-2,5.9892554E-2,3.4506444E-3,-5.4482292E-2],"categories":[],"categories_nodes":[],"categories_segments":[],"categories_sizes":[],"default_left":[0,0,0,0,0],"id":77,"left_children":[1,3,-1,-1,-1],"loss_changes":[1.7488148E0,2.2775815E0,0E0,0E0,0E0],"parents":[2147483647,0,0,1,1],"right_children":[2,4,-1,-1,-1],"split_conditions":[1E0,1E0,5.9892554E-2,3.4506444E-3,-5.4482292E-2],"split_indices":[429,609,0,0,0],"split_type":[0,0,0,0,0],"sum_hessian":[4.916127E1,4.5844257E1,3.317014E0,3.8637657E1,7.2066E0],"tree_param":{"num_deleted":"0","num_feature":"1024","num_nodes":"5","size_leaf_vector":"1"}},{"base_weights":[-9.206028E-3,-1.0305909E-1,3.4210938E-1,1.1685973E-4,-9.846421E-2,3.3500206E-3,5.8475405E-2],"categories":[],"categories_nodes":[],"categories_segments":[],"categories_sizes":[],"default_left":[0,0,0,0,0,0,0],"id":78,"left_children":[1,3,5,-1,-1,-1,-1],"loss_changes":[1.6822635E0,3.6939325E0,7.863395E-1,0E0,0E0,0E0,0E0],"parents":[2147483647,0,0,1,1,2,2],"right_children":[2,4,6,-1,-1,-1,-1],"split_conditions":[1E0,1E0,1E0,1.1685973E-4,-9.846421E-2,3.3500206E-3,5.8475405E-2],"split_indices":[926,495,656,0,0,0,0],"split_type":[0,0,0,0,0,0,0],"sum_hessian":[4.8951614E1,3.918901E1,9.762602E0,3.593873E1,3.250285E0,4.798131E0,4.964471E0],"tree_param":{"num_deleted":"0","num_feature":"1024","num_nodes":"7","size_leaf_vector":"1"}},{"base_weights":[-9.086082E-3,6.838607E-2,-4.7011557E-1,7.441569E-2,-4.8412444E-4,-8.155714E-2,-2.4115718E-3],"categories":[],"categories_nodes":[],"categories_segments":[],"categories_sizes":[],"default_left":[0,0,0,0,0,0,0],"id":79,"left_children":[1,3,5,-1,-1,-1,-1],"loss_changes":[1.8062261E0,2.1511257E0,1.1008893E0,0E0,0E0,0E0,0E0],"parents":[2147483647,0,0,1,1,2,2],"right_children":[2,4,6,-1,-1,-1,-1],"split_conditions":[1E0,1E0,1E0,7.441569E-2,-4.8412444E-4,-8.155714E-2,-2.4115718E-3],"split_indices":[81,650,807,0,0,0,0],"split_type":[0,0,0,0,0,0,0],"sum_hessian":[4.867045E1,4.239756E1,6.2728887E0,3.2493136E0,3.9148247E1,3.067937E0,3.204952E0],"tree_param":{"num_deleted":"0","num_feature":"1024","num_nodes":"7","size_leaf_vector":"1"}},{"base_weights":[-8.3457455E-3,6.0405772E-2,-5.2894622E-2,-4.5630555E-3,3.96198E-2],"categories":[],"categories_nodes":[],"categories_segments":[],"categories_sizes":[],"default_left":[0,0,0,0,0],"id":80,"left_children":[1,3,-1,-1,-1],"loss_changes":[1.8025382E0,1.6059489E0,0E0,0E0,0E0],"parents":[2147483647,0,0,1,1],"right_children":[2,4,-1,-1,-1],"split_conditions":[1E0,1E0,-5.2894622E-2,-4.5630555E-3,3.96198E-2],"split_indices":[585,784,0,0,0],"split_type":[0,0,0,0,0],"sum_hessian":[4.8468685E1,4.3595364E1,4.87332E0,3.3789455E1,9.805909E0],"tree_param":{"num_deleted":"0","num_feature":"1024","num_nodes":"5","size_leaf_vector":"1"}},{"base_weights":[-7.8077815E-3,9.3187734E-2,-3.6201647E-1,2.048317E-2,-6.507413E-2,4.6233083E-3,-9.099672E-2],"categories":[],"categories_nodes":[],"categories_segments":[],"categories_sizes":[],"default_left":[0,0,0,0,0,0,0],"id":81,"left_children":[1,3,5,-1,-1,-1,-1],"loss_changes":[1.7988043E0,3.388092E0,2.5367227E0,0E0,0E0,0E0,0E0],"parents":[2147483647,0,0,1,1,2,2],"right_children":[2,4,6,-1,-1,-1,-1],"split_conditions":[1E0,1E0,1E0,2.048317E-2,-6.507413E-2,4.6233083E-3,-9.099672E-2],"split_indices":[157,1009,389,0,0,0,0],"split_type":[0,0,0,0,0,0,0],"sum_hessian":[4.834014E1,3.8188396E1,1.0151744E1,3.383528E1,4.3531137E0,6.342158E0,3.809586E0],"tree_param":{"num_deleted":"0","num_feature":"1024","num_nodes":"7","size_leaf_vector":"1"}},{"base_weights":[-9.687758E-3,1.266396E-1,-2.510894E-1,5.21741E-2,-1.6379194E-2,-4.4189643E-2,3.3246305E-2],"categories":[],"categories_nodes":[],"categories_segments":[],"categories_sizes":[],"default_left":[0,0,0,0,0,0,0],"id":82,"left_children":[1,3,5,-1,-1,-1,-1],"loss_changes":[1.6511574E0,3.7702813E0,2.161656E0,0E0,0E0,0E0,0E0],"parents":[2147483647,0,0,1,1,2,2],"right_children":[2,4,6,-1,-1,-1,-1],"split_conditions":[1E0,1E0,1E0,5.21741E-2,-1.6379194E-2,-4.4189643E-2,3.3246305E-2],"split_indices":[428,875,964,0,0,0,0],"split_type":[0,0,0,0,0,0,0],"sum_hessian":[4.8206226E1,3.1111788E1,1.709444E1,1.2843345E1,1.8268442E1,1.3065196E1,4.0292444E0],"tree_param":{"num_deleted":"0","num_feature":"1024","num_nodes":"7","size_leaf_vector":"1"}},{"base_weights":[-8.188416E-3,-6.91243E-2,5.5569805E-2,3.6883508E-3,-5.491465E-2],"categories":[],"categories_nodes":[],"categories_segments":[],"categories_sizes":[],"default_left":[0,0,0,0,0],"id":83,"left_children":[1,3,-1,-1,-1],"loss_changes":[1.7233554E0,2.3174403E0,0E0,0E0,0E0],"parents":[2147483647,0,0,1,1],"right_children":[2,4,-1,-1,-1],"split_conditions":[1E0,1E0,5.5569805E-2,3.6883508E-3,-5.491465E-2],"split_indices":[249,315,0,0,0],"split_type":[0,0,0,0,0],"sum_hessian":[4.803662E1,4.414369E1,3.892933E0,3.6914642E1,7.229044E0],"tree_param":{"num_deleted":"0","num_feature":"1024","num_nodes":"5","size_leaf_vector":"1"}},{"base_weights":[-7.163024E-3,6.359466E-2,-4.2931426E-2,-6.534291E-3,5.6431737E-2],"categories":[],"categories_nodes":[],"categories_segments":[],"categories_sizes":[],"default_left":[0,0,0,0,0],"id":84,"left_children":[1,3,-1,-1,-1],"loss_changes":[1.490686E0,2.8020175E0,0E0,0E0,0E0],"parents":[2147483647,0,0,1,1],"right_children":[2,4,-1,-1,-1],"split_conditions":[1E0,1E0,-4.2931426E-2,-6.534291E-3,5.6431737E-2],"split_indices":[81,147,0,0,0],"split_type":[0,0,0,0,0],"sum_hessian":[4.799103E1,4.182929E1,6.161742E0,3.3955223E1,7.874067E0],"tree_param":{"num_deleted":"0","num_feature":"1024","num_nodes":"5","size_leaf_vector":"1"}},{"base_weights":[-6.3030627E-3,4.9913984E-2,-5.9849102E-2,1.4411168E-2,-4.3757077E-2],"categories":[],"categories_nodes":[],"categories_segments":[],"categories_sizes":[],"default_left":[0,0,0,0,0],"id":85,"left_children":[1,3,-1,-1,-1],"loss_changes":[1.6549788E0,2.152683E0,0E0,0E0,0E0],"parents":[2147483647,0,0,1,1],"right_children":[2,4,-1,-1,-1],"split_conditions":[1E0,1E0,-5.9849102E-2,1.4411168E-2,-4.3757077E-2],"split_indices":[116,360,0,0,0],"split_type":[0,0,0,0,0],"sum_hessian":[4.781508E1,4.4505806E1,3.309272E0,3.7888844E1,6.616963E0],"tree_param":{"num_deleted":"0","num_feature":"1024","num_nodes":"5","size_leaf_vector":"1"}},{"base_weights":[-7.598366E-3,5.3171024E-2,-5.250388E-2,1.24327475E-2,-5.217555E-2],"categories":[],"categories_nodes":[],"categories_segments":[],"categories_sizes":[],"default_left":[0,0,0,0,0],"id":86,"left_children":[1,3,-1,-1,-1],"loss_changes":[1.5539439E0,1.8787346E0,0E0,0E0,0E0],"parents":[2147483647,0,0,1,1],"right_children":[2,4,-1,-1,-1],"split_conditions":[1E0,1E0,-5.250388E-2,1.24327475E-2,-5.217555E-2],"split_indices":[325,285,0,0,0],"split_type":[0,0,0,0,0],"sum_hessian":[4.7530754E1,4.333825E1,4.1925015E0,3.926262E1,4.075633E0],"tree_param":{"num_deleted":"0","num_feature":"1024","num_nodes":"5","size_leaf_vector":"1"}},{"base_weights":[-8.704344E-3,-6.4808786E-2,5.939206E-2,1.2890719E-2,-3.991956E-2],"categories":[],"categories_nodes":[],"categories_segments":[],"categories_sizes":[],"default_left":[0,0,0,0,0],"id":87,"left_children":[1,3,-1,-1,-1],"loss_changes":[1.6791798E0,2.9855149E0,0E0,0E0,0E0],"parents":[2147483647,0,0,1,1],"right_children":[2,4,-1,-1,-1],"split_conditions":[1E0,1E0,5.939206E-2,1.2890719E-2,-3.991956E-2],"split_indices":[756,136,0,0,0],"split_type":[0,0,0,0,0],"sum_hessian":[4.7526817E1,4.4295372E1,3.2314475E0,2.8436258E1,1.5859112E1],"tree_param":{"num_deleted":"0","num_feature":"1024","num_nodes":"5","size_leaf_vector":"1"}},{"base_weights":[-7.166917E-3,9.73203E-2,-3.024071E-1,2.4366245E-2,-3.6296785E-2,5.996041E-3,-7.167097E-2],"categories":[],"categories_nodes":[],"categories_segments":[],"categories_sizes":[],"default_left":[0,0,0,0,0,0,0],"id":88,"left_children":[1,3,5,-1,-1,-1,-1],"loss_changes":[1.5193006E0,2.542218E0,1.9748175E0,0E0,0E0,0E0,0E0],"parents":[2147483647,0,0,1,1,2,2],"right_children":[2,4,6,-1,-1,-1,-1],"split_conditions":[1E0,1E0,1E0,2.4366245E-2,-3.6296785E-2,5.996041E-3,-7.167097E-2],"split_indices":[511,36,875,0,0,0,0],"split_type":[0,0,0,0,0,0,0],"sum_hessian":[4.7295853E1,3.5428032E1,1.186782E1,2.723855E1,8.189483E0,6.786937E0,5.0808825E0],"tree_param":{"num_deleted":"0","num_feature":"1024","num_nodes":"7","size_leaf_vector":"1"}},{"base_weights":[-8.131745E-3,-6.5448664E-2,5.340395E-2,7.1768533E-3,-3.569197E-2],"categories":[],"categories_nodes":[],"categories_segments":[],"categories_sizes":[],"default_left":[0,0,0,0,0],"id":89,"left_children":[1,3,-1,-1,-1],"loss_changes":[1.5288472E0,1.8000879E0,0E0,0E0,0E0],"parents":[2147483647,0,0,1,1],"right_children":[2,4,-1,-1,-1],"split_conditions":[1E0,1E0,5.340395E-2,7.1768533E-3,-3.569197E-2],"split_indices":[249,583,0,0,0],"split_type":[0,0,0,0,0],"sum_hessian":[4.7072952E1,4.3367535E1,3.7054179E0,2.9998684E1,1.3368852E1],"tree_param":{"num_deleted":"0","num_feature":"1024","num_nodes":"5","size_leaf_vector":"1"}},{"base_weights":[-6.7153154E-3,4.6196897E-2,-5.6461055E-2,-3.3939802E-3,5.9361573E-2],"categories":[],"categories_nodes":[],"categories_segments":[],"categories_sizes":[],"default_left":[0,0,0,0,0],"id":90,"left_children":[1,3,-1,-1,-1],"loss_changes":[1.4435056E0,1.9846318E0,0E0,0E0,0E0],"parents":[2147483647,0,0,1,1],"right_children":[2,4,-1,-1,-1],"split_conditions":[1E0,1E0,-5.6461055E-2,-3.3939802E-3,5.9361573E-2],"split_indices":[116,114,0,0,0],"split_type":[0,0,0,0,0],"sum_hessian":[4.701653E1,4.3781384E1,3.2351446E0,3.9008873E1,4.772513E0],"tree_param":{"num_deleted":"0","num_feature":"1024","num_nodes":"5","size_leaf_vector":"1"}},{"base_weights":[-6.0672187E-3,-5.7736665E-2,5.5761356E-2,1.1177875E-2,-3.5219196E-2],"categories":[],"categories_nodes":[],"categories_segments":[],"categories_sizes":[],"default_left":[0,0,0,0,0],"id":91,"left_children":[1,3,-1,-1,-1],"loss_changes":[1.4307672E0,2.2802193E0,0E0,0E0,0E0],"parents":[2147483647,0,0,1,1],"right_children":[2,4,-1,-1,-1],"split_conditions":[1E0,1E0,5.5761356E-2,1.1177875E-2,-3.5219196E-2],"split_indices":[756,136,0,0,0],"split_type":[0,0,0,0,0],"sum_hessian":[4.7019527E1,4.389362E1,3.125909E0,2.8250458E1,1.5643162E1],"tree_param":{"num_deleted":"0","num_feature":"1024","num_nodes":"5","size_leaf_vector":"1"}},{"base_weights":[-4.7915406E-3,-5.866904E-2,5.1500853E-2,-1.2603015E-2,4.6053614E-2],"categories":[],"categories_nodes":[],"categories_segments":[],"categories_sizes":[],"default_left":[0,0,0,0,0],"id":92,"left_children":[1,3,-1,-1,-1],"loss_changes":[1.3691264E0,1.6044813E0,0E0,0E0,0E0],"parents":[2147483647,0,0,1,1],"right_children":[2,4,-1,-1,-1],"split_conditions":[1E0,1E0,5.1500853E-2,-1.2603015E-2,4.6053614E-2],"split_indices":[249,709,0,0,0],"split_type":[0,0,0,0,0],"sum_hessian":[4.680883E1,4.321655E1,3.5922828E0,3.8923874E1,4.292676E0],"tree_param":{"num_deleted":"0","num_feature":"1024","num_nodes":"5","size_leaf_vector":"1"}},{"base_weights":[-2.448476E-3,5.8467697E-2,-4.6135277E-2,1.9279202E-2,-2.7802428E-2],"categories":[],"categories_nodes":[],"categories_segments":[],"categories_sizes":[],"default_left":[0,0,0,0,0],"id":93,"left_children":[1,3,-1,-1,-1],"loss_changes":[1.3590385E0,1.9950944E0,0E0,0E0,0E0],"parents":[2147483647,0,0,1,1],"right_children":[2,4,-1,-1,-1],"split_conditions":[1E0,1E0,-4.6135277E-2,1.9279202E-2,-2.7802428E-2],"split_indices":[585,511,0,0,0],"split_type":[0,0,0,0,0],"sum_hessian":[4.665082E1,4.1954292E1,4.6965313E0,3.0289907E1,1.1664383E1],"tree_param":{"num_deleted":"0","num_feature":"1024","num_nodes":"5","size_leaf_vector":"1"}},{"base_weights":[-3.348485E-3,-5.442367E-2,5.466556E-2,3.7080378E-3,-4.9632918E-2],"categories":[],"categories_nodes":[],"categories_segments":[],"categories_sizes":[],"default_left":[0,0,0,0,0],"id":94,"left_children":[1,3,-1,-1,-1],"loss_changes":[1.3626263E0,1.8107464E0,0E0,0E0,0E0],"parents":[2147483647,0,0,1,1],"right_children":[2,4,-1,-1,-1],"split_conditions":[1E0,1E0,5.466556E-2,3.7080378E-3,-4.9632918E-2],"split_indices":[429,609,0,0,0],"split_type":[0,0,0,0,0],"sum_hessian":[4.6447533E1,4.3325256E1,3.122277E0,3.665194E1,6.673318E0],"tree_param":{"num_deleted":"0","num_feature":"1024","num_nodes":"5","size_leaf_vector":"1"}},{"base_weights":[-2.8816077E-3,5.3712554E-2,-4.829486E-2,1.1638802E-2,-4.7663476E-2],"categories":[],"categories_nodes":[],"categories_segments":[],"categories_sizes":[],"default_left":[0,0,0,0,0],"id":95,"left_children":[1,3,-1,-1,-1],"loss_changes":[1.3101119E0,1.4908174E0,0E0,0E0,0E0],"parents":[2147483647,0,0,1,1],"right_children":[2,4,-1,-1,-1],"split_conditions":[1E0,1E0,-4.829486E-2,1.1638802E-2,-4.7663476E-2],"split_indices":[325,921,0,0,0],"split_type":[0,0,0,0,0],"sum_hessian":[4.626608E1,4.2181496E1,4.08458E0,3.8421463E1,3.7600336E0],"tree_param":{"num_deleted":"0","num_feature":"1024","num_nodes":"5","size_leaf_vector":"1"}},{"base_weights":[-4.3910113E-3,6.506367E-2,-4.0936485E-2,-6.444809E-3,5.653758E-2],"categories":[],"categories_nodes":[],"categories_segments":[],"categories_sizes":[],"default_left":[0,0,0,0,0],"id":96,"left_children":[1,3,-1,-1,-1],"loss_changes":[1.353478E0,2.7014883E0,0E0,0E0,0E0],"parents":[2147483647,0,0,1,1],"right_children":[2,4,-1,-1,-1],"split_conditions":[1E0,1E0,-4.0936485E-2,-6.444809E-3,5.653758E-2],"split_indices":[81,147,0,0,0],"split_type":[0,0,0,0,0],"sum_hessian":[4.617274E1,4.0129673E1,6.043066E0,3.2569782E1,7.559892E0],"tree_param":{"num_deleted":"0","num_feature":"1024","num_nodes":"5","size_leaf_vector":"1"}},{"base_weights":[-3.7413267E-3,6.1286125E-2,-4.329679E-2,1.8975327E-2,-3.7492584E-2],"categories":[],"categories_nodes":[],"categories_segments":[],"categories_sizes":[],"default_left":[0,0,0,0,0],"id":97,"left_children":[1,3,-1,-1,-1],"loss_changes":[1.3382363E0,2.407294E0,0E0,0E0,0E0],"parents":[2147483647,0,0,1,1],"right_children":[2,4,-1,-1,-1],"split_conditions":[1E0,1E0,-4.329679E-2,1.8975327E-2,-3.7492584E-2],"split_indices":[1009,157,0,0,0],"split_type":[0,0,0,0,0],"sum_hessian":[4.5994995E1,4.0688015E1,5.306981E0,3.1867758E1,8.820255E0],"tree_param":{"num_deleted":"0","num_feature":"1024","num_nodes":"5","size_leaf_vector":"1"}},{"base_weights":[-4.6846364E-3,9.090577E-2,-2.9619792E-1,2.4227481E-2,-3.9058328E-2,-5.168125E-2,2.3047335E-3],"categories":[],"categories_nodes":[],"categories_segments":[],"categories_sizes":[],"default_left":[0,0,0,0,0,0,0],"id":98,"left_children":[1,3,5,-1,-1,-1,-1],"loss_changes":[1.3327354E0,2.7223403E0,8.434416E-1,0E0,0E0,0E0,0E0],"parents":[2147483647,0,0,1,1,2,2],"right_children":[2,4,6,-1,-1,-1,-1],"split_conditions":[1E0,1E0,1E0,2.4227481E-2,-3.9058328E-2,-5.168125E-2,2.3047335E-3],"split_indices":[792,315,950,0,0,0,0],"split_type":[0,0,0,0,0,0,0],"sum_hessian":[4.5860523E1,3.5054066E1,1.0806455E1,2.7047712E1,8.006354E0,6.0244193E0,4.7820354E0],"tree_param":{"num_deleted":"0","num_feature":"1024","num_nodes":"7","size_leaf_vector":"1"}},{"base_weights":[-5.5788974E-3,-6.1807163E-2,4.8622895E-2,-1.2162763E-2,5.3934343E-2],"categories":[],"categories_nodes":[],"categories_segments":[],"categories_sizes":[],"default_left":[0,0,0,0,0],"id":99,"left_children":[1,3,-1,-1,-1],"loss_changes":[1.3237863E0,1.6072862E0,0E0,0E0,0E0],"parents":[2147483647,0,0,1,1],"right_children":[2,4,-1,-1,-1],"split_conditions":[1E0,1E0,4.8622895E-2,-1.2162763E-2,5.3934343E-2],"split_indices":[119,11,0,0,0],"split_type":[0,0,0,0,0],"sum_hessian":[4.5783726E1,4.1870956E1,3.912769E0,3.8806953E1,3.0640025E0],"tree_param":{"num_deleted":"0","num_feature":"1024","num_nodes":"5","size_leaf_vector":"1"}},{"base_weights":[-3.0281295E-3,4.6815604E-2,-5.3926446E-2,1.3626902E-2,-4.157186E-2],"categories":[],"categories_nodes":[],"categories_segments":[],"categories_sizes":[],"default_left":[0,0,0,0,0],"id":100,"left_children":[1,3,-1,-1,-1],"loss_changes":[1.2735245E0,1.8627299E0,0E0,0E0,0E0],"parents":[2147483647,0,0,1,1],"right_children":[2,4,-1,-1,-1],"split_conditions":[1E0,1E0,-5.3926446E-2,1.3626902E-2,-4.157186E-2],"split_indices":[116,360,0,0,0],"split_type":[0,0,0,0,0],"sum_hessian":[4.570299E1,4.265121E1,3.0517793E0,3.633036E1,6.320851E0],"tree_param":{"num_deleted":"0","num_feature":"1024","num_nodes":"5","size_leaf_vector":"1"}},{"base_weights":[-4.549707E-3,-8.728931E-2,3.1307784E-1,4.959851E-4,-7.7114895E-2,6.7182355E-2,-4.284918E-3],"categories":[],"categories_nodes":[],"categories_segments":[],"categories_sizes":[],"default_left":[0,0,0,0,0,0,0],"id":101,"left_children":[1,3,5,-1,-1,-1,-1],"loss_changes":[1.2481061E0,2.3780017E0,1.282392E0,0E0,0E0,0E0,0E0],"parents":[2147483647,0,0,1,1,2,2],"right_children":[2,4,6,-1,-1,-1,-1],"split_conditions":[1E0,1E0,1E0,4.959851E-4,-7.7114895E-2,6.7182355E-2,-4.284918E-3],"split_indices":[926,541,33,0,0,0,0],"split_type":[0,0,0,0,0,0,0],"sum_hessian":[4.5452065E1,3.663429E1,8.817775E0,3.3154644E1,3.4796445E0,3.949483E0,4.868292E0],"tree_param":{"num_deleted":"0","num_feature":"1024","num_nodes":"7","size_leaf_vector":"1"}},{"base_weights":[-4.392599E-3,-6.0564477E-2,4.5290064E-2,4.992702E-4,-6.620808E-2],"categories":[],"categories_nodes":[],"categories_segments":[],"categories_sizes":[],"default_left":[0,0,0,0,0],"id":102,"left_children":[1,3,-1,-1,-1],"loss_changes":[1.2175655E0,1.6652633E0,0E0,0E0,0E0],"parents":[2147483647,0,0,1,1],"right_children":[2,4,-1,-1,-1],"split_conditions":[1E0,1E0,4.5290064E-2,4.992702E-4,-6.620808E-2],"split_indices":[79,325,0,0,0],"split_type":[0,0,0,0,0],"sum_hessian":[4.5332195E1,4.1145607E1,4.186586E0,3.799623E1,3.1493778E0],"tree_param":{"num_deleted":"0","num_feature":"1024","num_nodes":"5","size_leaf_vector":"1"}},{"base_weights":[-4.360853E-3,7.267124E-2,-3.4892195E-1,1.6912686E-2,-4.0712226E-2,-7.4540235E-2,1.183524E-2],"categories":[],"categories_nodes":[],"categories_segments":[],"categories_sizes":[],"default_left":[0,0,0,0,0,0,0],"id":103,"left_children":[1,3,5,-1,-1,-1,-1],"loss_changes":[1.2529838E0,1.8565325E0,1.685825E0,0E0,0E0,0E0,0E0],"parents":[2147483647,0,0,1,1,2,2],"right_children":[2,4,6,-1,-1,-1,-1],"split_conditions":[1E0,1E0,1E0,1.6912686E-2,-4.0712226E-2,-7.4540235E-2,1.183524E-2],"split_indices":[244,843,378,0,0,0,0],"split_type":[0,0,0,0,0,0,0],"sum_hessian":[4.5251785E1,3.762844E1,7.6233435E0,3.1869114E1,5.759329E0,3.8020804E0,3.8212633E0],"tree_param":{"num_deleted":"0","num_feature":"1024","num_nodes":"7","size_leaf_vector":"1"}},{"base_weights":[-5.797207E-3,4.8076693E-2,-4.905158E-2,2.1530773E-2,-2.4008833E-2],"categories":[],"categories_nodes":[],"categories_segments":[],"categories_sizes":[],"default_left":[0,0,0,0,0],"id":104,"left_children":[1,3,-1,-1,-1],"loss_changes":[1.2274688E0,2.0950058E0,0E0,0E0,0E0],"parents":[2147483647,0,0,1,1],"right_children":[2,4,-1,-1,-1],"split_conditions":[1E0,1E0,-4.905158E-2,2.1530773E-2,-2.4008833E-2],"split_indices":[328,428,0,0,0],"split_type":[0,0,0,0,0],"sum_hessian":[4.5101757E1,4.1401062E1,3.7006934E0,2.6357706E1,1.5043357E1],"tree_param":{"num_deleted":"0","num_feature":"1024","num_nodes":"5","size_leaf_vector":"1"}},{"base_weights":[-6.3472767E-3,8.977728E-2,-2.775912E-1,2.270704E-2,-3.289056E-2,-7.512768E-4,-7.9560086E-2],"categories":[],"categories_nodes":[],"categories_segments":[],"categories_sizes":[],"default_left":[0,0,0,0,0,0,0],"id":105,"left_children":[1,3,5,-1,-1,-1,-1],"loss_changes":[1.2224483E0,2.0674386E0,1.7095352E0,0E0,0E0,0E0,0E0],"parents":[2147483647,0,0,1,1,2,2],"right_children":[2,4,6,-1,-1,-1,-1],"split_conditions":[1E0,1E0,1E0,2.270704E-2,-3.289056E-2,-7.512768E-4,-7.9560086E-2],"split_indices":[511,36,428,0,0,0,0],"split_type":[0,0,0,0,0,0,0],"sum_hessian":[4.4929417E1,3.366728E1,1.12621355E1,2.56981E1,7.9691806E0,8.069425E0,3.192711E0],"tree_param":{"num_deleted":"0","num_feature":"1024","num_nodes":"7","size_leaf_vector":"1"}},{"base_weights":[-7.705621E-3,5.1218413E-2,-4.484037E-2,1.7486108E-2,-2.5787413E-2],"categories":[],"categories_nodes":[],"categories_segments":[],"categories_sizes":[],"default_left":[0,0,0,0,0],"id":106,"left_children":[1,3,-1,-1,-1],"loss_changes":[1.2119898E0,1.6229144E0,0E0,0E0,0E0],"parents":[2147483647,0,0,1,1],"right_children":[2,4,-1,-1,-1],"split_conditions":[1E0,1E0,-4.484037E-2,1.7486108E-2,-2.5787413E-2],"split_indices":[585,511,0,0,0],"split_type":[0,0,0,0,0],"sum_hessian":[4.4788532E1,4.0285847E1,4.502686E0,2.9085423E1,1.1200426E1],"tree_param":{"num_deleted":"0","num_feature":"1024","num_nodes":"5","size_leaf_vector":"1"}},{"base_weights":[-8.114049E-3,5.490816E-2,-4.1772544E-2,2.120417E-2,-3.339651E-2],"categories":[],"categories_nodes":[],"categories_segments":[],"categories_sizes":[],"default_left":[0,0,0,0,0],"id":107,"left_children":[1,3,-1,-1,-1],"loss_changes":[1.2003862E0,2.5402877E0,0E0,0E0,0E0],"parents":[2147483647,0,0,1,1],"right_children":[2,4,-1,-1,-1],"split_conditions":[1E0,1E0,-4.1772544E-2,2.120417E-2,-3.339651E-2],"split_indices":[1009,745,0,0,0],"split_type":[0,0,0,0,0],"sum_hessian":[4.4611744E1,3.9413578E1,5.198165E0,2.8394735E1,1.1018844E1],"tree_param":{"num_deleted":"0","num_feature":"1024","num_nodes":"5","size_leaf_vector":"1"}},{"base_weights":[-8.47828E-3,5.073573E-2,-5.87992E-2,-1.1426979E-2,4.1859798E-2],"categories":[],"categories_nodes":[],"categories_segments":[],"categories_sizes":[],"default_left":[0,0,0,0,0],"id":108,"left_children":[1,-1,3,-1,-1],"loss_changes":[1.2115158E0,0E0,1.1699597E0,0E0,0E0],"parents":[2147483647,0,0,2,2],"right_children":[2,-1,4,-1,-1],"split_conditions":[1E0,5.073573E-2,1E0,-1.1426979E-2,4.1859798E-2],"split_indices":[650,0,119,0,0],"split_type":[0,0,0,0,0],"sum_hessian":[4.4524094E1,3.150113E0,4.137398E1,3.774848E1,3.625499E0],"tree_param":{"num_deleted":"0","num_feature":"1024","num_nodes":"5","size_leaf_vector":"1"}},{"base_weights":[-5.7818256E-3,4.5471188E-2,-4.6803977E-2,-5.891043E-3,4.7329288E-2],"categories":[],"categories_nodes":[],"categories_segments":[],"categories_sizes":[],"default_left":[0,0,0,0,0],"id":109,"left_children":[1,3,-1,-1,-1],"loss_changes":[1.0965369E0,1.893022E0,0E0,0E0,0E0],"parents":[2147483647,0,0,1,1],"right_children":[2,4,-1,-1,-1],"split_conditions":[1E0,1E0,-4.6803977E-2,-5.891043E-3,4.7329288E-2],"split_indices":[328,926,0,0,0],"split_type":[0,0,0,0,0],"sum_hessian":[4.4384495E1,4.0766167E1,3.6183307E0,3.346383E1,7.3023353E0],"tree_param":{"num_deleted":"0","num_feature":"1024","num_nodes":"5","size_leaf_vector":"1"}},{"base_weights":[-5.286085E-3,-6.685188E-2,4.040783E-2,1.8197196E-2,-2.0148959E-2],"categories":[],"categories_nodes":[],"categories_segments":[],"categories_sizes":[],"default_left":[0,0,0,0,0],"id":110,"left_children":[1,3,-1,-1,-1],"loss_changes":[1.1673267E0,1.3830209E0,0E0,0E0,0E0],"parents":[2147483647,0,0,1,1],"right_children":[2,4,-1,-1,-1],"split_conditions":[1E0,1E0,4.040783E-2,1.8197196E-2,-2.0148959E-2],"split_indices":[114,875,0,0,0],"split_type":[0,0,0,0,0],"sum_hessian":[4.424543E1,3.9188435E1,5.0569973E0,1.36360655E1,2.5552368E1],"tree_param":{"num_deleted":"0","num_feature":"1024","num_nodes":"5","size_leaf_vector":"1"}},{"base_weights":[-3.8914075E-3,4.8241585E-2,-5.0568722E-2,-1.2984537E-2,4.7866147E-2],"categories":[],"categories_nodes":[],"categories_segments":[],"categories_sizes":[],"default_left":[0,0,0,0,0],"id":111,"left_children":[1,-1,3,-1,-1],"loss_changes":[1.0516193E0,0E0,1.8324723E0,0E0,0E0],"parents":[2147483647,0,0,2,2],"right_children":[2,-1,4,-1,-1],"split_conditions":[1E0,4.8241585E-2,1E0,-1.2984537E-2,4.7866147E-2],"split_indices":[650,0,114,0,0],"split_type":[0,0,0,0,0],"sum_hessian":[4.4253124E1,3.058022E0,4.1195103E1,3.6484516E1,4.710588E0],"tree_param":{"num_deleted":"0","num_feature":"1024","num_nodes":"5","size_leaf_vector":"1"}},{"base_weights":[-1.6230582E-3,-1.22345366E-1,2.0841216E-1,5.2914536E-3,-9.2097126E-2,-3.7567776E-2,5.9002746E-2],"categories":[],"categories_nodes":[],"categories_segments":[],"categories_sizes":[],"default_left":[0,0,0,0,0,0,0],"id":112,"left_children":[1,3,5,-1,-1,-1,-1],"loss_changes":[1.1722709E0,4.1567407E0,3.9835417E0,0E0,0E0,0E0,0E0],"parents":[2147483647,0,0,1,1,2,2],"right_children":[2,4,6,-1,-1,-1,-1],"split_conditions":[1E0,1E0,1E0,5.2914536E-3,-9.2097126E-2,-3.7567776E-2,5.9002746E-2],"split_indices":[695,589,656,0,0,0,0],"split_type":[0,0,0,0,0,0,0],"sum_hessian":[4.4226986E1,2.8349815E1,1.58771715E1,2.4013706E1,4.3361087E0,6.28029E0,9.596882E0],"tree_param":{"num_deleted":"0","num_feature":"1024","num_nodes":"7","size_leaf_vector":"1"}},{"base_weights":[-2.7205853E-3,8.8458836E-2,-2.6077318E-1,1.9562216E-2,-3.8875815E-2,4.7379844E-3,-6.25417E-2],"categories":[],"categories_nodes":[],"categories_segments":[],"categories_sizes":[],"default_left":[0,0,0,0,0,0,0],"id":113,"left_children":[1,3,5,-1,-1,-1,-1],"loss_changes":[1.0796661E0,1.8111553E0,1.37551E0,0E0,0E0,0E0,0E0],"parents":[2147483647,0,0,1,1,2,2],"right_children":[2,4,6,-1,-1,-1,-1],"split_conditions":[1E0,1E0,1E0,1.9562216E-2,-3.8875815E-2,4.7379844E-3,-6.25417E-2],"split_indices":[511,244,875,0,0,0,0],"split_type":[0,0,0,0,0,0,0],"sum_hessian":[4.3906055E1,3.292844E1,1.0977615E1,2.737191E1,5.556529E0,6.421231E0,4.556385E0],"tree_param":{"num_deleted":"0","num_feature":"1024","num_nodes":"7","size_leaf_vector":"1"}},{"base_weights":[-4.220347E-3,4.7205884E-2,-4.4318344E-2,1.0600304E-2,-4.1668516E-2],"categories":[],"categories_nodes":[],"categories_segments":[],"categories_sizes":[],"default_left":[0,0,0,0,0],"id":114,"left_children":[1,3,-1,-1,-1],"loss_changes":[1.0301671E0,1.1603702E0,0E0,0E0,0E0],"parents":[2147483647,0,0,1,1],"right_children":[2,4,-1,-1,-1],"split_conditions":[1E0,1E0,-4.4318344E-2,1.0600304E-2,-4.1668516E-2],"split_indices":[325,285,0,0,0],"split_type":[0,0,0,0,0],"sum_hessian":[4.370792E1,3.992322E1,3.7847E0,3.6116966E1,3.8062541E0],"tree_param":{"num_deleted":"0","num_feature":"1024","num_nodes":"5","size_leaf_vector":"1"}},{"base_weights":[-5.4664053E-3,-5.854113E-2,4.331989E-2,1.7086279E-3,-5.627509E-2],"categories":[],"categories_nodes":[],"categories_segments":[],"categories_sizes":[],"default_left":[0,0,0,0,0],"id":115,"left_children":[1,3,-1,-1,-1],"loss_changes":[1.0660051E0,1.5636497E0,0E0,0E0,0E0],"parents":[2147483647,0,0,1,1],"right_children":[2,4,-1,-1,-1],"split_conditions":[1E0,1E0,4.331989E-2,1.7086279E-3,-5.627509E-2],"split_indices":[709,718,0,0,0],"split_type":[0,0,0,0,0],"sum_hessian":[4.369734E1,3.9753994E1,3.9433439E0,3.5409035E1,4.344958E0],"tree_param":{"num_deleted":"0","num_feature":"1024","num_nodes":"5","size_leaf_vector":"1"}},{"base_weights":[-5.1795803E-3,1.0293608E-1,-1.9943862E-1,6.0302157E-2,-6.850528E-3,-3.8312655E-2,3.3265587E-2],"categories":[],"categories_nodes":[],"categories_segments":[],"categories_sizes":[],"default_left":[0,0,0,0,0,0,0],"id":116,"left_children":[1,3,5,-1,-1,-1,-1],"loss_changes":[9.57174E-1,2.5542674E0,1.7192607E0,0E0,0E0,0E0,0E0],"parents":[2147483647,0,0,1,1,2,2],"right_children":[2,4,6,-1,-1,-1,-1],"split_conditions":[1E0,1E0,1E0,6.0302157E-2,-6.850528E-3,-3.8312655E-2,3.3265587E-2],"split_indices":[428,314,964,0,0,0,0],"split_type":[0,0,0,0,0,0,0],"sum_hessian":[4.359693E1,2.8310638E1,1.5286292E1,6.5850444E0,2.1725594E1,1.157156E1,3.7147317E0],"tree_param":{"num_deleted":"0","num_feature":"1024","num_nodes":"7","size_leaf_vector":"1"}},{"base_weights":[-3.4436537E-3,4.868115E-2,-4.1761104E-2,-2.3383421E-3,5.9659E-2],"categories":[],"categories_nodes":[],"categories_segments":[],"categories_sizes":[],"default_left":[0,0,0,0,0],"id":117,"left_children":[1,3,-1,-1,-1],"loss_changes":[9.756676E-1,1.6012871E0,0E0,0E0,0E0],"parents":[2147483647,0,0,1,1],"right_children":[2,4,-1,-1,-1],"split_conditions":[1E0,1E0,-4.1761104E-2,-2.3383421E-3,5.9659E-2],"split_indices":[921,964,0,0,0],"split_type":[0,0,0,0,0],"sum_hessian":[4.325238E1,3.9201195E1,4.0511847E0,3.5490562E1,3.71063E0],"tree_param":{"num_deleted":"0","num_feature":"1024","num_nodes":"5","size_leaf_vector":"1"}},{"base_weights":[-2.7107492E-3,-1.14473045E-1,1.9912434E-1,8.921679E-3,-9.264686E-2,-3.337883E-2,5.5711508E-2],"categories":[],"categories_nodes":[],"categories_segments":[],"categories_sizes":[],"default_left":[0,0,0,0,0,0,0],"id":118,"left_children":[1,3,5,-1,-1,-1,-1],"loss_changes":[1.0185257E0,4.8865905E0,3.2568395E0,0E0,0E0,0E0,0E0],"parents":[2147483647,0,0,1,1,2,2],"right_children":[2,4,6,-1,-1,-1,-1],"split_conditions":[1E0,1E0,1E0,8.921679E-3,-9.264686E-2,-3.337883E-2,5.5711508E-2],"split_indices":[695,315,656,0,0,0,0],"split_type":[0,0,0,0,0,0,0],"sum_hessian":[4.314182E1,2.8045181E1,1.509664E1,2.3132498E1,4.912682E0,6.093433E0,9.003207E0],"tree_param":{"num_deleted":"0","num_feature":"1024","num_nodes":"7","size_leaf_vector":"1"}},{"base_weights":[-3.6776399E-3,5.2667525E-2,-3.7197605E-2,2.1959027E-2,-2.0825246E-2],"categories":[],"categories_nodes":[],"categories_segments":[],"categories_sizes":[],"default_left":[0,0,0,0,0],"id":119,"left_children":[1,3,-1,-1,-1],"loss_changes":[9.2956144E-1,1.7402958E0,0E0,0E0,0E0],"parents":[2147483647,0,0,1,1],"right_children":[2,4,-1,-1,-1],"split_conditions":[1E0,1E0,-3.7197605E-2,2.1959027E-2,-2.0825246E-2],"split_indices":[1009,428,0,0,0],"split_type":[0,0,0,0,0],"sum_hessian":[4.2850113E1,3.7907696E1,4.9424176E0,2.3214617E1,1.4693079E1],"tree_param":{"num_deleted":"0","num_feature":"1024","num_nodes":"5","size_leaf_vector":"1"}},{"base_weights":[-4.1288636E-3,4.5434047E-2,-4.307541E-2,1.4898429E-2,-2.5854224E-2],"categories":[],"categories_nodes":[],"categories_segments":[],"categories_sizes":[],"default_left":[0,0,0,0,0],"id":120,"left_children":[1,3,-1,-1,-1],"loss_changes":[9.434586E-1,1.2991737E0,0E0,0E0,0E0],"parents":[2147483647,0,0,1,1],"right_children":[2,4,-1,-1,-1],"split_conditions":[1E0,1E0,-4.307541E-2,1.4898429E-2,-2.5854224E-2],"split_indices":[325,792,0,0,0],"split_type":[0,0,0,0,0],"sum_hessian":[4.2693405E1,3.905027E1,3.6431365E0,2.9508135E1,9.542133E0],"tree_param":{"num_deleted":"0","num_feature":"1024","num_nodes":"5","size_leaf_vector":"1"}},{"base_weights":[-4.94825E-3,-5.4980036E-2,4.1028477E-2,7.40208E-4,-5.2785106E-2],"categories":[],"categories_nodes":[],"categories_segments":[],"categories_sizes":[],"default_left":[0,0,0,0,0],"id":121,"left_children":[1,3,-1,-1,-1],"loss_changes":[9.287584E-1,1.178288E0,0E0,0E0,0E0],"parents":[2147483647,0,0,1,1],"right_children":[2,4,-1,-1,-1],"split_conditions":[1E0,1E0,4.1028477E-2,7.40208E-4,-5.2785106E-2],"split_indices":[709,954,0,0,0],"split_type":[0,0,0,0,0],"sum_hessian":[4.262009E1,3.881128E1,3.8088124E0,3.5157566E1,3.6537123E0],"tree_param":{"num_deleted":"0","num_feature":"1024","num_nodes":"5","size_leaf_vector":"1"}},{"base_weights":[-4.7211014E-3,8.300841E-2,-2.5112793E-1,2.1367965E-2,-2.945965E-2,-5.999249E-2,1.9852795E-2],"categories":[],"categories_nodes":[],"categories_segments":[],"categories_sizes":[],"default_left":[0,0,0,0,0,0,0],"id":122,"left_children":[1,3,5,-1,-1,-1,-1],"loss_changes":[9.616894E-1,1.6837074E0,1.9502954E0,0E0,0E0,0E0,0E0],"parents":[2147483647,0,0,1,1,2,2],"right_children":[2,4,6,-1,-1,-1,-1],"split_conditions":[1E0,1E0,1E0,2.1367965E-2,-2.945965E-2,-5.999249E-2,1.9852795E-2],"split_indices":[511,36,128,0,0,0,0],"split_type":[0,0,0,0,0,0,0],"sum_hessian":[4.2523018E1,3.1847363E1,1.0675657E1,2.3982328E1,7.865034E0,5.823892E0,4.851765E0],"tree_param":{"num_deleted":"0","num_feature":"1024","num_nodes":"7","size_leaf_vector":"1"}},{"base_weights":[-5.388096E-3,-5.2715708E-2,4.145809E-2,1.4519778E-3,-3.474765E-2],"categories":[],"categories_nodes":[],"categories_segments":[],"categories_sizes":[],"default_left":[0,0,0,0,0],"id":123,"left_children":[1,3,-1,-1,-1],"loss_changes":[8.845747E-1,7.9571927E-1,0E0,0E0,0E0],"parents":[2147483647,0,0,1,1],"right_children":[2,4,-1,-1,-1],"split_conditions":[1E0,1E0,4.145809E-2,1.4519778E-3,-3.474765E-2],"split_indices":[119,315,0,0,0],"split_type":[0,0,0,0,0],"sum_hessian":[4.240482E1,3.889599E1,3.508833E0,3.244578E1,6.450204E0],"tree_param":{"num_deleted":"0","num_feature":"1024","num_nodes":"5","size_leaf_vector":"1"}},{"base_weights":[-4.614872E-3,4.2417783E-2,-4.078822E-2,1.3963895E-2,-2.1322355E-2],"categories":[],"categories_nodes":[],"categories_segments":[],"categories_sizes":[],"default_left":[0,0,0,0,0],"id":124,"left_children":[1,3,-1,-1,-1],"loss_changes":[8.4035045E-1,1.0181513E0,0E0,0E0,0E0],"parents":[2147483647,0,0,1,1],"right_children":[2,4,-1,-1,-1],"split_conditions":[1E0,1E0,-4.078822E-2,1.3963895E-2,-2.1322355E-2],"split_indices":[325,511,0,0,0],"split_type":[0,0,0,0,0],"sum_hessian":[4.2394352E1,3.8767727E1,3.6266253E0,2.8415136E1,1.0352591E1],"tree_param":{"num_deleted":"0","num_feature":"1024","num_nodes":"5","size_leaf_vector":"1"}},{"base_weights":[-5.2690785E-3,4.984436E-2,-4.024168E-2,1.5582395E-2,-2.1393333E-2],"categories":[],"categories_nodes":[],"categories_segments":[],"categories_sizes":[],"default_left":[0,0,0,0,0],"id":125,"left_children":[1,3,-1,-1,-1],"loss_changes":[9.673425E-1,1.1206242E0,0E0,0E0,0E0],"parents":[2147483647,0,0,1,1],"right_children":[2,4,-1,-1,-1],"split_conditions":[1E0,1E0,-4.024168E-2,1.5582395E-2,-2.1393333E-2],"split_indices":[585,511,0,0,0],"split_type":[0,0,0,0,0],"sum_hessian":[4.227836E1,3.789416E1,4.384198E0,2.732492E1,1.0569242E1],"tree_param":{"num_deleted":"0","num_feature":"1024","num_nodes":"5","size_leaf_vector":"1"}},{"base_weights":[-5.816146E-3,-6.340939E-2,3.7305754E-2,7.066297E-3,-3.4769863E-2],"categories":[],"categories_nodes":[],"categories_segments":[],"categories_sizes":[],"default_left":[0,0,0,0,0],"id":126,"left_children":[1,3,-1,-1,-1],"loss_changes":[9.6495134E-1,1.484407E0,0E0,0E0,0E0],"parents":[2147483647,0,0,1,1],"right_children":[2,4,-1,-1,-1],"split_conditions":[1E0,1E0,3.7305754E-2,7.066297E-3,-3.4769863E-2],"split_indices":[114,745,0,0,0],"split_type":[0,0,0,0,0],"sum_hessian":[4.213802E1,3.7300537E1,4.8374815E0,2.585746E1,1.1443079E1],"tree_param":{"num_deleted":"0","num_feature":"1024","num_nodes":"5","size_leaf_vector":"1"}},{"base_weights":[-5.000842E-3,4.3573216E-2,-3.8708445E-2,-1.8058472E-3,5.2581232E-2],"categories":[],"categories_nodes":[],"categories_segments":[],"categories_sizes":[],"default_left":[0,0,0,0,0],"id":127,"left_children":[1,3,-1,-1,-1],"loss_changes":[8.1766427E-1,1.1739751E0,0E0,0E0,0E0],"parents":[2147483647,0,0,1,1],"right_children":[2,4,-1,-1,-1],"split_conditions":[1E0,1E0,-3.8708445E-2,-1.8058472E-3,5.2581232E-2],"split_indices":[921,73,0,0,0],"split_type":[0,0,0,0,0],"sum_hessian":[4.214794E1,3.8180088E1,3.967853E0,3.470698E1,3.4731092E0],"tree_param":{"num_deleted":"0","num_feature":"1024","num_nodes":"5","size_leaf_vector":"1"}},{"base_weights":[-4.173216E-3,-5.027643E-2,3.8635504E-2,9.263991E-3,-2.9862234E-2],"categories":[],"categories_nodes":[],"categories_segments":[],"categories_sizes":[],"default_left":[0,0,0,0,0],"id":128,"left_children":[1,3,-1,-1,-1],"loss_changes":[7.935788E-1,1.4240307E0,0E0,0E0,0E0],"parents":[2147483647,0,0,1,1],"right_children":[2,4,-1,-1,-1],"split_conditions":[1E0,1E0,3.8635504E-2,9.263991E-3,-2.9862234E-2],"split_indices":[709,428,0,0,0],"split_type":[0,0,0,0,0],"sum_hessian":[4.1997562E1,3.8342373E1,3.6551895E0,2.4735016E1,1.3607359E1],"tree_param":{"num_deleted":"0","num_feature":"1024","num_nodes":"5","size_leaf_vector":"1"}},{"base_weights":[-3.3364973E-3,-1.08028874E-1,1.9112998E-1,4.234062E-3,-5.6574147E-2,-7.673883E-3,8.3135895E-2],"categories":[],"categories_nodes":[],"categories_segments":[],"categories_sizes":[],"default_left":[0,0,0,0,0,0,0],"id":129,"left_children":[1,3,5,-1,-1,-1,-1],"loss_changes":[8.935067E-1,1.9860646E0,2.6988168E0,0E0,0E0,0E0,0E0],"parents":[2147483647,0,0,1,1,2,2],"right_children":[2,4,6,-1,-1,-1,-1],"split_conditions":[1E0,1E0,1E0,4.234062E-3,-5.6574147E-2,-7.673883E-3,8.3135895E-2],"split_indices":[695,896,964,0,0,0,0],"split_type":[0,0,0,0,0,0,0],"sum_hessian":[4.187305E1,2.7508268E1,1.436478E1,2.1388975E1,6.1192923E0,1.0748004E1,3.6167765E0],"tree_param":{"num_deleted":"0","num_feature":"1024","num_nodes":"7","size_leaf_vector":"1"}}]},"name":"gbtree"},"learner_model_param":{"base_score":"5.5174285E-1","boost_from_average":"1","num_class":"0","num_feature":"1024","num_target":"1"},"objective":{"name":"binary:logistic","reg_loss_param":{"scale_pos_weight":"1"}}},"version":[2,0,3]}